{"learner":{"attributes":{"scikit_learn":"{\"_estimator_type\": \"classifier\"}"},"feature_names":[],"feature_types":[],"gradient_booster":{"model":{"gbtree_model_param":{"num_parallel_tree":"1","num_trees":"100"},"iteration_indptr":[0,1,2,3,4,5,6,7,8,9,10,11,12,13,14,15,16,17,18,19,20,21,22,23,24,25,26,27,28,29,30,31,32,33,34,35,36,37,38,39,40,41,42,43,44,45,46,47,48,49,50,51,52,53,54,55,56,57,58,59,60,61,62,63,64,65,66,67,68,69,70,71,72,73,74,75,76,77,78,79,80,81,82,83,84,85,86,87,88,89,90,91,92,93,94,95,96,97,98,99,100],"tree_info":[0,0,0,0,0,0,0,0,0,0,0,0,0,0,0,0,0,0,0,0,0,0,0,0,0,0,0,0,0,0,0,0,0,0,0,0,0,0,0,0,0,0,0,0,0,0,0,0,0,0,0,0,0,0,0,0,0,0,0,0,0,0,0,0,0,0,0,0,0,0,0,0,0,0,0,0,0,0,0,0,0,0,0,0,0,0,0,0,0,0,0,0,0,0,0,0,0,0,0,0],"trees":[{"base_weights":[-1.0428811E0,-1.1396645E0,-7.49524E-1,-4.645953E-1,-1.1408926E0,1.7312183E0,-1.0853084E0,-3.283397E-1,8.717066E-1,-1.1410605E0,-2.1658851E-1,4.708482E0,-1.1313043E0,-1.0153815E0,-1.1157949E0,4.739289E0,-3.201702E-1,-3.4232655E-1,-3.418872E-2,5.4668796E-1,-2.8814167E-1,-3.3787364E-1,5.422286E0,-3.4062755E-1,-5.645417E-1,-1.1296349E0,-8.908234E-1,-3.4212923E-1,-1.1011479E0,-2.1202195E-1,1.9098259E0,-2.0233242E-1,5.711035E0,-2.841412E-1,1.9749309E-1,-3.4064466E-1,-2.8822112E-1,-1.072568E0,-5.6326294E-1,-1.0576168E0,-3.4222582E-1,-2.1020988E-1,5.086956E-1,1.7381209E0,1.3144877E0,-2.9310575E-1,-3.308737E-1,1.6437225E-2,-2.2294964E-1,-3.408605E-1,-3.028677E-1],"categories":[],"categories_nodes":[],"categories_segments":[],"categories_sizes":[],"default_left":[0,0,0,0,0,0,0,0,0,0,0,0,0,0,0,0,0,0,0,0,0,0,0,0,0,0,0,0,0,0,0,0,0,0,0,0,0,0,0,0,0,0,0,0,0,0,0,0,0,0,0],"id":0,"left_children":[1,3,5,7,9,11,13,-1,15,17,19,21,23,25,27,29,-1,-1,-1,-1,-1,-1,31,-1,33,35,37,-1,39,-1,-1,41,43,-1,-1,-1,-1,45,47,49,-1,-1,-1,-1,-1,-1,-1,-1,-1,-1,-1],"loss_changes":[1.3513672E3,2.9160156E1,9.846066E3,5.71071E1,5.296875E0,1.2016053E4,2.1057617E1,0E0,1.6950188E2,9.0234375E-1,1.3464006E1,2.8840137E3,1.0389404E0,4.4128418E1,1.3564453E0,7.1002304E1,0E0,0E0,0E0,0E0,0E0,0E0,1.0013574E3,0E0,3.9832108E0,5.3881836E-1,9.000867E1,0E0,6.67041E0,0E0,0E0,3.0546423E1,3.901953E1,0E0,0E0,0E0,0E0,1.7574463E0,6.066739E1,7.124756E0,0E0,0E0,0E0,0E0,0E0,0E0,0E0,0E0,0E0,0E0,0E0],"parents":[2147483647,0,0,1,1,2,2,3,3,4,4,5,5,6,6,8,8,9,9,10,10,11,11,12,12,13,13,14,14,15,15,22,22,24,24,25,25,26,26,28,28,31,31,32,32,37,37,38,38,39,39],"right_children":[2,4,6,8,10,12,14,-1,16,18,20,22,24,26,28,30,-1,-1,-1,-1,-1,-1,32,-1,34,36,38,-1,40,-1,-1,42,44,-1,-1,-1,-1,46,48,50,-1,-1,-1,-1,-1,-1,-1,-1,-1,-1,-1],"split_conditions":[1E0,0E0,3.9E-1,0E0,4E0,5.5102113E-4,7.56552E-1,-3.283397E-1,5.5102113E-4,1E1,5.5102113E-4,-8.7016577E-1,9E-2,2E0,0E0,-9.6175873E-1,-3.201702E-1,-3.4232655E-1,-3.418872E-2,5.4668796E-1,-2.8814167E-1,-3.3787364E-1,0E0,-3.4062755E-1,4E0,4E0,5.5102113E-4,-3.4212923E-1,6.8686344E-2,-2.1202195E-1,1.9098259E0,2E0,4E0,-2.841412E-1,1.9749309E-1,-3.4064466E-1,-2.8822112E-1,2.428E1,1.777043E-1,2E0,-3.4222582E-1,-2.1020988E-1,5.086956E-1,1.7381209E0,1.3144877E0,-2.9310575E-1,-3.308737E-1,1.6437225E-2,-2.2294964E-1,-3.408605E-1,-3.028677E-1],"split_indices":[5,9,0,0,3,6,6,0,6,4,6,7,2,5,7,7,0,0,0,0,0,0,9,0,5,8,6,0,7,0,0,5,3,0,0,0,0,1,6,5,0,0,0,0,0,0,0,0,0,0,0],"split_type":[0,0,0,0,0,0,0,0,0,0,0,0,0,0,0,0,0,0,0,0,0,0,0,0,0,0,0,0,0,0,0,0,0,0,0,0,0,0,0,0,0,0,0,0,0,0,0,0,0,0,0],"sum_hessian":[4.7625703E4,3.5808875E4,1.1816827E4,6.57141E1,3.574316E4,1.4082988E3,1.0408528E4,4.4785355E1,2.092875E1,3.5736438E4,6.723225E0,6.899981E2,7.183007E2,3.170543E3,7.237986E3,6.506347E0,1.4422402E1,3.573535E4,1.0843911E0,1.4097085E0,5.3135166E0,7.514831E1,6.148498E2,7.121197E2,6.18103E0,1.6494674E3,1.5210756E3,2.6700964E3,4.567889E3,1.6265868E0,4.8797603E0,3.0037636E1,5.8481213E2,4.8797603E0,1.3012694E0,1.5887415E3,6.0725906E1,9.768196E2,5.442559E2,2.1892773E3,2.378612E3,2.4290363E1,5.7472734E0,5.474007E2,3.7411495E1,2.4344582E2,7.333738E2,1.2286152E2,4.213944E2,8.2218536E2,1.3670919E3],"tree_param":{"num_deleted":"0","num_feature":"11","num_nodes":"51","size_leaf_vector":"1"}},{"base_weights":[-1.0001079E0,-1.0986085E0,-7.312272E-1,-5.046125E-1,-1.0998614E0,4.981305E-1,-1.0301844E0,-3.1280345E-1,2.868929E-1,-1.1000693E0,-1.7018038E-1,1.116736E0,-1.0878165E0,-9.456272E-1,-1.0680234E0,1.4310443E0,-3.0369183E-1,-3.300314E-1,-2.9310226E-2,3.3941758E-1,-2.6847437E-1,-3.245883E-1,1.2110517E0,-3.2788464E-1,-4.8125765E-1,-1.0855665E0,-8.020024E-1,-3.2978466E-1,-1.0496235E0,-1.9384225E-1,5.153986E-1,-2.1835175E-1,1.2415614E0,-2.6427338E-1,1.4841378E-1,-3.2789358E-1,-2.6442176E-1,-1.0141612E0,-4.642884E-1,-9.95714E-1,-3.299089E-1,-2.0411463E-1,2.5925276E-1,3.5454682E-1,4.9104318E-1,-2.6977098E-1,-3.1555295E-1,-9.591284E-2,-3.3174026E-1,-3.2817852E-1,-2.8124574E-1],"categories":[],"categories_nodes":[],"categories_segments":[],"categories_sizes":[],"default_left":[0,0,0,0,0,0,0,0,0,0,0,0,0,0,0,0,0,0,0,0,0,0,0,0,0,0,0,0,0,0,0,0,0,0,0,0,0,0,0,0,0,0,0,0,0,0,0,0,0,0,0],"id":1,"left_children":[1,3,5,7,9,11,13,-1,15,17,19,21,23,25,27,29,-1,-1,-1,-1,-1,-1,31,-1,33,35,37,-1,39,-1,-1,41,43,-1,-1,-1,-1,45,47,49,-1,-1,-1,-1,-1,-1,-1,-1,-1,-1,-1],"loss_changes":[9.8958984E2,1.98125E1,3.686459E3,2.561756E1,5.09375E0,1.9265646E3,2.480371E1,0E0,3.8377098E1,8.5546875E-1,7.8907166E0,2.9418103E2,1.1900024E0,4.943335E1,2.0473633E0,9.230635E0,0E0,0E0,0E0,0E0,0E0,0E0,5.934973E1,0E0,2.936594E0,9.506836E-1,8.830127E1,0E0,8.422119E0,0E0,0E0,1.5173157E1,2.9387207E1,0E0,0E0,0E0,0E0,2.3458252E0,4.4155487E1,8.744141E0,0E0,0E0,0E0,0E0,0E0,0E0,0E0,0E0,0E0,0E0,0E0],"parents":[2147483647,0,0,1,1,2,2,3,3,4,4,5,5,6,6,8,8,9,9,10,10,11,11,12,12,13,13,14,14,15,15,22,22,24,24,25,25,26,26,28,28,31,31,32,32,37,37,38,38,39,39],"right_children":[2,4,6,8,10,12,14,-1,16,18,20,22,24,26,28,30,-1,-1,-1,-1,-1,-1,32,-1,34,36,38,-1,40,-1,-1,42,44,-1,-1,-1,-1,46,48,50,-1,-1,-1,-1,-1,-1,-1,-1,-1,-1,-1],"split_conditions":[1E0,0E0,3.9E-1,0E0,4E0,5.5102113E-4,7.56552E-1,-3.1280345E-1,5.5102113E-4,1E1,5.5102113E-4,-8.7016577E-1,9E-2,2E0,0E0,-9.6175873E-1,-3.0369183E-1,-3.300314E-1,-2.9310226E-2,3.3941758E-1,-2.6847437E-1,-3.245883E-1,-9E-2,-3.2788464E-1,4E0,4E0,5.5102113E-4,-3.2978466E-1,6.8686344E-2,-1.9384225E-1,5.153986E-1,2E0,2E0,-2.6427338E-1,1.4841378E-1,-3.2789358E-1,-2.6442176E-1,2.428E1,6.8686344E-2,2E0,-3.299089E-1,-2.0411463E-1,2.5925276E-1,3.5454682E-1,4.9104318E-1,-2.6977098E-1,-3.1555295E-1,-9.591284E-2,-3.3174026E-1,-3.2817852E-1,-2.8124574E-1],"split_indices":[5,9,0,0,3,6,6,0,6,4,6,7,2,5,7,7,0,0,0,0,0,0,9,0,5,8,6,0,7,0,0,5,5,0,0,0,0,1,7,5,0,0,0,0,0,0,0,0,0,0,0],"split_type":[0,0,0,0,0,0,0,0,0,0,0,0,0,0,0,0,0,0,0,0,0,0,0,0,0,0,0,0,0,0,0,0,0,0,0,0,0,0,0,0,0,0,0,0,0,0,0,0,0,0,0],"sum_hessian":[3.7393742E4,2.7365645E4,1.0028097E4,5.844941E1,2.7307195E4,1.9614885E3,8.0666084E3,3.4606537E1,2.384287E1,2.7300902E4,6.291702E0,1.4113004E3,5.501881E2,2.5018455E3,5.5647627E3,1.2623972E1,1.12189E1,2.7299846E4,1.0567163E0,2.0496178E0,4.242084E0,5.7618507E1,1.3536819E3,5.447766E2,5.411476E0,1.2638594E3,1.2379861E3,2.0401365E3,3.5246265E3,1.3803223E0,1.12436495E1,2.8161007E1,1.3255209E3,3.9084077E0,1.5030682E0,1.2153815E3,4.8477848E1,7.591004E2,4.7888565E2,1.7073475E3,1.8172788E3,1.9997444E1,8.163561E0,1.1549495E3,1.7057141E2,1.935778E2,5.655226E2,3.9203116E2,8.685449E1,6.288578E2,1.0784899E3],"tree_param":{"num_deleted":"0","num_feature":"11","num_nodes":"51","size_leaf_vector":"1"}},{"base_weights":[-9.6057266E-1,-1.0702205E0,-6.7849207E-1,-4.7584996E-1,-1.0715526E0,3.5718375E-1,-9.8244166E-1,-2.997799E-1,2.1744095E-1,-1.0718089E0,-1.4369752E-1,7.7659994E-1,-1.0560771E0,-8.79397E-1,-1.030192E0,1.0938509E0,-2.8943333E-1,-3.2155627E-1,-2.5127986E-2,7.7298677E-1,-2.5049222E-1,-3.1466806E-1,8.358934E-1,-3.1876442E-1,-4.1217425E-1,-1.0529096E0,-7.1474516E-1,-3.2123742E-1,-1.0066252E0,-1.7762187E-1,3.945665E-1,3.4606656E-1,2.7527502E-2,-1.7835559E-1,8.560099E-1,-2.4609245E-1,1.129699E-1,-3.187641E-1,-8.03727E-1,-9.619126E-1,-3.746587E-1,-9.389167E-1,-3.2140118E-1,5.6670254E-1,-9.855481E-2,2.4451257E-1,3.3798862E-1,-2.039858E-1,-2.8487784E-1,-2.4690676E-1,-3.0282962E-1,5.0992828E-2,-1.7081258E-1,-3.191458E-1,-2.6037705E-1],"categories":[],"categories_nodes":[],"categories_segments":[],"categories_sizes":[],"default_left":[0,0,0,0,0,0,0,0,0,0,0,0,0,0,0,0,0,0,0,0,0,0,0,0,0,0,0,0,0,0,0,0,0,0,0,0,0,0,0,0,0,0,0,0,0,0,0,0,0,0,0,0,0,0,0],"id":2,"left_children":[1,3,5,7,9,11,13,-1,15,17,19,21,23,25,27,29,-1,-1,-1,31,-1,-1,33,-1,35,37,39,-1,41,-1,-1,-1,-1,43,45,-1,-1,-1,47,49,51,53,-1,-1,-1,-1,-1,-1,-1,-1,-1,-1,-1,-1,-1],"loss_changes":[8.896035E2,1.5900391E1,2.5376123E3,1.7689625E1,4.763672E0,1.0852454E3,2.975586E1,0E0,2.33675E1,8.339844E-1,4.9958553E0,1.5364496E2,1.3083191E0,5.5817505E1,2.9907227E0,5.5690737E0,0E0,0E0,0E0,7.939539E-1,0E0,0E0,2.805481E1,0E0,2.177184E0,1.4562988E0,8.530426E1,0E0,1.0856445E1,0E0,0E0,0E0,0E0,9.133892E0,1.3950317E1,0E0,0E0,0E0,7.5172424E-2,3.0601807E0,4.575825E1,1.0880005E1,0E0,0E0,0E0,0E0,0E0,0E0,0E0,0E0,0E0,0E0,0E0,0E0,0E0],"parents":[2147483647,0,0,1,1,2,2,3,3,4,4,5,5,6,6,8,8,9,9,10,10,11,11,12,12,13,13,14,14,15,15,19,19,22,22,24,24,25,25,26,26,28,28,33,33,34,34,38,38,39,39,40,40,41,41],"right_children":[2,4,6,8,10,12,14,-1,16,18,20,22,24,26,28,30,-1,-1,-1,32,-1,-1,34,-1,36,38,40,-1,42,-1,-1,-1,-1,44,46,-1,-1,-1,48,50,52,54,-1,-1,-1,-1,-1,-1,-1,-1,-1,-1,-1,-1,-1],"split_conditions":[1E0,0E0,3.9E-1,0E0,4E0,5.5102113E-4,7.56552E-1,-2.997799E-1,5.5102113E-4,1E1,5.5102113E-4,-8.7016577E-1,9E-2,2E0,0E0,-9.6175873E-1,-2.8943333E-1,-3.2155627E-1,-2.5127986E-2,4.4E1,-2.5049222E-1,-3.1466806E-1,-9E-2,-3.1876442E-1,4E0,4E0,5.5102113E-4,-3.2123742E-1,6.8686344E-2,-1.7762187E-1,3.945665E-1,3.4606656E-1,2.7527502E-2,8E0,2E0,-2.4609245E-1,1.129699E-1,-3.187641E-1,1.9630127E-1,2.428E1,1.777043E-1,2E0,-3.2140118E-1,5.6670254E-1,-9.855481E-2,2.4451257E-1,3.3798862E-1,-2.039858E-1,-2.8487784E-1,-2.4690676E-1,-3.0282962E-1,5.0992828E-2,-1.7081258E-1,-3.191458E-1,-2.6037705E-1],"split_indices":[5,9,0,0,3,6,6,0,6,4,6,7,2,5,7,7,0,0,0,3,0,0,9,0,5,8,6,0,7,0,0,0,0,4,5,0,0,0,6,1,6,5,0,0,0,0,0,0,0,0,0,0,0,0,0],"split_type":[0,0,0,0,0,0,0,0,0,0,0,0,0,0,0,0,0,0,0,0,0,0,0,0,0,0,0,0,0,0,0,0,0,0,0,0,0,0,0,0,0,0,0,0,0,0,0,0,0,0,0,0,0,0,0],"sum_hessian":[2.8784758E4,2.0725668E4,8.0590894E3,4.714913E1,2.067852E4,1.8284988E3,6.2305903E3,2.6614529E1,2.0534603E1,2.0672654E4,5.8653193E0,1.4103862E3,4.1811255E2,1.9791094E3,4.2514814E3,1.1835432E1,8.699171E0,2.0671621E4,1.03335E0,2.4707365E0,3.3945827E0,4.3844265E1,1.366542E3,4.1330884E2,4.803714E0,9.609992E2,1.0181101E3,1.5451492E3,2.706332E3,1.1793234E0,1.0656109E1,1.1403399E0,1.3303965E0,2.6423735E1,1.3401183E3,3.1392736E0,1.6644402E0,9.2207275E2,3.8926468E1,5.885421E2,4.29568E2,1.330124E3,1.376208E3,1.0051532E0,2.5418581E1,1.1674015E3,1.7271681E2,2.4120506E1,1.480596E1,1.5470119E2,4.3384094E2,1.1316503E2,3.1640295E2,4.7697266E2,8.531514E2],"tree_param":{"num_deleted":"0","num_feature":"11","num_nodes":"55","size_leaf_vector":"1"}},{"base_weights":[-9.2597795E-1,-1.0501524E0,-6.272429E-1,-4.5188195E-1,-1.0515687E0,2.6527977E-1,-9.370124E-1,-2.877895E-1,1.723609E-1,-1.0518897E0,-1.0704831E-1,5.6835204E-1,-1.0314428E0,-8.126455E-1,-9.972908E-1,-2.7722752E-1,2.7310234E-1,-3.155847E-1,-2.1543087E-2,6.8058693E-1,-2.57105E-1,-3.06713E-1,6.090562E-1,-3.1190076E-1,-3.5487077E-1,-1.026984E0,-6.280451E-1,-1.0505508E0,-9.669541E-1,-1.7993532E-1,4.2705947E-1,6.379593E-1,2.2821675E-1,9.259417E-2,-2.4125135E-1,-3.1188858E-1,-7.2696036E-1,-9.105587E-1,-2.971334E-1,-4.2423224E-1,-3.154224E-1,-8.820293E-1,-3.1538358E-1,1.8297493E-1,2.5653753E-1,1.4105367E-2,3.6506966E-1,-1.7761448E-1,-2.6911604E-1,-2.2338171E-1,-2.911501E-1,-3.2328478E-1,-4.7686204E-2,-1.7401788E-1,-1.3781579E-2,-3.124025E-1,-2.3890509E-1],"categories":[],"categories_nodes":[],"categories_segments":[],"categories_sizes":[],"default_left":[0,0,0,0,0,0,0,0,0,0,0,0,0,0,0,0,0,0,0,0,0,0,0,0,0,0,0,0,0,0,0,0,0,0,0,0,0,0,0,0,0,0,0,0,0,0,0,0,0,0,0,0,0,0,0,0,0],"id":3,"left_children":[1,3,5,7,9,11,13,-1,15,17,19,21,23,25,27,-1,-1,-1,-1,29,-1,-1,31,-1,33,35,37,39,41,-1,-1,43,45,-1,-1,-1,47,49,51,53,-1,55,-1,-1,-1,-1,-1,-1,-1,-1,-1,-1,-1,-1,-1,-1,-1],"loss_changes":[8.1877344E2,1.2746094E1,1.7941709E3,1.2393624E1,4.6054688E0,6.5789594E2,3.5300293E1,0E0,1.5533691E1,8.261719E-1,4.3634424E0,8.844418E1,1.3965149E0,6.178894E1,4.2192383E0,0E0,0E0,0E0,0E0,4.353172E0,0E0,0E0,1.4418579E1,0E0,1.8368144E0,2.0082397E0,7.922626E1,1.7895508E-1,1.394519E1,0E0,0E0,6.964386E0,1.694203E1,0E0,0E0,0E0,2.2133827E-1,3.8356628E0,4.2224747E1,1.6597259E-1,0E0,1.33793335E1,0E0,0E0,0E0,0E0,0E0,0E0,0E0,0E0,0E0,0E0,0E0,0E0,0E0,0E0,0E0],"parents":[2147483647,0,0,1,1,2,2,3,3,4,4,5,5,6,6,8,8,9,9,10,10,11,11,12,12,13,13,14,14,19,19,22,22,24,24,25,25,26,26,27,27,28,28,31,31,32,32,36,36,37,37,38,38,39,39,41,41],"right_children":[2,4,6,8,10,12,14,-1,16,18,20,22,24,26,28,-1,-1,-1,-1,30,-1,-1,32,-1,34,36,38,40,42,-1,-1,44,46,-1,-1,-1,48,50,52,54,-1,56,-1,-1,-1,-1,-1,-1,-1,-1,-1,-1,-1,-1,-1,-1,-1],"split_conditions":[1E0,0E0,3.9E-1,0E0,4E0,5.5102113E-4,7.56552E-1,-2.877895E-1,-1.03731774E-1,1E1,3.9E-1,-8.7016577E-1,9E-2,2E0,0E0,-2.7722752E-1,2.7310234E-1,-3.155847E-1,-2.1543087E-2,-9.6175873E-1,-2.57105E-1,-3.06713E-1,5E0,-3.1190076E-1,3.030616E-2,4E0,5.5102113E-4,-1E0,6.8686344E-2,-1.7993532E-1,4.2705947E-1,2E0,3E0,9.259417E-2,-2.4125135E-1,-3.1188858E-1,1.9630127E-1,2.428E1,0E0,2.7304E2,-3.154224E-1,2E0,-3.1538358E-1,1.8297493E-1,2.5653753E-1,1.4105367E-2,3.6506966E-1,-1.7761448E-1,-2.6911604E-1,-2.2338171E-1,-2.911501E-1,-3.2328478E-1,-4.7686204E-2,-1.7401788E-1,-1.3781579E-2,-3.124025E-1,-2.3890509E-1],"split_indices":[5,9,0,0,3,6,6,0,7,4,0,7,2,5,7,0,0,0,0,7,0,0,3,0,6,8,6,7,7,0,0,5,5,0,0,0,6,1,7,1,0,5,0,0,0,0,0,0,0,0,0,0,0,0,0,0,0],"split_type":[0,0,0,0,0,0,0,0,0,0,0,0,0,0,0,0,0,0,0,0,0,0,0,0,0,0,0,0,0,0,0,0,0,0,0,0,0,0,0,0,0,0,0,0,0,0,0,0,0,0,0,0,0,0,0,0,0],"sum_hessian":[2.208895E4,1.5601428E4,6.487522E3,3.760533E1,1.5563822E4,1.671541E3,4.815981E3,2.044768E1,1.7157654E1,1.5558423E4,5.3994565E0,1.3553322E3,3.162089E2,1.5769299E3,3.239051E3,6.8009562E0,1.0356697E1,1.555741E4,1.0135862E0,2.6787157E0,2.7207408E0,3.3213734E1,1.3221184E3,3.1188013E2,4.328778E0,7.275789E2,8.49351E2,1.1632274E3,2.0758237E3,1.0543572E0,1.6243585E0,1.228229E3,9.3889366E1,1.8741374E0,2.4546402E0,6.957896E2,3.1789314E1,4.5723666E2,3.9211438E2,2.267592E0,1.1609598E3,1.0399402E3,1.0358835E3,1.0911377E3,1.3709138E2,8.023247E1,1.36569E1,2.0226812E1,1.1562501E1,1.2489025E2,3.323464E2,5.795678E1,3.341576E2,1.228279E0,1.039313E0,3.5979028E2,6.8014984E2],"tree_param":{"num_deleted":"0","num_feature":"11","num_nodes":"57","size_leaf_vector":"1"}},{"base_weights":[-8.9237064E-1,-1.0356485E0,-5.7430553E-1,-4.2184377E-1,-1.0372196E0,1.9721013E-1,-8.8990694E-1,-2.7582327E-1,1.3194215E-1,-1.0376161E0,-1.0344683E-1,4.20929E-1,-1.0105513E0,-7.4204683E-1,-9.658013E-1,2.4098113E-1,-2.6808766E-1,-3.1130832E-1,-2.3570407E-2,5.0361055E-1,-2.3641452E-1,-2.9979393E-1,4.4984904E-1,-5.87473E-1,-3.1035435E-1,-1.0046141E0,-5.4122704E-1,-1.0358504E0,-9.268885E-1,2.6149988E-1,-6.5359555E-2,-1.9197972E-1,4.6360692E-1,-8.2492375E-1,3.809176E-1,-1.0212818E0,-6.4853513E-1,-8.5644513E-1,-2.3141778E-1,-3.818435E-1,-3.11091E-1,-8.2158464E-1,-3.1104395E-1,-1.7240927E-1,1.3432206E-1,1.3047962E-1,2.0006274E-1,-2.8623623E-1,-6.441425E-3,-1.4032911E-1,-3.069341E-1,-2.7312523E-1,-1.5822643E-1,-1.6967359E-1,-2.722112E-1,-2.2928089E-2,-3.1644225E-1,-1.6135702E-1,-9.76212E-3,-3.0707717E-1,-2.1611038E-1],"categories":[],"categories_nodes":[],"categories_segments":[],"categories_sizes":[],"default_left":[0,0,0,0,0,0,0,0,0,0,0,0,0,0,0,0,0,0,0,0,0,0,0,0,0,0,0,0,0,0,0,0,0,0,0,0,0,0,0,0,0,0,0,0,0,0,0,0,0,0,0,0,0,0,0,0,0,0,0,0,0],"id":4,"left_children":[1,3,5,7,9,11,13,-1,15,17,19,21,23,25,27,-1,-1,-1,-1,29,-1,-1,31,33,-1,35,37,39,41,-1,-1,43,45,47,-1,49,51,53,55,57,-1,59,-1,-1,-1,-1,-1,-1,-1,-1,-1,-1,-1,-1,-1,-1,-1,-1,-1,-1,-1],"loss_changes":[7.725928E2,1.0841797E1,1.2837289E3,8.814102E0,4.2128906E0,4.1414777E2,4.126709E1,0E0,1.15993185E1,7.919922E-1,2.9163933E0,5.354039E1,1.8213348E0,6.659601E1,5.7697754E0,0E0,0E0,0E0,0E0,1.2051644E0,0E0,0E0,1.1281036E1,7.7316747E0,0E0,2.605713E0,7.047221E1,2.4353027E-1,1.763147E1,0E0,0E0,6.9426813E0,6.9443665E0,1.4374561E0,0E0,5.2978516E-2,3.8769913E-1,4.7944946E0,4.6669533E1,1.5008214E-1,0E0,1.6035461E1,0E0,0E0,0E0,0E0,0E0,0E0,0E0,0E0,0E0,0E0,0E0,0E0,0E0,0E0,0E0,0E0,0E0,0E0,0E0],"parents":[2147483647,0,0,1,1,2,2,3,3,4,4,5,5,6,6,8,8,9,9,10,10,11,11,12,12,13,13,14,14,19,19,22,22,23,23,25,25,26,26,27,27,28,28,31,31,32,32,33,33,35,35,36,36,37,37,38,38,39,39,41,41],"right_children":[2,4,6,8,10,12,14,-1,16,18,20,22,24,26,28,-1,-1,-1,-1,30,-1,-1,32,34,-1,36,38,40,42,-1,-1,44,46,48,-1,50,52,54,56,58,-1,60,-1,-1,-1,-1,-1,-1,-1,-1,-1,-1,-1,-1,-1,-1,-1,-1,-1,-1,-1],"split_conditions":[1E0,0E0,3.9E-1,0E0,4E0,5.5102113E-4,7.56552E-1,-2.7582327E-1,5.5102113E-4,8E0,3.9E-1,-8.7016577E-1,3.030616E-2,2E0,0E0,2.4098113E-1,-2.6808766E-1,-3.1130832E-1,-2.3570407E-2,4.6E1,-2.3641452E-1,-2.9979393E-1,-9E-2,4E0,-3.1035435E-1,4E0,5.5102113E-4,-1E0,6.8686344E-2,2.6149988E-1,-6.5359555E-2,2E0,2E0,2E0,3.809176E-1,-1.37E2,5.5102113E-4,8E0,6.8686344E-2,5.1356544E0,-3.11091E-1,2E0,-3.1104395E-1,-1.7240927E-1,1.3432206E-1,1.3047962E-1,2.0006274E-1,-2.8623623E-1,-6.441425E-3,-1.4032911E-1,-3.069341E-1,-2.7312523E-1,-1.5822643E-1,-1.6967359E-1,-2.722112E-1,-2.2928089E-2,-3.1644225E-1,-1.6135702E-1,-9.76212E-3,-3.0707717E-1,-2.1611038E-1],"split_indices":[5,9,0,0,3,6,6,0,6,4,0,7,6,5,7,0,0,0,0,3,0,0,9,5,0,8,6,7,7,0,0,5,5,5,0,10,6,3,7,6,0,5,0,0,0,0,0,0,0,0,0,0,0,0,0,0,0,0,0,0,0],"split_type":[0,0,0,0,0,0,0,0,0,0,0,0,0,0,0,0,0,0,0,0,0,0,0,0,0,0,0,0,0,0,0,0,0,0,0,0,0,0,0,0,0,0,0,0,0,0,0,0,0,0,0,0,0,0,0,0,0,0,0,0,0],"sum_hessian":[1.6965422E4,1.1694969E4,5.270453E3,3.0547565E1,1.1664421E4,1.5301764E3,3.740277E3,1.574275E1,1.4804815E1,1.1659358E4,5.062487E0,1.2915824E3,2.3859392E2,1.2723042E3,2.467973E3,9.078716E0,5.726099E0,1.1658326E4,1.0322188E0,2.8233287E0,2.2391584E0,2.5105692E1,1.2664767E3,1.4157259E1,2.2443665E2,5.496485E2,7.2265564E2,8.7221967E2,1.5957532E3,1.7317284E0,1.0916002E0,2.630591E1,1.2401708E3,1.3045198E1,1.112061E0,5.2328595E2,2.636256E1,3.5732642E2,3.6532925E2,2.075172E0,8.701445E2,8.1933386E2,7.764193E2,1.6522705E1,9.783206E0,1.0896019E3,1.5056895E2,1.1076539E1,1.9686588E0,2.5716052E0,5.2071436E2,6.2756925E0,2.0086868E1,5.504372E1,3.0228268E2,3.0837506E2,5.6954185E1,1.0613362E0,1.0138359E0,2.704544E2,5.4887946E2],"tree_param":{"num_deleted":"0","num_feature":"11","num_nodes":"61","size_leaf_vector":"1"}},{"base_weights":[-8.571526E-1,-1.0249863E0,-5.189772E-1,-3.9403954E-1,-1.0267423E0,1.4443043E-1,-8.387351E-1,-2.6317316E-1,9.9390455E-2,-1.027246E0,-9.453037E-2,3.1093594E-1,-9.9195415E-1,-6.67629E-1,-9.329725E-1,-2.5578037E-1,1.9694932E-1,-3.08205E-1,-2.019929E-2,4.6607938E-1,-2.1603383E-1,-2.9323804E-1,3.3187583E-1,-5.122484E-1,-3.0678603E-1,-9.834728E-1,-4.574081E-1,-1.0249028E0,-8.835688E-1,2.0157707E-1,1.6864987E-2,3.5701704E-1,7.332544E-2,-2.7648044E-1,4.9006766E-1,-1.0101423E0,-6.269983E-1,-7.969675E-1,-1.7894298E-1,-1.03285246E-1,-3.0791417E-1,-7.554868E-1,-3.0785462E-1,1.0185409E-1,1.540067E-1,-5.0462637E-2,1.3850217E-1,-5.1837377E-3,2.7192777E-1,-1.0710309E-1,-3.0378807E-1,-1.4483185E-1,-2.557663E-1,-1.7093313E-1,-2.6814064E-1,-3.1320465E-1,-1.5722519E-2,-3.025621E-1,-1.9183296E-1],"categories":[],"categories_nodes":[],"categories_segments":[],"categories_sizes":[],"default_left":[0,0,0,0,0,0,0,0,0,0,0,0,0,0,0,0,0,0,0,0,0,0,0,0,0,0,0,0,0,0,0,0,0,0,0,0,0,0,0,0,0,0,0,0,0,0,0,0,0,0,0,0,0,0,0,0,0,0,0],"id":5,"left_children":[1,3,5,7,9,11,13,-1,15,17,19,21,23,25,27,-1,-1,-1,-1,29,-1,-1,31,33,-1,35,37,39,41,-1,-1,43,45,-1,47,49,51,53,55,-1,-1,57,-1,-1,-1,-1,-1,-1,-1,-1,-1,-1,-1,-1,-1,-1,-1,-1,-1],"loss_changes":[7.419385E2,9.280273E0,9.209591E2,6.2589326E0,3.9960938E0,2.676044E2,4.6609863E1,0E0,7.8285027E0,7.998047E-1,2.3725858E0,3.358635E1,2.135437E0,6.885849E1,7.6619873E0,0E0,0E0,0E0,0E0,2.718746E-1,0E0,0E0,7.8645935E0,5.7303715E0,0E0,3.3240356E0,5.9293503E1,3.034668E-1,2.1769836E1,0E0,0E0,2.852478E0,1.0286599E1,0E0,9.416355E-1,2.6431274E-1,6.1675644E-1,5.7152557E0,3.7890255E1,0E0,0E0,1.8561432E1,0E0,0E0,0E0,0E0,0E0,0E0,0E0,0E0,0E0,0E0,0E0,0E0,0E0,0E0,0E0,0E0,0E0],"parents":[2147483647,0,0,1,1,2,2,3,3,4,4,5,5,6,6,8,8,9,9,10,10,11,11,12,12,13,13,14,14,19,19,22,22,23,23,25,25,26,26,27,27,28,28,31,31,32,32,34,34,35,35,36,36,37,37,38,38,41,41],"right_children":[2,4,6,8,10,12,14,-1,16,18,20,22,24,26,28,-1,-1,-1,-1,30,-1,-1,32,34,-1,36,38,40,42,-1,-1,44,46,-1,48,50,52,54,56,-1,-1,58,-1,-1,-1,-1,-1,-1,-1,-1,-1,-1,-1,-1,-1,-1,-1,-1,-1],"split_conditions":[1E0,0E0,3.9E-1,0E0,4E0,5.5102113E-4,7.56552E-1,-2.6317316E-1,-1.03731774E-1,8E0,5.5102113E-4,-8.7016577E-1,3.030616E-2,2E0,0E0,-2.5578037E-1,1.9694932E-1,-3.08205E-1,-2.019929E-2,4.4E1,-2.1603383E-1,-2.9323804E-1,4E0,2E0,-3.0678603E-1,4.2E-1,5.5102113E-4,-1E0,6.8686344E-2,2.0157707E-1,1.6864987E-2,2E0,2E0,-2.7648044E-1,4E0,-1.37E2,1.9630127E-1,2.714E1,0E0,-1.03285246E-1,-3.0791417E-1,2E0,-3.0785462E-1,1.0185409E-1,1.540067E-1,-5.0462637E-2,1.3850217E-1,-5.1837377E-3,2.7192777E-1,-1.0710309E-1,-3.0378807E-1,-1.4483185E-1,-2.557663E-1,-1.7093313E-1,-2.6814064E-1,-3.1320465E-1,-1.5722519E-2,-3.025621E-1,-1.9183296E-1],"split_indices":[5,9,0,0,3,6,6,0,7,4,6,7,6,5,7,0,0,0,0,3,0,0,3,5,0,2,6,7,7,0,0,5,5,0,5,10,6,1,7,0,0,5,0,0,0,0,0,0,0,0,0,0,0,0,0,0,0,0,0],"split_type":[0,0,0,0,0,0,0,0,0,0,0,0,0,0,0,0,0,0,0,0,0,0,0,0,0,0,0,0,0,0,0,0,0,0,0,0,0,0,0,0,0,0,0,0,0,0,0,0,0,0,0,0,0,0,0,0,0,0,0],"sum_hessian":[1.308051E4,8.740593E3,4.3399165E3,2.4885197E1,8.715708E3,1.4116625E3,2.9282542E3,1.2179879E1,1.27053175E1,8.710899E3,4.808132E0,1.2318898E3,1.7977277E2,1.0428478E3,1.8854065E3,4.4945564E0,8.210761E0,8.709887E3,1.0133467E0,2.670213E0,2.137919E0,1.8970753E1,1.212919E3,1.1865489E1,1.6790727E2,4.1526288E2,6.2758484E2,6.5214624E2,1.2332603E3,1.3518773E0,1.3183358E0,1.105081E3,1.0783798E2,8.481935E0,3.3835542E0,3.8465158E2,3.0611317E1,2.819338E2,3.4565103E2,1.9197283E0,6.502265E2,6.530492E2,5.8021106E2,9.966674E2,1.0841357E2,6.683602E1,4.100196E1,1.957172E0,1.4263823E0,2.006024E0,3.8264554E2,2.0587551E1,1.0023765E1,8.6312965E1,1.9562083E2,4.318175E1,3.024693E2,2.0289966E2,4.501495E2],"tree_param":{"num_deleted":"0","num_feature":"11","num_nodes":"59","size_leaf_vector":"1"}},{"base_weights":[-8.178327E-1,-1.0169643E0,-4.6069598E-1,-3.6537984E-1,-1.0189724E0,1.03976704E-1,-7.815925E-1,-2.4937278E-1,6.897534E-2,-3.058824E-1,-7.8185454E-2,2.2823948E-1,-9.73989E-1,-6.122897E-1,-9.152341E-1,5.977033E-1,-2.4806042E-1,3.9122704E-1,-2.1436553E-1,-2.865242E-1,2.4358414E-1,-4.4322014E-1,-3.0391824E-1,-9.723036E-1,-3.9593267E-1,-1.0161909E0,-8.59165E-1,2.2067688E-1,8.4480375E-2,1.9731641E-1,-5.1644914E-2,-5.794936E-1,2.4859224E-1,-2.6610664E-1,3.767305E-1,-1.0012587E0,-5.801235E-1,-2.6836592E-1,-3.0781645E-1,-6.0449544E-2,-3.054923E-1,-7.08625E-1,-3.0540878E-1,6.1801817E-2,-2.2960533E-1,6.773806E-2,1.2500806E-1,1.8249185E-1,-5.973201E-2,-1.12000674E-1,-3.0117464E-1,-1.2049544E-1,-2.5198132E-1,-3.0704975E-1,-3.2754283E-2,-2.2255614E-1,2.3586118E-1],"categories":[],"categories_nodes":[],"categories_segments":[],"categories_sizes":[],"default_left":[0,0,0,0,0,0,0,0,0,0,0,0,0,0,0,0,0,0,0,0,0,0,0,0,0,0,0,0,0,0,0,0,0,0,0,0,0,0,0,0,0,0,0,0,0,0,0,0,0,0,0,0,0,0,0,0,0],"id":6,"left_children":[1,3,5,7,9,11,13,-1,15,-1,17,19,21,23,25,27,-1,29,-1,-1,31,33,-1,35,37,39,41,-1,-1,-1,-1,43,45,-1,47,49,51,53,-1,-1,-1,55,-1,-1,-1,-1,-1,-1,-1,-1,-1,-1,-1,-1,-1,-1,-1],"loss_changes":[7.218496E2,8.15918E0,6.5923926E2,4.426465E0,3.805664E0,1.7691025E2,5.192395E1,0E0,6.224158E0,0E0,1.9135575E0,2.1722607E1,2.382309E0,7.955679E1,6.453491E0,1.4973092E-1,0E0,6.8287045E-1,0E0,0E0,4.96344E0,4.3875875E0,0E0,3.7861938E0,5.1390526E1,5.8239746E-1,1.9335083E1,0E0,0E0,0E0,0E0,1.2337804E0,4.36232E0,0E0,7.363477E-1,2.2033691E-1,9.9894905E-1,6.4305176E1,0E0,0E0,0E0,2.213527E1,0E0,0E0,0E0,0E0,0E0,0E0,0E0,0E0,0E0,0E0,0E0,0E0,0E0,0E0,0E0],"parents":[2147483647,0,0,1,1,2,2,3,3,4,4,5,5,6,6,8,8,10,10,11,11,12,12,13,13,14,14,15,15,17,17,20,20,21,21,23,23,24,24,25,25,26,26,31,31,32,32,34,34,35,35,36,36,37,37,41,41],"right_children":[2,4,6,8,10,12,14,-1,16,-1,18,20,22,24,26,28,-1,30,-1,-1,32,34,-1,36,38,40,42,-1,-1,-1,-1,44,46,-1,48,50,52,54,-1,-1,-1,56,-1,-1,-1,-1,-1,-1,-1,-1,-1,-1,-1,-1,-1,-1,-1],"split_conditions":[1E0,0E0,3.9E-1,0E0,4E0,5.5102113E-4,1.3432517E0,-2.4937278E-1,5.5102113E-4,-3.058824E-1,3.9E-1,-8.7016577E-1,3.030616E-2,2E0,0E0,-9E-2,-2.4806042E-1,4.6E1,-2.1436553E-1,-2.865242E-1,-5.13E0,2E0,-3.0391824E-1,4.2E-1,6.8686344E-2,-1E0,6.8686344E-2,2.2067688E-1,8.4480375E-2,1.9731641E-1,-5.1644914E-2,1.1E1,2E0,-2.6610664E-1,2.1E-1,-1.37E2,1.9630127E-1,0E0,-3.0781645E-1,-6.0449544E-2,-3.054923E-1,1.8812E2,-3.0540878E-1,6.1801817E-2,-2.2960533E-1,6.773806E-2,1.2500806E-1,1.8249185E-1,-5.973201E-2,-1.12000674E-1,-3.0117464E-1,-1.2049544E-1,-2.5198132E-1,-3.0704975E-1,-3.2754283E-2,-2.2255614E-1,2.3586118E-1],"split_indices":[5,9,0,0,3,6,6,0,6,0,0,7,6,5,7,9,0,3,0,0,9,5,0,2,7,7,7,0,0,0,0,4,5,0,2,10,6,7,0,0,0,2,0,0,0,0,0,0,0,0,0,0,0,0,0,0,0],"split_type":[0,0,0,0,0,0,0,0,0,0,0,0,0,0,0,0,0,0,0,0,0,0,0,0,0,0,0,0,0,0,0,0,0,0,0,0,0,0,0,0,0,0,0,0,0,0,0,0,0,0,0,0,0,0,0,0,0],"sum_hessian":[1.0155723E4,6.519015E3,3.6367073E3,2.0591957E1,6.4984233E3,1.3180488E3,2.3186582E3,9.4947405E0,1.1097216E1,6.493953E3,4.470055E0,1.1825216E3,1.3552722E2,1.0253209E3,1.2933374E3,7.187782E0,3.9094343E0,2.794168E0,1.675887E0,1.4354024E1,1.1681676E3,1.0138957E1,1.2538827E2,3.835715E2,6.417494E2,4.5569608E2,8.3764136E2,4.080688E0,3.1070938E0,1.7831982E0,1.0109698E0,6.3710966E0,1.1617965E3,6.525306E0,3.6136506E0,3.557528E2,2.7818699E1,5.3488837E2,1.0686102E2,1.430203E0,4.5426587E2,4.3289236E2,4.04749E2,1.1982896E0,5.1728067E0,1.0251094E3,1.3668713E2,2.5369987E0,1.0766517E0,2.0950546E0,3.5365775E2,1.8000013E1,9.818686E0,9.218002E1,4.4270834E2,4.2397156E2,8.920803E0],"tree_param":{"num_deleted":"0","num_feature":"11","num_nodes":"57","size_leaf_vector":"1"}},{"base_weights":[-7.7245504E-1,-1.010716E0,-4.0067643E-1,-3.3059222E-1,-1.013071E0,7.258904E-2,-7.1743286E-1,-2.3418935E-1,5.450747E-2,-3.0416393E-1,-7.708587E-2,1.6525088E-1,-9.543236E-1,-5.331348E-1,-8.777028E-1,-2.346487E-1,4.940889E-1,3.7515867E-1,-1.9736788E-1,-2.7923432E-1,1.7657842E-1,-3.828159E-1,-3.014597E-1,-9.5123935E-1,-3.2237265E-1,-1.0093191E0,-8.081054E-1,1.8017778E-1,7.2030246E-2,1.54008E-1,2.0905085E-2,1.9523908E-1,-4.1661903E-2,-2.5485E-1,2.6174214E-1,-9.892941E-1,-5.026484E-1,-2.0979059E-1,-3.04089E-1,-5.171968E-2,-3.036443E-1,-6.3249135E-1,-3.0353424E-1,5.9504703E-2,-2.1485029E-1,-7.591656E-2,1.2174802E-1,-2.9887473E-2,1.7536792E-1,-9.702862E-2,-2.978405E-1,-9.801208E-2,-2.3685919E-1,-3.0326268E-1,-2.3761949E-2,-3.026967E-1,-1.5603544E-1],"categories":[],"categories_nodes":[],"categories_segments":[],"categories_sizes":[],"default_left":[0,0,0,0,0,0,0,0,0,0,0,0,0,0,0,0,0,0,0,0,0,0,0,0,0,0,0,0,0,0,0,0,0,0,0,0,0,0,0,0,0,0,0,0,0,0,0,0,0,0,0,0,0,0,0,0,0],"id":7,"left_children":[1,3,5,7,9,11,13,-1,15,-1,17,19,21,23,25,-1,27,29,-1,-1,31,33,-1,35,37,39,41,-1,-1,-1,-1,43,45,-1,47,49,51,53,-1,-1,-1,55,-1,-1,-1,-1,-1,-1,-1,-1,-1,-1,-1,-1,-1,-1,-1],"loss_changes":[7.0553955E2,7.442871E0,4.669152E2,3.2039266E0,3.5854492E0,1.19061516E2,5.4640625E1,0E0,4.3454843E0,0E0,1.6285193E0,1.4404804E1,2.606926E0,7.638957E1,8.311218E0,0E0,6.326878E-2,1.15968406E-1,0E0,0E0,4.6349525E0,3.2395642E0,0E0,4.4735107E0,4.493815E1,6.3183594E-1,2.2850891E1,0E0,0E0,0E0,0E0,3.1090965E0,8.646185E0,0E0,6.388221E-1,3.0334473E-1,9.9396753E-1,5.2242874E1,0E0,0E0,0E0,1.4508911E1,0E0,0E0,0E0,0E0,0E0,0E0,0E0,0E0,0E0,0E0,0E0,0E0,0E0,0E0,0E0],"parents":[2147483647,0,0,1,1,2,2,3,3,4,4,5,5,6,6,8,8,10,10,11,11,12,12,13,13,14,14,16,16,17,17,20,20,21,21,23,23,24,24,25,25,26,26,31,31,32,32,34,34,35,35,36,36,37,37,41,41],"right_children":[2,4,6,8,10,12,14,-1,16,-1,18,20,22,24,26,-1,28,30,-1,-1,32,34,-1,36,38,40,42,-1,-1,-1,-1,44,46,-1,48,50,52,54,-1,-1,-1,56,-1,-1,-1,-1,-1,-1,-1,-1,-1,-1,-1,-1,-1,-1,-1],"split_conditions":[1E0,0E0,3.9E-1,0E0,4E0,5.5102113E-4,1.3432517E0,-2.3418935E-1,-1.03731774E-1,-3.0416393E-1,5.5102113E-4,-8.7016577E-1,3.030616E-2,2E0,0E0,-2.346487E-1,-9E-2,4.4E1,-1.9736788E-1,-2.7923432E-1,5E0,2E0,-3.014597E-1,4.2E-1,6.8686344E-2,-1E0,6.8686344E-2,1.8017778E-1,7.2030246E-2,1.54008E-1,2.0905085E-2,1.4E1,1.4E1,-2.5485E-1,4E0,-1.37E2,1.9630127E-1,0E0,-3.04089E-1,-5.171968E-2,-3.036443E-1,9.466E1,-3.0353424E-1,5.9504703E-2,-2.1485029E-1,-7.591656E-2,1.2174802E-1,-2.9887473E-2,1.7536792E-1,-9.702862E-2,-2.978405E-1,-9.801208E-2,-2.3685919E-1,-3.0326268E-1,-2.3761949E-2,-3.026967E-1,-1.5603544E-1],"split_indices":[5,9,0,0,3,6,6,0,7,0,6,7,6,5,7,0,9,3,0,0,3,5,0,2,7,7,7,0,0,0,0,4,4,0,5,10,6,7,0,0,0,0,0,0,0,0,0,0,0,0,0,0,0,0,0,0,0],"split_type":[0,0,0,0,0,0,0,0,0,0,0,0,0,0,0,0,0,0,0,0,0,0,0,0,0,0,0,0,0,0,0,0,0,0,0,0,0,0,0,0,0,0,0,0,0,0,0,0,0,0,0,0,0,0,0,0,0],"sum_hessian":[7.9685405E3,4.8552485E3,3.113292E3,1.724118E1,4.8380073E3,1.2485723E3,1.8647197E3,7.4766536E0,9.764527E0,4.833747E3,4.260296E0,1.1460035E3,1.0256873E2,8.69355E2,9.953647E2,3.0947855E0,6.6697416E0,2.594312E0,1.6659837E0,1.0892531E1,1.135111E3,9.030465E0,9.353827E1,2.9018338E2,5.791716E2,3.3961417E2,6.557505E2,3.7377567E0,2.9319847E0,1.3176557E0,1.2766563E0,1.0457955E3,8.931546E1,5.053549E0,3.9769156E0,2.6638052E2,2.3802883E1,4.9917642E2,7.999517E1,1.3526335E0,3.3826154E2,3.5433728E2,3.0141324E2,1.0430189E3,2.7766483E0,6.095491E1,2.8360552E1,2.202638E0,1.7742777E0,1.8842467E0,2.6449628E2,1.6080013E1,7.7228684E0,6.902045E1,4.3015598E2,7.961492E1,2.7472235E2],"tree_param":{"num_deleted":"0","num_feature":"11","num_nodes":"57","size_leaf_vector":"1"}},{"base_weights":[-7.204597E-1,-1.0056369E0,-3.414835E-1,-2.965955E-1,-1.008458E0,-4.140137E-2,-7.707054E-1,-8.415943E-3,-2.5153118E-1,-3.0284572E-1,-6.688938E-2,4.4603623E-2,-8.3372873E-1,-1.005619E0,-6.734756E-1,-2.3269932E-1,1.7929365E-1,3.1548333E-1,-1.9463383E-1,-3.00071E-1,7.729203E-2,-1.4940283E-1,-8.6502284E-1,-7.444717E-2,-3.0257058E-1,-5.0988835E-1,-3.024218E-1,2.3649476E-2,1.1276412E-1,9.257668E-2,-2.9240933E-1,-5.605892E-1,3.0135468E-1,-9.36466E-1,-6.525452E-1,-9.6567434E-1,-3.3290392E-1,1.4801477E-2,1.7183527E-1,-1.9667931E-1,-6.372318E-3,-2.8322676E-1,-6.859403E-2,2.2538103E-2,-2.3620604E-1,-2.936328E-1,1.24327555E-1,-2.9287443E-1,-6.95748E-2],"categories":[],"categories_nodes":[],"categories_segments":[],"categories_sizes":[],"default_left":[0,0,0,0,0,0,0,0,0,0,0,0,0,0,0,0,0,0,0,0,0,0,0,0,0,0,0,0,0,0,0,0,0,0,0,0,0,0,0,0,0,0,0,0,0,0,0,0,0],"id":8,"left_children":[1,3,5,7,9,11,13,15,-1,-1,17,19,21,23,25,-1,-1,27,-1,-1,29,31,33,-1,-1,35,-1,-1,-1,37,-1,39,-1,41,43,45,47,-1,-1,-1,-1,-1,-1,-1,-1,-1,-1,-1,-1],"loss_changes":[6.842151E2,6.9296875E0,3.5047284E2,2.4503887E0,3.4152832E0,1.0924659E2,2.489624E1,5.710603E0,0E0,0E0,1.3160928E0,4.948633E1,3.2324905E0,4.77417E-1,4.299637E1,0E0,0E0,2.306977E-2,0E0,0E0,2.2660564E1,4.3937497E0,1.6644669E0,0E0,0E0,4.290924E1,0E0,0E0,0E0,2.8718689E1,0E0,3.23977E-1,0E0,3.770523E-1,4.0829372E0,3.1064453E0,2.495253E1,0E0,0E0,0E0,0E0,0E0,0E0,0E0,0E0,0E0,0E0,0E0,0E0],"parents":[2147483647,0,0,1,1,2,2,3,3,4,4,5,5,6,6,7,7,10,10,11,11,12,12,13,13,14,14,17,17,20,20,21,21,22,22,25,25,29,29,31,31,33,33,34,34,35,35,36,36],"right_children":[2,4,6,8,10,12,14,16,-1,-1,18,20,22,24,26,-1,-1,28,-1,-1,30,32,34,-1,-1,36,-1,-1,-1,38,-1,40,-1,42,44,46,48,-1,-1,-1,-1,-1,-1,-1,-1,-1,-1,-1,-1],"split_conditions":[1E0,0E0,3.406688E-1,5.5102113E-4,4E0,2.428E1,0E0,0E0,-2.5153118E-1,-3.0284572E-1,3.9E-1,0E0,5E0,-1E0,6.8686344E-2,-2.3269932E-1,1.7929365E-1,2.3E1,-1.9463383E-1,-3.00071E-1,6.8686344E-2,4E0,5E0,-7.444717E-2,-3.0257058E-1,2E0,-3.024218E-1,2.3649476E-2,1.1276412E-1,3E0,-2.9240933E-1,1.1E1,3.0135468E-1,5.5102113E-4,1.2514E2,4.432E1,2.599E1,1.4801477E-2,1.7183527E-1,-1.9667931E-1,-6.372318E-3,-2.8322676E-1,-6.859403E-2,2.2538103E-2,-2.3620604E-1,-2.936328E-1,1.24327555E-1,-2.9287443E-1,-6.95748E-2],"split_indices":[5,9,6,6,3,1,7,6,0,0,0,7,3,7,7,0,0,3,0,0,7,5,5,0,0,5,0,0,0,5,0,4,0,6,0,2,0,0,0,0,0,0,0,0,0,0,0,0,0],"split_type":[0,0,0,0,0,0,0,0,0,0,0,0,0,0,0,0,0,0,0,0,0,0,0,0,0,0,0,0,0,0,0,0,0,0,0,0,0,0,0,0,0,0,0,0,0,0,0,0,0],"sum_hessian":[6.3330845E3,3.6128123E3,2.720272E3,1.4737948E1,3.5980745E3,1.6016241E3,1.1186478E3,1.0283945E1,4.454004E0,3.5940793E3,3.9951437E0,1.4456469E3,1.5597736E2,3.2473172E2,7.9391614E2,4.414953E0,5.8689914E0,2.6871731E0,1.3079706E0,4.2957882E1,1.402689E3,7.0733967E0,1.4890396E2,1.5897728E0,3.2314197E2,5.3491547E2,2.5900067E2,1.0150721E0,1.6721009E0,1.3834998E3,1.9189247E1,5.5941634E0,1.4792331E0,1.088852E2,4.0018757E1,1.4836823E2,3.8654724E2,1.2702296E3,1.1327015E2,4.5730615E0,1.021102E0,1.07394775E2,1.4904269E0,6.324248E0,3.3694508E1,1.4726103E2,1.1071942E0,5.126925E1,3.3527798E2],"tree_param":{"num_deleted":"0","num_feature":"11","num_nodes":"49","size_leaf_vector":"1"}},{"base_weights":[-6.5765226E-1,-1.0014085E0,-2.8161472E-1,-2.7939472E-1,-1.0046585E0,-5.826776E-2,-7.530553E-1,-1.7676191E-2,-2.3825824E-1,-3.0179805E-1,-6.440112E-2,6.0701206E-2,-4.3630984E-1,-9.998533E-1,-6.4995855E-1,-2.1513544E-1,1.4624597E-1,-1.9231288E-1,3.1835765E-1,-2.954777E-1,8.521052E-2,-9.573138E-1,-1.7943805E-1,-6.0688537E-2,-3.0120355E-1,-4.7571257E-1,-3.0090028E-1,4.984616E-3,1.3257793E-1,9.6795745E-2,-2.841478E-1,-2.7763063E-2,-2.8932345E-1,-6.430802E-1,2.3707299E-1,-9.653542E-1,-3.1996027E-1,-2.0163593E-1,3.0796384E-2,-2.1507949E-2,-2.2246759E-1,2.4374454E-1,-7.440461E-3,-2.96104E-1,3.3650354E-2,-2.8792325E-1,-6.324228E-2],"categories":[],"categories_nodes":[],"categories_segments":[],"categories_sizes":[],"default_left":[0,0,0,0,0,0,0,0,0,0,0,0,0,0,0,0,0,0,0,0,0,0,0,0,0,0,0,0,0,0,0,0,0,0,0,0,0,0,0,0,0,0,0,0,0,0,0],"id":9,"left_children":[1,3,5,7,9,11,13,15,-1,-1,17,19,21,23,25,-1,-1,-1,27,-1,29,31,33,-1,-1,35,-1,-1,-1,37,-1,-1,-1,39,41,43,45,-1,-1,-1,-1,-1,-1,-1,-1,-1,-1],"loss_changes":[6.648323E2,6.025879E0,2.588427E2,1.7953223E0,3.2937012E0,7.510807E1,1.9458252E1,3.856696E0,0E0,0E0,1.2770656E0,3.2648212E1,5.332374E1,5.6303406E-1,3.398947E1,0E0,0E0,0E0,1.2651709E-1,0E0,1.4952176E1,7.195053E-1,5.2091263E1,0E0,0E0,2.8445076E1,0E0,0E0,0E0,5.608365E0,0E0,0E0,0E0,7.1237907E0,2.1479218E1,2.2226868E0,1.987801E1,0E0,0E0,0E0,0E0,0E0,0E0,0E0,0E0,0E0,0E0],"parents":[2147483647,0,0,1,1,2,2,3,3,4,4,5,5,6,6,7,7,10,10,11,11,12,12,13,13,14,14,18,18,20,20,21,21,22,22,25,25,29,29,33,33,34,34,35,35,36,36],"right_children":[2,4,6,8,10,12,14,16,-1,-1,18,20,22,24,26,-1,-1,-1,28,-1,30,32,34,-1,-1,36,-1,-1,-1,38,-1,-1,-1,40,42,44,46,-1,-1,-1,-1,-1,-1,-1,-1,-1,-1],"split_conditions":[1E0,0E0,6.1617935E-1,5.5102113E-4,4E0,1.78E0,0E0,0E0,-2.3825824E-1,-3.0179805E-1,-1.03731774E-1,0E0,2E0,-1E0,6.8686344E-2,-2.1513544E-1,1.4624597E-1,-1.9231288E-1,1.8E1,-2.954777E-1,6.8686344E-2,-1.37E2,5.5102113E-4,-6.0688537E-2,-3.0120355E-1,2E0,-3.0090028E-1,4.984616E-3,1.3257793E-1,-1.7E1,-2.841478E-1,-2.7763063E-2,-2.8932345E-1,7E0,1.9630127E-1,2.64E2,4.609E1,-2.0163593E-1,3.0796384E-2,-2.1507949E-2,-2.2246759E-1,2.4374454E-1,-7.440461E-3,-2.96104E-1,3.3650354E-2,-2.8792325E-1,-6.324228E-2],"split_indices":[5,9,6,6,3,1,7,6,0,0,7,7,5,7,7,0,0,0,10,0,7,10,6,0,0,5,0,0,0,10,0,0,0,3,6,4,0,0,0,0,0,0,0,0,0,0,0],"split_type":[0,0,0,0,0,0,0,0,0,0,0,0,0,0,0,0,0,0,0,0,0,0,0,0,0,0,0,0,0,0,0,0,0,0,0,0,0,0,0,0,0,0,0,0,0,0,0],"sum_hessian":[5.1443438E3,2.6866602E3,2.4576833E3,1.2429278E1,2.674231E3,1.6683969E3,7.8928644E2,8.925821E0,3.5034566E0,2.6703694E3,3.8614106E0,1.2696731E3,3.9872375E2,2.300009E2,5.592856E2,3.5671763E0,5.358645E0,1.2713194E0,2.5900912E0,2.8181831E1,1.2414913E3,1.3076695E2,2.679568E2,1.450519E0,2.2855038E2,3.7603763E2,1.8324794E2,1.0821223E0,1.5079689E0,1.2286101E3,1.2881195E1,1.1788268E0,1.2958813E2,1.265466E2,1.414102E2,8.949438E1,2.8654324E2,8.430854E0,1.2201792E3,1.8857937E1,1.0768867E2,4.357082E1,9.783938E1,8.781325E1,1.6811266E0,4.06261E1,2.4591714E2],"tree_param":{"num_deleted":"0","num_feature":"11","num_nodes":"47","size_leaf_vector":"1"}},{"base_weights":[-5.9288716E-1,-9.975009E-1,-2.3162904E-1,-2.615434E-1,-1.0013381E0,-4.9260337E-2,-6.8921185E-1,-2.6258942E-2,-2.2438219E-1,-3.0092052E-1,-6.221059E-2,4.1449897E-2,-3.6862418E-1,-9.947539E-1,-5.7507783E-1,-1.9634373E-1,3.9073452E-1,2.7896106E-1,-1.7203124E-1,-2.908857E-1,5.9671693E-2,-9.376436E-1,-1.4557818E-1,-5.19202E-2,-3.0009896E-1,-3.9753252E-1,-2.9968202E-1,-1.625697E-1,2.0681415E-1,1.300012E-1,1.9061333E-3,6.8315655E-2,-2.7644712E-1,-2.3653978E-2,-2.8405398E-1,-5.651225E-1,1.5135193E-1,-9.4865876E-1,-2.5302052E-1,1.671891E-2,1.3115424E-1,-1.5742159E-2,-2.0172314E-1,-6.461188E-2,1.1635672E-1,-2.9314443E-1,4.2455167E-2,-2.960781E-1,-4.9427375E-2],"categories":[],"categories_nodes":[],"categories_segments":[],"categories_sizes":[],"default_left":[0,0,0,0,0,0,0,0,0,0,0,0,0,0,0,0,0,0,0,0,0,0,0,0,0,0,0,0,0,0,0,0,0,0,0,0,0,0,0,0,0,0,0,0,0,0,0,0,0],"id":10,"left_children":[1,3,5,7,9,11,13,15,-1,-1,17,19,21,23,25,-1,27,29,-1,-1,31,33,35,-1,-1,37,-1,-1,-1,-1,-1,39,-1,-1,-1,41,43,45,47,-1,-1,-1,-1,-1,-1,-1,-1,-1,-1],"loss_changes":[6.191886E2,5.382202E0,1.868981E2,1.3216271E0,3.1676025E0,4.6447594E1,2.1686707E1,2.5964952E0,0E0,0E0,9.834991E-1,2.307155E1,4.48744E1,6.1590576E-1,3.4752045E1,0E0,2.0438414E0,1.4473242E-1,0E0,0E0,1.0477581E1,7.1320343E-1,3.1972076E1,0E0,0E0,2.610979E1,0E0,0E0,0E0,0E0,0E0,5.631084E0,0E0,0E0,0E0,5.8107834E0,1.3151575E1,2.261612E0,1.6904568E1,0E0,0E0,0E0,0E0,0E0,0E0,0E0,0E0,0E0,0E0],"parents":[2147483647,0,0,1,1,2,2,3,3,4,4,5,5,6,6,7,7,10,10,11,11,12,12,13,13,14,14,16,16,17,17,20,20,21,21,22,22,25,25,31,31,35,35,36,36,37,37,38,38],"right_children":[2,4,6,8,10,12,14,16,-1,-1,18,20,22,24,26,-1,28,30,-1,-1,32,34,36,-1,-1,38,-1,-1,-1,-1,-1,40,-1,-1,-1,42,44,46,48,-1,-1,-1,-1,-1,-1,-1,-1,-1,-1],"split_conditions":[1E0,0E0,6.1617935E-1,5.5102113E-4,4E0,1.78E0,0E0,0E0,-2.2438219E-1,-3.0092052E-1,5.5102113E-4,0E0,2E0,-1E0,6.8686344E-2,-1.9634373E-1,-9.6175873E-1,4.4E1,-1.7203124E-1,-2.908857E-1,6.8686344E-2,-1.37E2,5.5102113E-4,-5.19202E-2,-3.0009896E-1,2E0,-2.9968202E-1,-1.625697E-1,2.0681415E-1,1.300012E-1,1.9061333E-3,5E0,-2.7644712E-1,-2.3653978E-2,-2.8405398E-1,7E0,4.35E0,2.22E2,4.219E1,1.671891E-2,1.3115424E-1,-1.5742159E-2,-2.0172314E-1,-6.461188E-2,1.1635672E-1,-2.9314443E-1,4.2455167E-2,-2.960781E-1,-4.9427375E-2],"split_indices":[5,9,6,6,3,1,7,6,0,0,6,7,5,7,7,0,7,3,0,0,7,10,6,0,0,5,0,0,0,0,0,5,0,0,0,3,9,3,0,0,0,0,0,0,0,0,0,0,0],"split_type":[0,0,0,0,0,0,0,0,0,0,0,0,0,0,0,0,0,0,0,0,0,0,0,0,0,0,0,0,0,0,0,0,0,0,0,0,0,0,0,0,0,0,0,0,0,0,0,0,0],"sum_hessian":[4.236666E3,1.9975848E3,2.2390813E3,1.0720094E1,1.9868647E3,1.6017963E3,6.3728503E2,7.9354653E0,2.7846286E0,1.9831431E3,3.721653E0,1.2481494E3,3.5364685E2,1.7121603E2,4.66069E2,2.938683E0,4.9967823E0,2.50455E0,1.2171029E0,2.1171988E1,1.2269775E3,9.868492E1,2.5496193E2,1.3699692E0,1.6984607E2,3.298436E2,1.362254E2,1.0144048E0,3.9823775E0,1.2225966E0,1.2819535E0,1.2171846E3,9.792928E0,1.1477418E0,9.753718E1,1.0529012E2,1.4967181E2,6.736577E1,2.624778E2,1.1781367E3,3.904783E1,1.847951E1,8.6810616E1,5.871585E1,9.0955956E1,6.575119E1,1.6145831E0,2.7084839E1,2.3539297E2],"tree_param":{"num_deleted":"0","num_feature":"11","num_nodes":"49","size_leaf_vector":"1"}},{"base_weights":[-5.2278453E-1,-9.939401E-1,-1.8652149E-1,-2.589954E-1,-9.982218E-1,-5.7493567E-2,-6.840814E-1,-2.1205129E-1,-4.230506E-2,-3.001309E-1,-5.7534963E-2,-2.9672113E-1,-2.810679E-2,-2.9935044E-1,-5.646312E-1,-1.7588058E-1,9.496999E-2,2.648389E-1,-1.744178E-1,-4.47793E-3,-2.9517308E-1,-1.0730183E-1,-7.767429E-1,1.01226576E-1,2.0052575E-2,4.266753E-2,-2.2482575E-1,-2.1289784E-1,2.5126433E0,-8.0494E-1,4.0097243E-1,1.8465016E-2,-8.333475E-2,-2.814422E-1,-9.109808E-3,-1.0560655E-1,2.8288612E-1,1.1276804E0,1.466304E-1,-2.5597936E-1,-8.557341E-2,4.7899276E-1,-9.665462E-2],"categories":[],"categories_nodes":[],"categories_segments":[],"categories_sizes":[],"default_left":[0,0,0,0,0,0,0,0,0,0,0,0,0,0,0,0,0,0,0,0,0,0,0,0,0,0,0,0,0,0,0,0,0,0,0,0,0,0,0,0,0,0,0],"id":11,"left_children":[1,3,5,7,9,11,13,-1,15,-1,17,-1,19,-1,21,-1,-1,23,-1,25,-1,27,29,-1,-1,31,33,35,37,39,41,-1,-1,-1,-1,-1,-1,-1,-1,-1,-1,-1,-1],"loss_changes":[5.651745E2,4.4172363E0,1.3372267E2,9.363523E-1,3.019165E0,4.5295788E1,1.5512955E1,0E0,1.7031542E0,0E0,9.189376E-1,0E0,3.6266228E1,0E0,3.0277267E1,0E0,0E0,2.7617723E-2,0E0,1.6301239E1,0E0,2.8291191E1,7.4177856E0,0E0,0E0,7.8390446E0,3.8333824E1,1.5988501E1,8.164137E0,5.005188E0,5.4111238E0,0E0,0E0,0E0,0E0,0E0,0E0,0E0,0E0,0E0,0E0,0E0,0E0],"parents":[2147483647,0,0,1,1,2,2,3,3,4,4,5,5,6,6,8,8,10,10,12,12,14,14,17,17,19,19,21,21,22,22,25,25,26,26,27,27,28,28,29,29,30,30],"right_children":[2,4,6,8,10,12,14,-1,16,-1,18,-1,20,-1,22,-1,-1,24,-1,26,-1,28,30,-1,-1,32,34,36,38,40,42,-1,-1,-1,-1,-1,-1,-1,-1,-1,-1,-1,-1],"split_conditions":[1E0,0E0,1.3432517E0,-2.1189246E-2,4E0,0E0,9.466E1,-2.1205129E-1,0E0,-3.001309E-1,3.9E-1,-2.9672113E-1,6.8686344E-2,-2.9935044E-1,6.2996864E0,-1.7588058E-1,9.496999E-2,4.4E1,-1.744178E-1,9.78E0,-2.9517308E-1,1.8812E2,6.78E2,1.01226576E-1,2.0052575E-2,1.4037263E-1,2E0,1.1E2,6E0,2.01301E3,5.8323795E1,1.8465016E-2,-8.333475E-2,-2.814422E-1,-9.109808E-3,-1.0560655E-1,2.8288612E-1,1.1276804E0,1.466304E-1,-2.5597936E-1,-8.557341E-2,4.7899276E-1,-9.665462E-2],"split_indices":[5,9,6,7,3,7,0,0,6,0,0,0,7,0,6,0,0,3,0,1,0,2,3,0,0,6,5,3,5,1,6,0,0,0,0,0,0,0,0,0,0,0,0],"split_type":[0,0,0,0,0,0,0,0,0,0,0,0,0,0,0,0,0,0,0,0,0,0,0,0,0,0,0,0,0,0,0,0,0,0,0,0,0,0,0,0,0,0,0],"sum_hessian":[3.5674653E3,1.484916E3,2.082549E3,8.95697E0,1.4759591E3,1.6545933E3,4.2795587E2,2.1831012E0,6.773869E0,1.4724294E3,3.5296736E0,4.9599674E1,1.6049937E3,1.15975525E2,3.1198035E2,2.4407032E0,4.3331656E0,2.4911213E0,1.0385523E0,1.5672535E3,3.7740116E1,9.932777E1,2.1265259E2,1.3075969E0,1.1835244E0,1.2916907E3,2.7556284E2,9.636265E1,2.9651246E0,2.0798938E2,4.663206E0,1.2205762E3,7.1114525E1,5.82107E1,2.1735214E2,8.663078E1,9.731862E0,1.3045155E0,1.6606091E0,1.8970734E2,1.8282036E1,1.3022192E0,3.360987E0],"tree_param":{"num_deleted":"0","num_feature":"11","num_nodes":"43","size_leaf_vector":"1"}},{"base_weights":[-4.518952E-1,-9.896904E-1,-1.4806432E-1,-2.3912808E-1,-9.949785E-1,-9.887898E-1,-8.994988E-2,-6.1001475E-3,-2.0592037E-1,-2.993566E-1,-5.616479E-2,-2.9288275E-2,-2.989311E-1,-3.547184E-2,-2.9852897E-1,-1.579206E-1,9.932914E-2,2.3741114E-1,-1.5738583E-1,3.0604685E-2,-2.344067E-1,1.089323E-1,3.960058E-3,9.446518E-3,4.9140534E-1,-9.1848385E-1,-1.0241353E-1,1.4084947E-2,-2.895565E-1,-5.956087E-2,2.3617902E-1,1.1157934E-1,-2.880608E-1,-8.710825E-2,2.4890305E-2],"categories":[],"categories_nodes":[],"categories_segments":[],"categories_sizes":[],"default_left":[0,0,0,0,0,0,0,0,0,0,0,0,0,0,0,0,0,0,0,0,0,0,0,0,0,0,0,0,0,0,0,0,0,0,0],"id":12,"left_children":[1,3,5,7,9,11,13,15,-1,-1,17,-1,-1,19,-1,-1,-1,21,-1,23,25,-1,-1,27,29,31,33,-1,-1,-1,-1,-1,-1,-1,-1],"loss_changes":[5.003838E2,4.1502686E0,9.560361E1,9.392585E-1,2.9084473E0,7.65007E-1,9.035317E1,1.3954198E0,0E0,0E0,7.31434E-1,0E0,0E0,2.2748123E1,0E0,0E0,0E0,9.10618E-2,0E0,1.2665565E1,3.8864765E1,0E0,0E0,4.549841E1,1.17977495E1,4.107319E0,1.2664994E1,0E0,0E0,0E0,0E0,0E0,0E0,0E0,0E0],"parents":[2147483647,0,0,1,1,2,2,3,3,4,4,5,5,6,6,7,7,10,10,13,13,17,17,19,19,20,20,23,23,24,24,25,25,26,26],"right_children":[2,4,6,8,10,12,14,16,-1,-1,18,-1,-1,20,-1,-1,-1,22,-1,24,26,-1,-1,28,30,32,34,-1,-1,-1,-1,-1,-1,-1,-1],"split_conditions":[1E0,0E0,0E0,5.5102113E-4,4E0,-1E0,6.8686344E-2,0E0,-2.0592037E-1,-2.993566E-1,5.5102113E-4,-2.9288275E-2,-2.989311E-1,9.78E0,-2.9852897E-1,-1.579206E-1,9.932914E-2,4.4E1,-1.5738583E-1,1.114E1,2E0,1.089323E-1,3.960058E-3,1.4037263E-1,5.5102113E-4,-1.37E2,3E0,1.4084947E-2,-2.895565E-1,-5.956087E-2,2.3617902E-1,1.1157934E-1,-2.880608E-1,-8.710825E-2,2.4890305E-2],"split_indices":[5,9,7,6,3,7,7,6,0,0,6,0,0,1,0,0,0,3,0,2,5,0,0,6,6,10,5,0,0,0,0,0,0,0,0],"split_type":[0,0,0,0,0,0,0,0,0,0,0,0,0,0,0,0,0,0,0,0,0,0,0,0,0,0,0,0,0,0,0,0,0,0,0],"sum_hessian":[3.062243E3,1.1046688E3,1.9575741E3,8.051824E0,1.0966171E3,1.2553138E2,1.8320427E3,5.960211E0,2.091613E0,1.0932042E3,3.4128318E0,1.185146E0,1.2434623E2,1.7290176E3,1.03025154E2,2.1231065E0,3.8371043E0,2.4012163E0,1.0116153E0,1.2985487E3,4.3046884E2,1.1416799E0,1.2595365E0,1.2425177E3,5.6031055E1,6.866131E1,3.6180756E2,1.1973945E3,4.5123123E1,1.6914757E1,3.91163E1,1.9024034E0,6.67589E1,1.7937914E2,1.824284E2],"tree_param":{"num_deleted":"0","num_feature":"11","num_nodes":"35","size_leaf_vector":"1"}},{"base_weights":[-3.8289216E-1,-9.8492324E-1,-1.1722906E-1,-2.2280154E-1,-9.913962E-1,-9.8237836E-1,-7.102561E-2,-1.5412284E-2,-1.9161116E-1,-2.9852766E-1,-5.353879E-2,-2.4961947E-2,-2.977739E-1,-2.8918743E-2,-2.97181E-1,-1.3956837E-1,2.6430482E-1,1.0481462E-1,-7.7716134E-2,-4.5344734E-1,-5.284859E-3,9.92521E-2,2.639063E-2,-3.174125E-2,8.256596E-2,-5.0032246E-1,5.661898E-1,-4.914533E-2,2.0509192E-1,-1.665144E-1,2.7270118E-2,-1.2069537E-1,5.195809E-1,1.214474E-2,-8.672401E-2,9.993369E-2,-4.8913E-2],"categories":[],"categories_nodes":[],"categories_segments":[],"categories_sizes":[],"default_left":[0,0,0,0,0,0,0,0,0,0,0,0,0,0,0,0,0,0,0,0,0,0,0,0,0,0,0,0,0,0,0,0,0,0,0,0,0],"id":13,"left_children":[1,3,5,7,9,11,13,15,-1,-1,17,-1,-1,19,-1,-1,21,23,-1,25,27,-1,-1,-1,-1,29,31,33,35,-1,-1,-1,-1,-1,-1,-1,-1],"loss_changes":[4.3001334E2,3.840454E0,7.456311E1,6.994451E-1,2.7753906E0,7.849579E-1,6.864255E1,9.422919E-1,0E0,0E0,1.6579564E-1,0E0,0E0,1.7022907E1,0E0,0E0,2.5485784E-2,1.4103016E-1,0E0,4.5597286E0,1.4851266E1,0E0,0E0,0E0,0E0,2.835312E0,5.6664023E0,2.865052E1,1.3140725E1,0E0,0E0,0E0,0E0,0E0,0E0,0E0,0E0],"parents":[2147483647,0,0,1,1,2,2,3,3,4,4,5,5,6,6,7,7,10,10,13,13,16,16,17,17,19,19,20,20,25,25,26,26,27,27,28,28],"right_children":[2,4,6,8,10,12,14,16,-1,-1,18,-1,-1,20,-1,-1,22,24,-1,26,28,-1,-1,-1,-1,30,32,34,36,-1,-1,-1,-1,-1,-1,-1,-1],"split_conditions":[1E0,0E0,0E0,5.5102113E-4,4E0,-1E0,6.8686344E-2,0E0,-1.9161116E-1,-2.9852766E-1,4.6E1,-2.4961947E-2,-2.977739E-1,-5.13E0,-2.97181E-1,-1.3956837E-1,-9E-2,1.6E1,-7.7716134E-2,4E0,3E0,9.92521E-2,2.639063E-2,-3.174125E-2,8.256596E-2,2.18E2,7E0,4E0,2.5155492E0,-1.665144E-1,2.7270118E-2,-1.2069537E-1,5.195809E-1,1.214474E-2,-8.672401E-2,9.993369E-2,-4.8913E-2],"split_indices":[5,9,7,6,3,7,7,6,0,0,3,0,0,9,0,0,9,10,0,8,5,0,0,0,0,3,5,3,6,0,0,0,0,0,0,0,0],"split_type":[0,0,0,0,0,0,0,0,0,0,0,0,0,0,0,0,0,0,0,0,0,0,0,0,0,0,0,0,0,0,0,0,0,0,0,0,0],"sum_hessian":[2.6883564E3,8.222688E2,1.8660878E3,7.2232904E0,8.1504553E2,9.357905E1,1.7725087E3,5.511863E0,1.7114275E0,8.1178534E2,3.2601712E0,1.1524788E0,9.242657E1,1.6958866E3,7.662209E1,1.8590689E0,3.6527941E0,2.118113E0,1.1420581E0,8.847366E1,1.607413E3,2.0159426E0,1.6368518E0,1.1168288E0,1.0012841E0,8.5072014E1,3.4016495E0,1.3307396E3,2.766733E2,7.792061E1,7.1514015E0,2.2157104E0,1.1859391E0,9.6943695E2,3.6130267E2,2.0535536E2,7.131794E1],"tree_param":{"num_deleted":"0","num_feature":"11","num_nodes":"37","size_leaf_vector":"1"}},{"base_weights":[-3.1691E-1,-9.787934E-1,-9.0737425E-2,-2.0013548E-1,-9.8696655E-1,-9.7453624E-1,-5.4440904E-2,-1.8974623E-1,1.5922394E-2,-2.9757053E-1,-4.4858176E-2,-2.1268245E-2,-2.9643023E-1,-2.2082327E-2,-2.956041E-1,-1.21225595E-1,2.6281932E-1,-6.172616E-2,3.2069337E-2,-2.656881E-3,-4.005729E-1,1.00352235E-1,2.5034005E-2,-2.707783E-2,2.2109012E-1,-8.09393E-1,-1.6119557E-2,6.8201204E-3,-4.0298052E-2,9.46984E-2,-7.241457E-2,-2.641866E-1,2.0917615E-1,2.3512386E-1,-7.5349055E-2],"categories":[],"categories_nodes":[],"categories_segments":[],"categories_sizes":[],"default_left":[0,0,0,0,0,0,0,0,0,0,0,0,0,0,0,0,0,0,0,0,0,0,0,0,0,0,0,0,0,0,0,0,0,0,0],"id":14,"left_children":[1,3,5,7,9,11,13,-1,15,-1,17,-1,-1,19,-1,-1,21,-1,-1,23,25,-1,-1,27,29,31,33,-1,-1,-1,-1,-1,-1,-1,-1],"loss_changes":[3.6080536E2,3.7093506E0,5.762152E1,7.2290623E-1,2.7789307E0,7.9857635E-1,5.2031525E1,0E0,7.349996E-1,0E0,1.2483563E-1,0E0,0E0,1.22847805E1,0E0,0E0,2.898392E-2,0E0,0E0,8.69634E0,1.2807278E1,0E0,0E0,7.6682324E0,6.926052E0,4.8542366E0,8.291791E0,0E0,0E0,0E0,0E0,0E0,0E0,0E0,0E0],"parents":[2147483647,0,0,1,1,2,2,3,3,4,4,5,5,6,6,8,8,10,10,13,13,16,16,19,19,20,20,23,23,24,24,25,25,26,26],"right_children":[2,4,6,8,10,12,14,-1,16,-1,18,-1,-1,20,-1,-1,22,-1,-1,24,26,-1,-1,28,30,32,34,-1,-1,-1,-1,-1,-1,-1,-1],"split_conditions":[1E0,0E0,0E0,-2.1189246E-2,4E0,-1E0,6.8686344E-2,-1.8974623E-1,0E0,-2.9757053E-1,1.8E1,-2.1268245E-2,-2.9643023E-1,6.2996864E0,-2.956041E-1,-1.21225595E-1,-9E-2,-6.172616E-2,3.2069337E-2,4E0,6.2975E2,1.00352235E-1,2.5034005E-2,4E0,1.8002E2,2.24E2,1.3573992E1,6.8201204E-3,-4.0298052E-2,9.46984E-2,-7.241457E-2,-2.641866E-1,2.0917615E-1,2.3512386E-1,-7.5349055E-2],"split_indices":[5,9,7,7,3,7,7,0,6,0,10,0,0,6,0,0,9,0,0,5,0,0,0,3,1,3,6,0,0,0,0,0,0,0,0],"split_type":[0,0,0,0,0,0,0,0,0,0,0,0,0,0,0,0,0,0,0,0,0,0,0,0,0,0,0,0,0,0,0,0,0,0,0],"sum_hessian":[2.4097852E3,6.128833E2,1.7969019E3,6.6310062E0,6.0625226E2,6.986564E1,1.7270363E3,1.5672984E0,5.063708E0,6.030404E2,3.2118819E0,1.1253154E0,6.8740326E1,1.6700099E3,5.7026325E1,1.6389532E0,3.4247549E0,1.3862851E0,1.8255969E0,1.5894413E3,8.05686E1,1.8289295E0,1.5958253E0,1.433825E3,1.5561636E2,3.851122E1,4.2057384E1,9.796272E2,4.541977E2,1.2946037E2,2.6155989E1,3.7169487E1,1.3417329E0,9.021687E0,3.3035698E1],"tree_param":{"num_deleted":"0","num_feature":"11","num_nodes":"35","size_leaf_vector":"1"}},{"base_weights":[-2.57101E-1,-9.7107416E-1,-6.97477E-2,-1.8014614E-1,-9.813994E-1,-9.646881E-1,-4.1606486E-2,1.4494773E-2,-1.7446962E-1,-2.9640192E-1,-3.896212E-2,-1.8117208E-2,-2.94793E-1,-1.6939001E-2,-2.9367474E-1,-1.07010275E-1,2.2821555E-1,1.0627424E-1,-7.003325E-2,-3.4496257E-1,-1.084785E-3,8.501769E-2,2.373359E-2,-1.7440958E-2,6.728365E-2,-6.8466437E-1,-2.1774738E-1,-5.5008683E-2,9.59239E-2,1.9501281E-1,-2.4568841E-1,2.8720653E-1,-7.9924375E-2,-1.8012308E-3,-2.6889664E-1,3.8820438E-2,-8.424899E-2],"categories":[],"categories_nodes":[],"categories_segments":[],"categories_sizes":[],"default_left":[0,0,0,0,0,0,0,0,0,0,0,0,0,0,0,0,0,0,0,0,0,0,0,0,0,0,0,0,0,0,0,0,0,0,0,0,0],"id":15,"left_children":[1,3,5,7,9,11,13,15,-1,-1,17,-1,-1,19,-1,-1,21,23,-1,25,27,-1,-1,-1,-1,29,31,33,35,-1,-1,-1,-1,-1,-1,-1,-1],"loss_changes":[2.9508765E2,3.5682068E0,4.400641E1,5.658468E-1,2.7786865E0,8.05645E-1,3.9212143E1,5.399662E-1,0E0,0E0,1.4318205E-1,0E0,0E0,8.602268E0,0E0,0E0,1.2776151E-2,7.291725E-2,0E0,3.1465702E0,8.264722E0,0E0,0E0,0E0,0E0,4.1731653E0,3.5119495E0,4.18598E1,7.1558366E0,0E0,0E0,0E0,0E0,0E0,0E0,0E0,0E0],"parents":[2147483647,0,0,1,1,2,2,3,3,4,4,5,5,6,6,7,7,10,10,13,13,16,16,17,17,19,19,20,20,25,25,26,26,27,27,28,28],"right_children":[2,4,6,8,10,12,14,16,-1,-1,18,-1,-1,20,-1,-1,22,24,-1,26,28,-1,-1,-1,-1,30,32,34,36,-1,-1,-1,-1,-1,-1,-1,-1],"split_conditions":[1E0,0E0,0E0,5.5102113E-4,4E0,-1E0,6.8686344E-2,0E0,-1.7446962E-1,-2.9640192E-1,4.6E1,-1.8117208E-2,-2.94793E-1,-5.13E0,-2.9367474E-1,-1.07010275E-1,-9E-2,1.6E1,-7.003325E-2,9.174501E-2,2E0,8.501769E-2,2.373359E-2,-1.7440958E-2,6.728365E-2,-2.4597E2,8.25E0,1.78E0,7.2017083E0,1.9501281E-1,-2.4568841E-1,2.8720653E-1,-7.9924375E-2,-1.8012308E-3,-2.6889664E-1,3.8820438E-2,-8.424899E-2],"split_indices":[5,9,7,6,3,7,7,6,0,0,3,0,0,9,0,0,9,10,0,6,5,0,0,0,0,9,1,1,6,0,0,0,0,0,0,0,0],"split_type":[0,0,0,0,0,0,0,0,0,0,0,0,0,0,0,0,0,0,0,0,0,0,0,0,0,0,0,0,0,0,0,0,0,0,0,0,0],"sum_hessian":[2.2055178E3,4.5757816E2,1.7479397E3,6.134243E0,4.5144394E2,5.2273384E1,1.6956663E3,4.7802687E0,1.3539745E0,4.482531E2,3.1908066E0,1.1026542E0,5.117073E1,1.6531771E3,4.2489147E1,1.5022018E0,3.2780666E0,2.0863233E0,1.1044834E0,7.526139E1,1.5779158E3,1.7352762E0,1.5427904E0,1.0837363E0,1.002587E0,1.9311663E1,5.594973E1,1.0144498E3,5.6346594E2,1.4143955E0,1.7897268E1,1.4824926E0,5.4467236E1,9.595645E2,5.48853E1,5.180864E2,4.5379536E1],"tree_param":{"num_deleted":"0","num_feature":"11","num_nodes":"37","size_leaf_vector":"1"}},{"base_weights":[-2.0558387E-1,-9.6124643E-1,-5.4077663E-2,-1.628845E-1,-9.74303E-1,-9.5217156E-1,-3.24749E-2,-1.7326708E-1,3.8667932E-2,-2.9492244E-1,-3.28197E-2,-1.5430653E-2,-2.9273868E-1,-1.37758E-2,-2.9125196E-1,-9.185689E-2,2.2840232E-1,9.038608E-2,-6.0396202E-2,-2.683145E-3,-2.9362464E-1,8.686204E-2,2.2258472E-2,-1.4769804E-2,5.691608E-2,-7.903352E-3,7.287767E-1,-2.8812134E-1,3.6749374E-2,-3.593796E-3,2.2473477E-1,-2.104867E-1,3.3480218E-1,-1.8773645E-2,3.1729093E-1],"categories":[],"categories_nodes":[],"categories_segments":[],"categories_sizes":[],"default_left":[0,0,0,0,0,0,0,0,0,0,0,0,0,0,0,0,0,0,0,0,0,0,0,0,0,0,0,0,0,0,0,0,0,0,0],"id":16,"left_children":[1,3,5,7,9,11,13,-1,15,-1,17,-1,-1,19,-1,-1,21,23,-1,25,27,-1,-1,-1,-1,29,31,-1,33,-1,-1,-1,-1,-1,-1],"loss_changes":[2.3538167E2,3.4207153E0,3.3223522E1,5.84489E-1,2.756256E0,8.0576324E-1,2.9373735E1,0E0,4.2741245E-1,0E0,1.04381055E-1,0E0,0E0,5.099825E0,0E0,0E0,1.7144844E-2,5.2169867E-2,0E0,6.0443645E0,1.3833339E1,0E0,0E0,0E0,0E0,4.8571796E0,6.996133E0,0E0,4.411021E0,0E0,0E0,0E0,0E0,0E0,0E0],"parents":[2147483647,0,0,1,1,2,2,3,3,4,4,5,5,6,6,8,8,10,10,13,13,16,16,17,17,19,19,20,20,25,25,26,26,28,28],"right_children":[2,4,6,8,10,12,14,-1,16,-1,18,-1,-1,20,-1,-1,22,24,-1,26,28,-1,-1,-1,-1,30,32,-1,34,-1,-1,-1,-1,-1,-1],"split_conditions":[1E0,0E0,0E0,-2.1189246E-2,4E0,-1E0,6.8686344E-2,-1.7326708E-1,0E0,-2.9492244E-1,4.6E1,-1.5430653E-2,-2.9273868E-1,7.2017083E0,-2.9125196E-1,-9.185689E-2,-9E-2,1.6E1,-6.0396202E-2,2.2222E2,5.6194E2,8.686204E-2,2.2258472E-2,-1.4769804E-2,5.691608E-2,1.6E1,-1.1E1,-2.8812134E-1,6.78E2,-3.593796E-3,2.2473477E-1,-2.104867E-1,3.3480218E-1,-1.8773645E-2,3.1729093E-1],"split_indices":[5,9,7,7,3,7,7,0,6,0,3,0,0,6,0,0,9,10,0,2,0,0,0,0,0,5,10,0,3,0,0,0,0,0,0],"split_type":[0,0,0,0,0,0,0,0,0,0,0,0,0,0,0,0,0,0,0,0,0,0,0,0,0,0,0,0,0,0,0,0,0,0,0],"sum_hessian":[2.0554126E3,3.4238174E2,1.7130309E3,5.7261057E0,3.366556E2,3.922557E1,1.6738053E3,1.2626984E0,4.4634075E0,3.335042E2,3.1514094E0,1.0836945E0,3.8141876E1,1.6420974E3,3.1707922E1,1.3662881E0,3.0971193E0,2.0881603E0,1.0632492E0,1.5804606E3,6.163675E1,1.589383E0,1.5077363E0,1.0777318E0,1.0104283E0,1.5702434E3,1.0217156E1,1.9789474E1,4.1847275E1,1.5628131E3,7.430372E0,2.00371E0,8.213446E0,3.8992195E1,2.8550816E0],"tree_param":{"num_deleted":"0","num_feature":"11","num_nodes":"35","size_leaf_vector":"1"}},{"base_weights":[-1.6083975E-1,-9.4863856E-1,-4.0912077E-2,-1.4773594E-1,-9.6509695E-1,-9.362402E-1,-2.4471888E-2,3.380016E-2,-1.5935402E-1,-2.9300997E-1,-2.7907083E-2,-2.9031235E-1,-1.5361709E-2,-1.0371999E-2,-2.8817475E-1,7.788384E-2,-6.788994E-2,-4.8048455E-2,2.8121345E-2,-2.6416355E-1,7.044687E-4,-3.1273067E-1,4.7440535E-1,-3.7112914E-2,6.712703E-2,1.2817218E-2,-1.1884675E-1,-1.1684988E-1,4.0977153E-1,-4.0704475E-4,-2.6414406E-1,3.115213E-2,-3.0217115E-2],"categories":[],"categories_nodes":[],"categories_segments":[],"categories_sizes":[],"default_left":[0,0,0,0,0,0,0,0,0,0,0,0,0,0,0,0,0,0,0,0,0,0,0,0,0,0,0,0,0,0,0,0,0],"id":17,"left_children":[1,3,5,7,9,11,13,15,-1,-1,17,-1,-1,19,-1,-1,-1,-1,-1,21,23,25,27,29,31,-1,-1,-1,-1,-1,-1,-1,-1],"loss_changes":[1.8445152E2,3.2575684E0,2.4937742E1,4.6169287E-1,2.7192078E0,8.012581E-1,2.1982573E1,3.680793E-1,0E0,0E0,8.126592E-2,0E0,0E0,4.6174593E0,0E0,0E0,0E0,0E0,0E0,2.6122937E0,3.9583154E0,1.9460511E0,4.1021976E0,3.0278873E1,3.5334017E0,0E0,0E0,0E0,0E0,0E0,0E0,0E0,0E0],"parents":[2147483647,0,0,1,1,2,2,3,3,4,4,5,5,6,6,7,7,10,10,13,13,19,19,20,20,21,21,22,22,23,23,24,24],"right_children":[2,4,6,8,10,12,14,16,-1,-1,18,-1,-1,20,-1,-1,-1,-1,-1,22,24,26,28,30,32,-1,-1,-1,-1,-1,-1,-1,-1],"split_conditions":[1E0,0E0,0E0,5.5102113E-4,4E0,2.5E1,6.8686344E-2,-9E-2,-1.5935402E-1,-2.9300997E-1,1.8E1,-2.9031235E-1,-1.5361709E-2,-5.13E0,-2.8817475E-1,7.788384E-2,-6.788994E-2,-4.8048455E-2,2.8121345E-2,4E0,2E0,-1.2836E2,8E0,4.3E-1,4E0,1.2817218E-2,-1.1884675E-1,-1.1684988E-1,4.0977153E-1,-4.0704475E-4,-2.6414406E-1,3.115213E-2,-3.0217115E-2],"split_indices":[5,9,7,6,3,8,7,9,0,0,10,0,0,9,0,0,0,0,0,8,5,9,5,9,8,0,0,0,0,0,0,0,0],"split_type":[0,0,0,0,0,0,0,0,0,0,0,0,0,0,0,0,0,0,0,0,0,0,0,0,0,0,0,0,0,0,0,0,0],"sum_hessian":[1.9517153E3,2.5694522E2,1.69477E3,5.374739E0,2.5157047E2,2.9549767E1,1.6652203E3,4.26662E0,1.1081189E0,2.4845235E2,3.1181269E0,2.8444984E1,1.1047823E0,1.6415067E3,2.371363E1,2.284845E0,1.9817754E0,1.3422154E0,1.7759113E0,6.7690346E1,1.5738163E3,6.405478E1,3.635566E0,1.00313007E3,5.706863E2,1.2268691E1,5.1786087E1,2.1323323E0,1.5032337E0,9.632912E2,3.9838882E1,4.6857736E2,1.021089E2],"tree_param":{"num_deleted":"0","num_feature":"11","num_nodes":"33","size_leaf_vector":"1"}},{"base_weights":[-1.2555918E-1,-9.314069E-1,-3.1725373E-2,-1.3061172E-1,-9.530483E-1,-9.157796E-1,-1.9192223E-2,-1.5771666E-1,4.753195E-2,-2.9051262E-1,-2.4662143E-2,-2.869171E-1,-1.3065103E-2,-8.508484E-3,-2.8426296E-1,-8.155185E-2,6.70871E-2,8.860265E-2,-5.4927118E-2,-9.941901E-4,-3.256446E-1,-5.1437975E-3,4.580921E-2,2.0108642E-3,-7.1660316E-1,-7.577941E-1,3.7593246E-1,-1.250452E-3,1.4258932E-1,-2.5106147E-1,-1.3850137E-2,-2.4973486E-1,1.1174625E-1,3.132963E-1,-4.6149343E-2],"categories":[],"categories_nodes":[],"categories_segments":[],"categories_sizes":[],"default_left":[0,0,0,0,0,0,0,0,0,0,0,0,0,0,0,0,0,0,0,0,0,0,0,0,0,0,0,0,0,0,0,0,0,0,0],"id":18,"left_children":[1,3,5,7,9,11,13,-1,15,-1,17,-1,-1,19,-1,-1,-1,21,-1,23,25,-1,-1,27,29,31,33,-1,-1,-1,-1,-1,-1,-1,-1],"loss_changes":[1.4123412E2,3.2516327E0,1.8534388E1,4.6736524E-1,2.6729279E0,7.8665733E-1,1.6376741E1,0E0,3.5598338E-1,0E0,8.987011E-2,0E0,0E0,3.8940563E0,0E0,0E0,0E0,2.3406921E-2,0E0,3.4365075E0,1.1751907E1,0E0,0E0,4.656819E0,5.001974E-1,2.3130083E0,5.502119E0,0E0,0E0,0E0,0E0,0E0,0E0,0E0,0E0],"parents":[2147483647,0,0,1,1,2,2,3,3,4,4,5,5,6,6,8,8,10,10,13,13,17,17,19,19,20,20,23,23,24,24,25,25,26,26],"right_children":[2,4,6,8,10,12,14,-1,16,-1,18,-1,-1,20,-1,-1,-1,22,-1,24,26,-1,-1,28,30,32,34,-1,-1,-1,-1,-1,-1,-1,-1],"split_conditions":[1E0,0E0,0E0,-2.1189246E-2,4E0,2.5E1,6.8686344E-2,-1.5771666E-1,0E0,-2.9051262E-1,4.6E1,-2.869171E-1,-1.3065103E-2,1.3573992E1,-2.8426296E-1,-8.155185E-2,6.70871E-2,1.6E1,-5.4927118E-2,1.26824E3,1.56315E3,-5.1437975E-3,4.580921E-2,2.14E2,6.2E2,3.99E2,4.3719532E1,-1.250452E-3,1.4258932E-1,-2.5106147E-1,-1.3850137E-2,-2.4973486E-1,1.1174625E-1,3.132963E-1,-4.6149343E-2],"split_indices":[5,9,7,7,3,8,7,0,6,0,3,0,0,6,0,0,0,10,0,0,0,0,0,3,4,3,6,0,0,0,0,0,0,0,0],"split_type":[0,0,0,0,0,0,0,0,0,0,0,0,0,0,0,0,0,0,0,0,0,0,0,0,0,0,0,0,0,0,0,0,0,0,0],"sum_hessian":[1.8671771E3,1.9380943E2,1.6733677E3,5.28497E0,1.8852448E2,2.2384119E1,1.6509835E3,1.0360246E0,4.248945E0,1.8542024E2,3.1042356E0,2.1296091E1,1.0880284E0,1.6331974E3,1.7786158E1,1.3168612E0,2.9320838E0,2.0671277E0,1.037108E0,1.5963756E3,3.6821743E1,1.0565069E0,1.0106208E0,1.5906931E3,5.682602E0,2.2736588E1,1.4085154E1,1.5711716E3,1.9521376E1,4.607772E0,1.0748297E0,2.1575052E1,1.1615357E0,5.7982993E0,8.286854E0],"tree_param":{"num_deleted":"0","num_feature":"11","num_nodes":"35","size_leaf_vector":"1"}},{"base_weights":[-9.672082E-2,-9.110631E-1,-2.4313662E-2,-1.2711035E-1,-9.374454E-1,-8.9033407E-1,-1.4792539E-2,8.363627E-3,-8.0577284E-2,-2.8724188E-1,-2.1125237E-2,-2.8264365E-1,-8.498139E-3,-6.7069433E-3,-2.7932498E-1,7.5136855E-2,-4.7402136E-2,1.6652003E-2,-8.690271E-2,-4.3552937E-3,3.8770787E-2,-4.512671E-3,6.618173E-1,-3.1025067E-1,4.144996E-3,6.9298567E-3,-1.0262428E-1,2.6671246E-1,-4.6372605E-3,3.9048432E-3,-1.6227238E-1,-2.7277062E-2,1.0530864E-1],"categories":[],"categories_nodes":[],"categories_segments":[],"categories_sizes":[],"default_left":[0,0,0,0,0,0,0,0,0,0,0,0,0,0,0,0,0,0,0,0,0,0,0,0,0,0,0,0,0,0,0,0,0],"id":19,"left_children":[1,3,5,7,9,11,13,-1,-1,-1,15,-1,-1,17,-1,19,-1,21,23,-1,-1,25,27,29,31,-1,-1,-1,-1,-1,-1,-1,-1],"loss_changes":[1.0669453E2,2.9367752E0,1.3699896E1,1.3834041E-1,2.600174E0,7.8028584E-1,1.2188798E1,0E0,0E0,0E0,6.558841E-2,0E0,0E0,3.0598533E0,0E0,1.6772138E-2,0E0,1.7278973E1,7.4935737E0,0E0,0E0,1.1435535E1,6.1992435E0,7.96383E0,8.696027E0,0E0,0E0,0E0,0E0,0E0,0E0,0E0,0E0],"parents":[2147483647,0,0,1,1,2,2,3,3,4,4,5,5,6,6,10,10,13,13,15,15,17,17,18,18,21,21,22,22,23,23,24,24],"right_children":[2,4,6,8,10,12,14,-1,-1,-1,16,-1,-1,18,-1,20,-1,22,24,-1,-1,26,28,30,32,-1,-1,-1,-1,-1,-1,-1,-1],"split_conditions":[1E0,0E0,0E0,-9E-2,4E0,4.8E1,6.8686344E-2,8.363627E-3,-8.0577284E-2,-2.8724188E-1,4.6E1,-2.8264365E-1,-8.498139E-3,1E1,-2.7932498E-1,1.6E1,-4.7402136E-2,9E0,5.5102113E-4,-4.3552937E-3,3.8770787E-2,1.4037263E-1,2.12E0,1.344E1,8.98E0,6.9298567E-3,-1.0262428E-1,2.6671246E-1,-4.6372605E-3,3.9048432E-3,-1.6227238E-1,-2.7277062E-2,1.0530864E-1],"split_indices":[5,9,7,9,3,2,7,0,0,0,3,0,0,3,0,10,0,10,6,0,0,6,2,0,2,0,0,0,0,0,0,0,0],"split_type":[0,0,0,0,0,0,0,0,0,0,0,0,0,0,0,0,0,0,0,0,0,0,0,0,0,0,0,0,0,0,0,0,0],"sum_hessian":[1.8088551E3,1.4675555E2,1.6620995E3,4.9673815E0,1.4178818E2,1.706857E1,1.6450309E3,2.7537043E0,2.2136772E0,1.3871152E2,3.0766592E0,1.6013124E1,1.055445E0,1.6316403E3,1.3390714E1,2.0711834E0,1.0054758E0,1.264203E3,3.674372E2,1.0547953E0,1.0163882E0,1.2250095E3,3.9193478E1,1.057111E2,2.617261E2,1.1332448E3,9.1764854E1,2.9113346E1,1.0080133E1,4.4411633E1,6.1299465E1,2.0600525E2,5.5720848E1],"tree_param":{"num_deleted":"0","num_feature":"11","num_nodes":"33","size_leaf_vector":"1"}},{"base_weights":[-7.5199984E-2,-8.819595E-1,-1.9598126E-2,-1.0005243E-1,-9.172822E-1,-8.592137E-1,-1.2312538E-2,6.5070954E-3,-6.302596E-2,-2.829677E-1,-1.8260615E-2,-2.773292E-1,-1.7392291E-3,-6.1338004E-3,-2.7317375E-1,-4.1543312E-2,2.7244492E-2,-1.9751396E-2,1.4637113E-1,-1.17707895E-2,-5.3048366E-1,1.0556478E-1,9.9645066E-1,-4.4063576E-3,2.822882E-1,1.7836591E-2,-2.1684074E-1,6.122433E-2,-4.4059172E-2,-6.4155616E-2,4.3733057E-1],"categories":[],"categories_nodes":[],"categories_segments":[],"categories_sizes":[],"default_left":[0,0,0,0,0,0,0,0,0,0,0,0,0,0,0,0,0,0,0,0,0,0,0,0,0,0,0,0,0,0,0],"id":20,"left_children":[1,3,5,7,9,11,13,-1,-1,-1,15,-1,-1,17,-1,-1,-1,19,21,23,25,27,29,-1,-1,-1,-1,-1,-1,-1,-1],"loss_changes":[7.8731926E1,3.0338287E0,1.0042131E1,8.51175E-2,2.5053482E0,7.8068066E-1,9.042591E0,0E0,0E0,0E0,6.572525E-2,0E0,0E0,3.3674898E0,0E0,0E0,0E0,6.0595922E0,4.505827E0,4.08901E0,2.6381607E0,3.2120204E0,3.6450434E0,0E0,0E0,0E0,0E0,0E0,0E0,0E0,0E0],"parents":[2147483647,0,0,1,1,2,2,3,3,4,4,5,5,6,6,10,10,13,13,17,17,18,18,19,19,20,20,21,21,22,22],"right_children":[2,4,6,8,10,12,14,-1,-1,-1,16,-1,-1,18,-1,-1,-1,20,22,24,26,28,30,-1,-1,-1,-1,-1,-1,-1,-1],"split_conditions":[1E0,0E0,0E0,-9E-2,4E0,2.5E1,6.8686344E-2,6.5070954E-3,-6.302596E-2,-2.829677E-1,2.3E1,-2.773292E-1,-1.7392291E-3,5E0,-2.7317375E-1,-4.1543312E-2,2.7244492E-2,1.0953611E1,1.7496E2,2.6488E2,-1.531E1,2.8524985E0,1.0953611E1,-4.4063576E-3,2.822882E-1,1.7836591E-2,-2.1684074E-1,6.122433E-2,-4.4059172E-2,-6.4155616E-2,4.3733057E-1],"split_indices":[5,9,7,9,3,8,7,0,0,0,3,0,0,5,0,0,0,6,9,2,9,6,6,0,0,0,0,0,0,0,0],"split_type":[0,0,0,0,0,0,0,0,0,0,0,0,0,0,0,0,0,0,0,0,0,0,0,0,0,0,0,0,0,0,0],"sum_hessian":[1.7545483E3,1.121685E2,1.6423799E3,5.0138507E0,1.07154655E2,1.3122874E1,1.629257E3,2.761442E0,2.252409E0,1.0410139E2,3.0532618E0,1.2113933E1,1.0089418E0,1.6191267E3,1.0130353E1,1.3242213E0,1.7290406E0,1.4872008E3,1.3192587E2,1.4653269E3,2.1873875E1,1.269558E2,4.970073E0,1.4618357E3,3.4912565E0,5.547558E0,1.6326317E1,9.145489E1,3.5500916E1,1.5196329E0,3.4504404E0],"tree_param":{"num_deleted":"0","num_feature":"11","num_nodes":"31","size_leaf_vector":"1"}},{"base_weights":[-5.697978E-2,-8.453873E-1,-1.4875315E-2,-7.870308E-2,-8.9141876E-1,-8.2198006E-1,-9.3274135E-3,-6.4727895E-2,8.239613E-4,-2.7741694E-1,-1.6511533E-2,-2.7070394E-1,-7.838967E-4,-4.6191323E-3,-2.6565292E-1,-1.6082551E-2,1.7414039E-2,-3.4846827E-2,2.1941137E-2,-2.0650677E-1,1.9140523E-3,-4.8935392E-1,-5.0914712E-2,1.0459256E0,-6.49489E-4,1.7198274E-1,-1.869419E-1,1.3328029E-1,-6.456239E-2,6.280432E-1,-7.434613E-2,-1.2761672E-1,1.628522E-3],"categories":[],"categories_nodes":[],"categories_segments":[],"categories_sizes":[],"default_left":[0,0,0,0,0,0,0,0,0,0,0,0,0,0,0,0,0,0,0,0,0,0,0,0,0,0,0,0,0,0,0,0,0],"id":21,"left_children":[1,3,5,7,9,11,13,-1,15,-1,17,-1,-1,19,-1,-1,-1,-1,-1,21,23,25,27,29,31,-1,-1,-1,-1,-1,-1,-1,-1],"loss_changes":[5.7329697E1,3.0198593E0,7.3396525E0,6.6186026E-2,2.388649E0,7.345309E-1,6.722913E0,0E0,1.8151455E-2,0E0,4.461592E-2,0E0,0E0,2.1410222E0,0E0,0E0,0E0,0E0,0E0,2.2143617E0,4.2107964E0,2.907795E0,2.8569322E0,5.7417207E0,4.0558624E0,0E0,0E0,0E0,0E0,0E0,0E0,0E0,0E0],"parents":[2147483647,0,0,1,1,2,2,3,3,4,4,5,5,6,6,8,8,10,10,13,13,19,19,20,20,21,21,22,22,23,23,24,24],"right_children":[2,4,6,8,10,12,14,-1,16,-1,18,-1,-1,20,-1,-1,-1,-1,-1,22,24,26,28,30,32,-1,-1,-1,-1,-1,-1,-1,-1],"split_conditions":[1E0,0E0,0E0,0E0,4E0,1.32E2,6.8686344E-2,-6.4727895E-2,-9E-2,-2.7741694E-1,2.3E1,-2.7070394E-1,-7.838967E-4,-1.7E1,-2.6565292E-1,-1.6082551E-2,1.7414039E-2,-3.4846827E-2,2.1941137E-2,4.3007198E-1,-2.238E1,-2.4597E2,1.3432517E0,3.3015E2,-5.13E0,1.7198274E-1,-1.869419E-1,1.3328029E-1,-6.456239E-2,6.280432E-1,-7.434613E-2,-1.2761672E-1,1.628522E-3],"split_indices":[5,9,7,6,3,10,7,0,9,0,3,0,0,10,0,0,0,0,0,6,9,9,6,0,9,0,0,0,0,0,0,0,0],"split_type":[0,0,0,0,0,0,0,0,0,0,0,0,0,0,0,0,0,0,0,0,0,0,0,0,0,0,0,0,0,0,0,0,0],"sum_hessian":[1.7264121E3,8.65567E1,1.6398555E3,5.055968E0,8.150073E1,1.0190485E1,1.6296649E3,1.2274872E0,3.8284807E0,7.845723E1,3.0435014E0,9.188019E0,1.0024657E0,1.6219545E3,7.710515E0,1.9944494E0,1.8340312E0,1.3013588E0,1.7421427E0,4.988251E1,1.5720719E3,1.6940912E1,3.29416E1,2.8537936E0,1.5692181E3,1.5270306E0,1.5413882E1,7.7821045E0,2.5159494E1,1.2353631E0,1.6184305E0,2.1164959E1,1.5480532E3],"tree_param":{"num_deleted":"0","num_feature":"11","num_nodes":"33","size_leaf_vector":"1"}},{"base_weights":[-4.3137826E-2,-8.0219674E-1,-1.128809E-2,-6.67317E-2,-8.5880977E-1,-7.787234E-1,-7.025235E-3,1.1632789E-2,-4.9952418E-2,-2.7028003E-1,-1.4890013E-2,-2.626759E-1,-4.8903254E-4,-3.3984054E-3,-2.5667113E-1,2.5612848E-2,-4.7646232E-2,-2.2244193E-2,7.219876E-2,9.1167735E-3,-2.521247E-1,-4.3910974E-1,1.2692906E-1,6.375138E-3,-2.3066752E-1,-2.681892E-1,-3.20631E-2,-1.8951762E-1,4.46126E-1,-2.667632E-2,5.7320613E-2],"categories":[],"categories_nodes":[],"categories_segments":[],"categories_sizes":[],"default_left":[0,0,0,0,0,0,0,0,0,0,0,0,0,0,0,0,0,0,0,0,0,0,0,0,0,0,0,0,0,0,0],"id":22,"left_children":[1,3,5,7,9,11,13,-1,-1,-1,15,-1,-1,17,-1,-1,-1,19,21,23,25,27,29,-1,-1,-1,-1,-1,-1,-1,-1],"loss_changes":[4.1105415E1,2.793583E0,5.3374004E0,6.938901E-2,2.2436676E0,6.7696E-1,4.9985714E0,0E0,0E0,0E0,7.179455E-2,0E0,0E0,2.3085299E0,0E0,0E0,0E0,9.351986E0,9.104421E0,1.0798596E1,1.4421751E1,1.2622372E1,4.0715356E0,0E0,0E0,0E0,0E0,0E0,0E0,0E0,0E0],"parents":[2147483647,0,0,1,1,2,2,3,3,4,4,5,5,6,6,10,10,13,13,17,17,18,18,19,19,20,20,21,21,22,22],"right_children":[2,4,6,8,10,12,14,-1,-1,-1,16,-1,-1,18,-1,-1,-1,20,22,24,26,28,30,-1,-1,-1,-1,-1,-1,-1,-1],"split_conditions":[1E0,0E0,0E0,-9E-2,4E0,2.659E1,6.8686344E-2,1.1632789E-2,-4.9952418E-2,-2.7028003E-1,4.6E1,-2.626759E-1,-4.8903254E-4,3E0,-2.5667113E-1,2.5612848E-2,-4.7646232E-2,1.9630127E-1,4E0,1.8E1,1.713E1,1.713E1,5.5102113E-4,6.375138E-3,-2.3066752E-1,-2.681892E-1,-3.20631E-2,-1.8951762E-1,4.46126E-1,-2.667632E-2,5.7320613E-2],"split_indices":[5,9,7,9,3,2,7,0,0,0,3,0,0,5,0,0,0,6,3,10,0,0,6,0,0,0,0,0,0,0,0],"split_type":[0,0,0,0,0,0,0,0,0,0,0,0,0,0,0,0,0,0,0,0,0,0,0,0,0,0,0,0,0,0,0],"sum_hessian":[1.6996439E3,6.747032E1,1.6321736E3,4.978103E0,6.249222E1,8.012535E0,1.624161E3,2.7167113E0,2.261392E0,5.9456917E1,3.0353055E0,7.0117865E0,1.0007488E0,1.6182483E3,5.9126697E0,2.028807E0,1.0064987E0,1.295897E3,3.2235132E2,1.1411749E3,1.5472206E2,3.0489082E1,2.9186224E2,1.1246084E3,1.6566513E1,2.7600899E1,1.2712117E2,2.8328342E1,2.1607406E0,6.677087E1,2.2509137E2],"tree_param":{"num_deleted":"0","num_feature":"11","num_nodes":"31","size_leaf_vector":"1"}},{"base_weights":[-3.35625E-2,-7.491433E-1,-9.624078E-3,-5.263778E-2,-8.18853E-1,4.0211785E-3,-1.9053216E-1,-5.402019E-2,1.5030068E-2,-2.612301E-1,-1.61433E-2,9.859155E-3,-5.5913466E-1,-9.452394E-1,6.898132E-2,-1.5197399E-2,2.3552429E-2,-3.33561E-2,2.0978369E-2,-7.4388767E-3,5.372281E-1,-2.675483E-1,-1.2598348E-1,-2.929546E-1,-1.0441116E-2,4.252242E-1,-1.6255754E-1,7.537089E-3,-4.254118E-1,-2.3686327E-1,6.672856E-1,-2.122765E-1,2.43498E-1,1.761451E-1,9.637012E-1,-2.7263242E-1,1.6453886E-2,-2.7363596E-3,4.8327427E-2,-2.3094936E-1,5.5383515E-2,3.9600265E-1,1.23054855E-1,3.1914723E-1,-8.682886E-2,-5.6897648E-2,2.1706586E-1,4.3446606E-1,-2.4485381E-2,1.3964427E-1,-5.8119778E-2],"categories":[],"categories_nodes":[],"categories_segments":[],"categories_sizes":[],"default_left":[0,0,0,0,0,0,0,0,0,0,0,0,0,0,0,0,0,0,0,0,0,0,0,0,0,0,0,0,0,0,0,0,0,0,0,0,0,0,0,0,0,0,0,0,0,0,0,0,0,0,0],"id":23,"left_children":[1,3,5,7,9,11,13,-1,15,-1,17,19,21,23,25,-1,-1,-1,-1,27,29,-1,31,-1,-1,33,35,37,39,-1,41,-1,43,45,47,-1,49,-1,-1,-1,-1,-1,-1,-1,-1,-1,-1,-1,-1,-1,-1],"loss_changes":[2.8797256E1,2.5990963E0,4.0198293E0,5.46133E-2,2.0444908E0,4.98605E0,2.2434132E1,0E0,2.4220187E-2,0E0,4.0657707E-2,1.3690803E1,2.1300135E0,8.0008507E-1,7.156076E0,0E0,0E0,0E0,0E0,9.102593E0,8.751416E0,0E0,1.875145E0,0E0,0E0,4.406776E0,7.067686E0,3.593806E0,1.0710585E1,0E0,6.8340797E0,0E0,2.7516E0,5.0539756E0,5.4706383E0,0E0,4.2017584E0,0E0,0E0,0E0,0E0,0E0,0E0,0E0,0E0,0E0,0E0,0E0,0E0,0E0,0E0],"parents":[2147483647,0,0,1,1,2,2,3,3,4,4,5,5,6,6,8,8,10,10,11,11,12,12,13,13,14,14,19,19,20,20,22,22,25,25,26,26,27,27,28,28,30,30,32,32,33,33,34,34,36,36],"right_children":[2,4,6,8,10,12,14,-1,16,-1,18,20,22,24,26,-1,-1,-1,-1,28,30,-1,32,-1,-1,34,36,38,40,-1,42,-1,44,46,48,-1,50,-1,-1,-1,-1,-1,-1,-1,-1,-1,-1,-1,-1,-1,-1],"split_conditions":[1E0,0E0,2.8524985E0,0E0,4E0,2.7304E2,2.2095E2,-5.402019E-2,-9E-2,-2.612301E-1,2.3E1,8.112E1,5E0,1.71E2,7.2017083E0,-1.5197399E-2,2.3552429E-2,-3.33561E-2,2.0978369E-2,7.56552E-1,2E0,-2.675483E-1,5.6194E2,-2.929546E-1,-1.0441116E-2,3.654E2,5.6194E2,4.35E0,6.611E1,-2.3686327E-1,9.852E1,-2.122765E-1,9.213E2,6.5E1,7.091E1,-2.7263242E-1,1.4561146E1,-2.7363596E-3,4.8327427E-2,-2.3094936E-1,5.5383515E-2,3.9600265E-1,1.23054855E-1,3.1914723E-1,-8.682886E-2,-5.6897648E-2,2.1706586E-1,4.3446606E-1,-2.4485381E-2,1.3964427E-1,-5.8119778E-2],"split_indices":[5,9,6,6,3,1,0,0,9,0,3,1,5,4,6,0,0,0,0,6,5,0,0,0,0,0,0,9,0,0,1,0,0,10,9,0,6,0,0,0,0,0,0,0,0,0,0,0,0,0,0],"split_type":[0,0,0,0,0,0,0,0,0,0,0,0,0,0,0,0,0,0,0,0,0,0,0,0,0,0,0,0,0,0,0,0,0,0,0,0,0,0,0,0,0,0,0,0,0,0,0,0,0,0,0],"sum_hessian":[1.6805339E3,5.341866E1,1.6271154E3,5.019668E0,4.839899E1,1.5139047E3,1.1321069E2,1.164909E0,3.854759E0,4.5379368E1,3.0196242E0,1.4993441E3,1.45605135E1,2.8291649E1,8.4919044E1,1.9936543E0,1.8611046E0,1.2963423E0,1.7232821E0,1.4526812E3,4.6662956E1,7.6363153E0,6.924198E0,2.7281862E1,1.0097848E0,3.3121773E1,5.179727E1,1.40338E3,4.9301125E1,3.7131178E0,4.2949837E1,2.3344424E0,4.589756E0,2.3553793E1,9.567978E0,9.232898E0,4.2564377E1,1.2668833E3,1.3649678E2,3.134293E1,1.7958195E1,1.0968711E1,3.1981125E1,1.4151897E0,3.1745663E0,1.4510631E1,9.043162E0,6.2743173E0,3.2936606E0,1.3184138E1,2.9380238E1],"tree_param":{"num_deleted":"0","num_feature":"11","num_nodes":"51","size_leaf_vector":"1"}},{"base_weights":[-2.7615732E-2,-6.895896E-1,-9.777918E-3,-4.5150727E-2,-7.702847E-1,-7.252073E-3,-2.4178667E-1,1.4755515E-2,-4.1371174E-2,-2.4996005E-1,-1.4508807E-2,-6.892714E-1,-4.5483E-3,-2.7964523E-2,1.6921273E-2,-2.4474101E-1,-5.923811E-4,1.4584393E-2,-7.119231E-2,-8.3948495E-3,4.6519372E-1,-2.212288E-1,3.1198822E-2,2.7942145E-3,-2.9690924E-1,-2.1229671E-1,1.7977834E-1,-3.1998104E-3,-1.2375056E-1,8.286926E-2,-1.15962755E-2],"categories":[],"categories_nodes":[],"categories_segments":[],"categories_sizes":[],"default_left":[0,0,0,0,0,0,0,0,0,0,0,0,0,0,0,0,0,0,0,0,0,0,0,0,0,0,0,0,0,0,0],"id":24,"left_children":[1,3,5,7,9,11,-1,-1,-1,-1,13,15,17,-1,-1,-1,-1,19,21,23,25,27,29,-1,-1,-1,-1,-1,-1,-1,-1],"loss_changes":[1.9759768E1,2.2486515E0,3.274253E0,5.883312E-2,1.8404961E0,2.9969308E0,0E0,0E0,0E0,0E0,2.7648877E-2,5.564921E-1,2.0685716E0,0E0,0E0,0E0,0E0,1.3057464E1,5.565757E0,2.0870546E1,1.0045043E1,5.911933E0,3.7069216E0,0E0,0E0,0E0,0E0,0E0,0E0,0E0,0E0],"parents":[2147483647,0,0,1,1,2,2,3,3,4,4,5,5,10,10,11,11,12,12,17,17,18,18,19,19,20,20,21,21,22,22],"right_children":[2,4,6,8,10,12,-1,-1,-1,-1,14,16,18,-1,-1,-1,-1,20,22,24,26,28,30,-1,-1,-1,-1,-1,-1,-1,-1],"split_conditions":[1E0,0E0,6.8686344E-2,-9E-2,4E0,0E0,-2.4178667E-1,1.4755515E-2,-4.1371174E-2,-2.4996005E-1,2.3E1,5.342E1,1E1,-2.7964523E-2,1.6921273E-2,-2.4474101E-1,-5.923811E-4,1.909E1,2.4E1,2.6325032E-1,2E0,3.406688E-1,5.537E1,2.7942145E-3,-2.9690924E-1,-2.1229671E-1,1.7977834E-1,-3.1998104E-3,-1.2375056E-1,8.286926E-2,-1.15962755E-2],"split_indices":[5,9,7,9,3,7,0,0,0,0,3,9,3,0,0,0,0,0,3,6,5,6,0,0,0,0,0,0,0,0,0],"split_type":[0,0,0,0,0,0,0,0,0,0,0,0,0,0,0,0,0,0,0,0,0,0,0,0,0,0,0,0,0,0,0],"sum_hessian":[1.6729697E3,4.2909485E1,1.6300603E3,4.948645E0,3.796084E1,1.6259113E3,4.1490383E0,2.6862662E0,2.2623792E0,3.4949024E1,3.011816E0,5.417558E0,1.6204937E3,1.2784113E0,1.7334049E0,4.417347E0,1.0002112E0,1.2596458E3,3.6084796E2,1.1994595E3,6.0186188E1,1.4589844E2,2.1494952E2,1.1791703E3,2.0289173E1,5.7351923E0,5.4450996E1,6.994991E1,7.5948524E1,4.7028282E1,1.6792125E2],"tree_param":{"num_deleted":"0","num_feature":"11","num_nodes":"31","size_leaf_vector":"1"}},{"base_weights":[-2.2338573E-2,-6.210019E-1,-8.968941E-3,-3.57628E-2,-7.1335024E-1,-6.975427E-3,-2.2958516E-1,-4.5502387E-2,2.20011E-2,-2.3624097E-1,-1.2999241E-2,-6.345393E-1,-4.8506632E-3,-1.51095055E-2,2.6899608E-2,2.5645845E-2,-4.631252E-2,-2.3274298E-1,-1.0376209E-3,-2.9628498E-2,3.4215864E-2,-6.9245636E-3,-2.4629204E-1,6.3162945E-2,-1.0489961E-1,1.5173567E-3,-1.226836E-1,1.49070425E-2,1.6084033E-1,-2.1611138E-1,-2.1786008E-2],"categories":[],"categories_nodes":[],"categories_segments":[],"categories_sizes":[],"default_left":[0,0,0,0,0,0,0,0,0,0,0,0,0,0,0,0,0,0,0,0,0,0,0,0,0,0,0,0,0,0,0],"id":25,"left_children":[1,3,5,7,9,11,-1,-1,13,-1,15,17,19,-1,-1,-1,-1,-1,-1,21,23,25,-1,27,29,-1,-1,-1,-1,-1,-1],"loss_changes":[1.3268795E1,1.9317226E0,2.4421065E0,4.3432645E-2,1.6106911E0,2.1570873E0,0E0,0E0,2.8362537E-2,0E0,6.896336E-2,4.839785E-1,1.5648439E0,0E0,0E0,0E0,0E0,0E0,0E0,1.7765078E1,2.5333848E0,4.638701E0,0E0,3.2869802E0,2.1022592E0,0E0,0E0,0E0,0E0,0E0,0E0],"parents":[2147483647,0,0,1,1,2,2,3,3,4,4,5,5,8,8,10,10,11,11,12,12,19,19,20,20,21,21,23,23,24,24],"right_children":[2,4,6,8,10,12,-1,-1,14,-1,16,18,20,-1,-1,-1,-1,-1,-1,22,24,26,-1,28,30,-1,-1,-1,-1,-1,-1],"split_conditions":[1E0,0E0,6.8686344E-2,0E0,4E0,0E0,-2.2958516E-1,-4.5502387E-2,-9E-2,-2.3624097E-1,4.6E1,2.41E0,2E0,-1.51095055E-2,2.6899608E-2,2.5645845E-2,-4.631252E-2,-2.3274298E-1,-1.0376209E-3,4.3E-1,4E0,5.5102113E-4,-2.4629204E-1,1.96E2,4.24E0,1.5173567E-3,-1.226836E-1,1.49070425E-2,1.6084033E-1,-2.1611138E-1,-2.1786008E-2],"split_indices":[5,9,7,6,3,7,0,0,9,0,3,2,5,0,0,0,0,0,0,9,8,6,0,10,2,0,0,0,0,0,0],"split_type":[0,0,0,0,0,0,0,0,0,0,0,0,0,0,0,0,0,0,0,0,0,0,0,0,0,0,0,0,0,0,0],"sum_hessian":[1.6574852E3,3.5214336E1,1.6222709E3,4.9884295E0,3.0225908E1,1.6190127E3,3.2582116E0,1.1184088E0,3.8700209E0,2.7220694E1,3.0052156E0,4.4587193E0,1.614554E3,1.9935769E0,1.876444E0,2.0043027E0,1.0009128E0,3.455788E0,1.0029312E0,9.880975E2,6.264565E2,9.615199E2,2.6577557E1,5.1900757E2,1.074489E2,9.3464966E2,2.6870256E1,5.057073E2,1.3300243E1,4.292256E0,1.0315664E2],"tree_param":{"num_deleted":"0","num_feature":"11","num_nodes":"31","size_leaf_vector":"1"}},{"base_weights":[-1.7748985E-2,-5.504432E-1,-7.717265E-3,-3.110603E-2,-6.4955026E-1,-2.185329E-3,-2.6135418E-1,1.6620537E-2,-3.5665702E-2,-2.1999715E-1,-1.4503119E-2,1.0100424E-3,-5.952574E-1,-6.822094E-1,2.053898E-1,-2.7589357E-2,1.6758163E-2,-3.5114684E-3,7.9999113E-1,-7.9977286E-1,1.11954264E-1,-7.767978E-1,1.4403337E-1,5.420948E-1,-3.2699424E-1,7.373328E-4,-4.9917203E-1,-1.10342056E-1,1.2377073E0,-2.7402303E-1,-4.3908987E-2,-1.7750198E-1,-8.713269E-1,1.7221604E-1,4.8981997E-1,-6.422503E-1,1.13024674E-1,3.823335E-1,-3.171952E-4,-1.8578303E-1,1.4672683E-1,1.5772994E-1,-2.0032951E-1,2.6778938E-2,4.9496818E-1,-1.8658474E-1,1.4789058E-1,-2.8020546E-1,-2.873243E-3,-1.462471E-1,1.6070057E-1,-3.2939553E-2,-2.3206331E-1],"categories":[],"categories_nodes":[],"categories_segments":[],"categories_sizes":[],"default_left":[0,0,0,0,0,0,0,0,0,0,0,0,0,0,0,0,0,0,0,0,0,0,0,0,0,0,0,0,0,0,0,0,0,0,0,0,0,0,0,0,0,0,0,0,0,0,0,0,0,0,0,0,0],"id":26,"left_children":[1,3,5,7,9,11,13,-1,-1,-1,15,17,19,21,23,-1,-1,25,27,29,-1,31,-1,33,35,37,39,41,43,-1,-1,45,47,49,-1,51,-1,-1,-1,-1,-1,-1,-1,-1,-1,-1,-1,-1,-1,-1,-1,-1,-1],"loss_changes":[8.790806E0,1.5448551E0,2.2674377E0,5.1564474E-2,1.3451242E0,3.000388E0,6.9158278E0,0E0,0E0,0E0,2.6885489E-2,5.694264E0,1.9789145E0,2.3925905E0,3.2468343E0,0E0,0E0,3.3016233E0,3.6708956E0,4.1007996E-1,0E0,8.2934093E-1,0E0,4.102194E0,1.8522104E0,3.5564322E0,1.8844345E0,1.6978594E0,2.7268572E0,0E0,0E0,1.386014E0,7.8776264E-1,2.474722E0,0E0,2.9132533E-1,0E0,0E0,0E0,0E0,0E0,0E0,0E0,0E0,0E0,0E0,0E0,0E0,0E0,0E0,0E0,0E0,0E0],"parents":[2147483647,0,0,1,1,2,2,3,3,4,4,5,5,6,6,10,10,11,11,12,12,13,13,14,14,17,17,18,18,19,19,21,21,23,23,24,24,25,25,26,26,27,27,28,28,31,31,32,32,33,33,35,35],"right_children":[2,4,6,8,10,12,14,-1,-1,-1,16,18,20,22,24,-1,-1,26,28,30,-1,32,-1,34,36,38,40,42,44,-1,-1,46,48,50,-1,52,-1,-1,-1,-1,-1,-1,-1,-1,-1,-1,-1,-1,-1,-1,-1,-1,-1],"split_conditions":[1E0,0E0,1.3573992E1,-9E-2,4E0,3.06E2,1.56315E3,1.6620537E-2,-3.5665702E-2,-2.1999715E-1,2.3E1,2.08E2,1E1,4.38E2,5.8323795E1,-2.7589357E-2,1.6758163E-2,1.22E2,2.1820436E-1,3.46E2,1.11954264E-1,1.5673657E1,1.4403337E-1,1.1E1,5.2E2,-7.661E1,6.234E1,3E0,9.1E1,-2.7402303E-1,-4.3908987E-2,2.12E2,3.79E2,2.01301E3,4.8981997E-1,2.18E2,1.13024674E-1,3.823335E-1,-3.171952E-4,-1.8578303E-1,1.4672683E-1,1.5772994E-1,-2.0032951E-1,2.6778938E-2,4.9496818E-1,-1.8658474E-1,1.4789058E-1,-2.8020546E-1,-2.873243E-3,-1.462471E-1,1.6070057E-1,-3.2939553E-2,-2.3206331E-1],"split_indices":[5,9,6,9,3,4,0,0,0,0,3,4,5,3,6,0,0,4,6,3,0,6,0,5,4,9,9,5,3,0,0,3,4,1,0,3,0,0,0,0,0,0,0,0,0,0,0,0,0,0,0,0,0],"split_type":[0,0,0,0,0,0,0,0,0,0,0,0,0,0,0,0,0,0,0,0,0,0,0,0,0,0,0,0,0,0,0,0,0,0,0,0,0,0,0,0,0,0,0,0,0,0,0,0,0,0,0,0,0],"sum_hessian":[1.6448307E3,2.9407236E1,1.6154235E3,4.9231257E0,2.4484112E1,1.5819294E3,3.349398E1,2.6652982E0,2.2578275E0,2.1493938E1,2.990172E0,1.574445E3,7.4845443E0,1.7370056E1,1.6123922E1,1.2771757E0,1.7129962E0,1.5665751E3,7.8697944E0,6.3233395E0,1.1612049E0,1.63696E1,1.0004567E0,9.8659725E0,6.257951E0,1.5542506E3,1.232452E1,2.7981987E0,5.0715957E0,5.0475802E0,1.2757595E0,2.6223269E0,1.3747273E1,8.232059E0,1.6339139E0,4.382224E0,1.8757266E0,1.189089E0,1.5530615E3,1.1321919E1,1.0026007E0,1.3333849E0,1.464814E0,1.6607987E0,3.4107969E0,1.6204913E0,1.0018356E0,1.2736822E1,1.0104512E0,2.80301E0,5.429048E0,1.2300677E0,3.1521564E0],"tree_param":{"num_deleted":"0","num_feature":"11","num_nodes":"53","size_leaf_vector":"1"}},{"base_weights":[-1.3496678E-2,-4.7529054E-1,-5.9942883E-3,-2.4779499E-2,-5.7938224E-1,3.9420985E-3,-1.2453808E-1,-3.8643546E-2,2.472628E-2,-2.0138353E-1,-1.2955295E-2,9.879618E-3,-4.688316E-1,-2.8845578E-1,3.826846E-2,-1.5410279E-2,2.8542496E-2,-2.3122016E-2,1.3535842E-2,-2.401534E-3,4.9770424E-1,-6.4692646E-1,4.817634E-2,2.4286634E-1,-1.2912253E-1,7.300455E-3,-2.7648997E-1,2.1851702E-1,9.8168397E-1,-7.922276E-1,-2.902616E-1,2.7762285E-1,-3.5732913E-1,1.075164E0,8.287251E-2,-3.1700134E-1,2.1634372E-1,-2.9456706E-3,5.947042E-2,-1.3149235E-1,6.713539E-2,3.6382243E-1,-1.9503037E-3,8.043086E-2,4.6550322E-1,-1.0170775E-1,-2.6091236E-1,1.4339317E-1,-1.7033435E-1,-2.1923544E-1,1.480687E-1,-3.0903747E-2,4.8050848E-1,-2.4694636E-1,6.2971845E-2,-1.3653879E-1,5.059669E-2,2.8348625E-1,-1.5984947E-2],"categories":[],"categories_nodes":[],"categories_segments":[],"categories_sizes":[],"default_left":[0,0,0,0,0,0,0,0,0,0,0,0,0,0,0,0,0,0,0,0,0,0,0,0,0,0,0,0,0,0,0,0,0,0,0,0,0,0,0,0,0,0,0,0,0,0,0,0,0,0,0,0,0,0,0,0,0,0,0],"id":27,"left_children":[1,3,5,7,9,11,13,-1,15,-1,17,19,21,-1,23,-1,-1,-1,-1,25,27,29,31,33,35,37,39,41,43,45,47,-1,49,51,53,55,57,-1,-1,-1,-1,-1,-1,-1,-1,-1,-1,-1,-1,-1,-1,-1,-1,-1,-1,-1,-1,-1,-1],"loss_changes":[5.676745E0,1.2140203E0,1.90179E0,3.388563E-2,1.0965576E0,4.188007E0,1.705171E1,0E0,3.1024203E-2,0E0,1.831134E-2,8.824674E0,1.735023E0,0E0,3.6442993E0,0E0,0E0,0E0,0E0,3.8249025E0,4.673074E0,4.869218E-1,2.3482916E0,6.2784967E0,3.8769734E0,4.5435433E0,4.0788345E0,5.4275956E0,4.849745E0,2.99716E-2,1.4615581E0,0E0,1.8225222E0,4.8960905E0,4.9137826E0,2.6535397E0,4.2276783E0,0E0,0E0,0E0,0E0,0E0,0E0,0E0,0E0,0E0,0E0,0E0,0E0,0E0,0E0,0E0,0E0,0E0,0E0,0E0,0E0,0E0,0E0],"parents":[2147483647,0,0,1,1,2,2,3,3,4,4,5,5,6,6,8,8,10,10,11,11,12,12,14,14,19,19,20,20,21,21,22,22,23,23,24,24,25,25,26,26,27,27,28,28,29,29,30,30,32,32,33,33,34,34,35,35,36,36],"right_children":[2,4,6,8,10,12,14,-1,16,-1,18,20,22,-1,24,-1,-1,-1,-1,26,28,30,32,34,36,38,40,42,44,46,48,-1,50,52,54,56,58,-1,-1,-1,-1,-1,-1,-1,-1,-1,-1,-1,-1,-1,-1,-1,-1,-1,-1,-1,-1,-1,-1],"split_conditions":[1E0,0E0,2.085477E0,0E0,4E0,1.6213E2,1.506E2,-3.8643546E-2,-9E-2,-2.0138353E-1,2.3E1,8.112E1,7E0,-2.8845578E-1,1.4E1,-1.5410279E-2,2.8542496E-2,-2.3122016E-2,1.3535842E-2,1.283E1,4E0,1.26E2,8E0,2.8524985E0,2.12E2,4.35E0,2.241E1,1.3E1,9E0,3.1E1,1.74E2,2.7762285E-1,1.81E2,3.9E1,2.2095E2,5E1,9.527568E0,-2.9456706E-3,5.947042E-2,-1.3149235E-1,6.713539E-2,3.6382243E-1,-1.9503037E-3,8.043086E-2,4.6550322E-1,-1.0170775E-1,-2.6091236E-1,1.4339317E-1,-1.7033435E-1,-2.1923544E-1,1.480687E-1,-3.0903747E-2,4.8050848E-1,-2.4694636E-1,6.2971845E-2,-1.3653879E-1,5.059669E-2,2.8348625E-1,-1.5984947E-2],"split_indices":[5,9,6,6,3,1,0,0,9,0,3,1,5,0,4,0,0,0,0,9,5,3,5,6,3,9,9,3,4,3,3,0,4,3,0,10,6,0,0,0,0,0,0,0,0,0,0,0,0,0,0,0,0,0,0,0,0,0,0],"split_type":[0,0,0,0,0,0,0,0,0,0,0,0,0,0,0,0,0,0,0,0,0,0,0,0,0,0,0,0,0,0,0,0,0,0,0,0,0,0,0,0,0,0,0,0,0,0,0,0,0,0,0,0,0,0,0,0,0,0,0],"sum_hessian":[1.6383418E3,2.5194513E1,1.6131473E3,4.961048E0,2.0233467E1,1.4892819E3,1.2386545E2,1.0830829E0,3.8779652E0,1.7249779E1,2.9836872E0,1.4717771E3,1.7504803E1,1.9371504E1,1.0449394E2,1.9938409E0,1.8841243E0,1.2625804E0,1.7211068E0,1.4366051E3,3.5171947E1,1.2832927E1,4.6718764E0,4.6818253E1,5.767569E1,1.3884318E3,4.817336E1,2.3225597E1,1.1946352E1,8.250542E0,4.582385E0,1.071588E0,3.6002884E0,6.6265416E0,4.019171E1,3.741193E1,2.0263758E1,1.2750574E3,1.1337434E2,3.6493206E1,1.1680154E1,3.476302E0,1.9749294E1,5.957923E0,5.9884295E0,1.9894394E0,6.2611027E0,1.0243703E0,3.5580146E0,2.6002114E0,1.000077E0,2.295172E0,4.33137E0,4.2684608E0,3.5923252E1,2.9176552E1,8.235379E0,4.796782E0,1.5466976E1],"tree_param":{"num_deleted":"0","num_feature":"11","num_nodes":"59","size_leaf_vector":"1"}},{"base_weights":[-1.1508208E-2,-7.3767054E-1,-8.310158E-3,-2.568935E-1,-8.3313754E-4,-6.688632E-3,-2.1874176E-1,-2.9711878E-1,-3.1394244E-3,-3.962621E-1,1.1147858E-1,-9.365833E-4,-3.1330284E-1,1.5388659E-1,-1.6891938E-1,-2.9277788E-3,5.7257885E-1,-2.5060672E-1,1.7701119E-1,9.814119E-2,-2.1028645E-2,-1.7266226E-3,1.8165867E-1,3.6056933E-1,-1.9318224E-1,-1.13273405E-1,1.5770589E-1],"categories":[],"categories_nodes":[],"categories_segments":[],"categories_sizes":[],"default_left":[0,0,0,0,0,0,0,0,0,0,0,0,0,0,0,0,0,0,0,0,0,0,0,0,0,0,0],"id":28,"left_children":[1,3,5,-1,-1,7,-1,9,11,13,-1,15,17,19,-1,21,23,-1,25,-1,-1,-1,-1,-1,-1,-1,-1],"loss_changes":[3.8000476E0,6.232028E-1,1.9035987E0,0E0,0E0,1.6794064E0,0E0,1.4513365E0,1.1007255E0,1.7030303E0,0E0,1.8301082E0,3.056001E0,2.1243075E-1,0E0,2.7503507E0,5.0188932E0,0E0,1.4909556E0,0E0,0E0,0E0,0E0,0E0,0E0,0E0,0E0],"parents":[2147483647,0,0,1,1,2,2,5,5,7,7,8,8,9,9,11,11,12,12,13,13,15,15,16,16,18,18],"right_children":[2,4,6,-1,-1,8,-1,10,12,14,-1,16,18,20,-1,22,24,-1,26,-1,-1,-1,-1,-1,-1,-1,-1],"split_conditions":[0E0,2.6731E2,6.8686344E-2,-2.568935E-1,-8.3313754E-4,1E0,-2.1874176E-1,4E0,4.3719532E1,0E0,1.1147858E-1,5.26E2,3.09855E3,-9E-2,-1.6891938E-1,2.1316E2,5.342E1,-2.5060672E-1,5E0,9.814119E-2,-2.1028645E-2,-1.7266226E-3,1.8165867E-1,3.6056933E-1,-1.9318224E-1,-1.13273405E-1,1.5770589E-1],"split_indices":[7,0,7,0,0,5,0,3,6,9,0,3,1,9,0,9,9,0,5,0,0,0,0,0,0,0,0],"split_type":[0,0,0,0,0,0,0,0,0,0,0,0,0,0,0,0,0,0,0,0,0,0,0,0,0,0,0],"sum_hessian":[1.6379663E3,6.175036E0,1.6317913E3,5.174454E0,1.0005816E0,1.6291357E3,2.6555078E0,1.8669924E1,1.6104658E3,1.6614141E1,2.0557804E0,1.6001046E3,1.0361235E1,3.8833826E0,1.273076E1,1.5955598E3,4.544749E0,4.6773725E0,5.683862E0,1.9299837E0,1.9533987E0,1.5891652E3,6.3946533E0,3.003187E0,1.541562E0,2.1620674E0,3.5217948E0],"tree_param":{"num_deleted":"0","num_feature":"11","num_nodes":"27","size_leaf_vector":"1"}},{"base_weights":[-8.805491E-3,-6.8144834E-1,-6.311096E-3,-2.4472322E-1,-9.3735714E-4,-5.00414E-3,-2.0498279E-1,2.2756457E-3,-9.7161144E-2,8.316726E-3,-3.40495E-1,-8.16073E-1,5.0106205E-2,-2.8728233E-3,4.602526E-1,-4.6829075E-1,2.2706558E-1,-1.7074688E-1,-2.850967E-1,1.0891972E-1,-5.002129E-1,3.6189335E-3,-4.051718E-2,1.0158008E-2,2.8930324E-1,4.256956E-2,-1.7519012E-1,1.9497006E-1,-1.8112107E-1,-1.366812E-1,1.1701811E-1,1.597882E-1,5.282692E-4,7.379576E-2,-2.1533915E-1],"categories":[],"categories_nodes":[],"categories_segments":[],"categories_sizes":[],"default_left":[0,0,0,0,0,0,0,0,0,0,0,0,0,0,0,0,0,0,0,0,0,0,0,0,0,0,0,0,0,0,0,0,0,0,0],"id":29,"left_children":[1,3,5,-1,-1,7,-1,9,11,13,15,17,19,21,23,25,27,29,-1,31,33,-1,-1,-1,-1,-1,-1,-1,-1,-1,-1,-1,-1,-1,-1],"loss_changes":[2.7419152E0,5.474801E-1,1.4402678E0,0E0,0E0,1.0934825E0,0E0,3.1322057E0,1.2674107E1,7.5162797E0,2.0064783E0,1.6003561E0,3.2904453E0,2.8666353E0,7.686064E0,1.6151996E0,2.3203053E0,9.3216074E-1,0E0,4.1375256E0,1.7729247E0,0E0,0E0,0E0,0E0,0E0,0E0,0E0,0E0,0E0,0E0,0E0,0E0,0E0,0E0],"parents":[2147483647,0,0,1,1,2,2,5,5,7,7,8,8,9,9,10,10,11,11,12,12,13,13,14,14,15,15,16,16,17,17,19,19,20,20],"right_children":[2,4,6,-1,-1,8,-1,10,12,14,16,18,20,22,24,26,28,30,-1,32,34,-1,-1,-1,-1,-1,-1,-1,-1,-1,-1,-1,-1,-1,-1],"split_conditions":[0E0,2.241E1,6.8686344E-2,-2.4472322E-1,-9.3735714E-4,2.085477E0,-2.0498279E-1,1.506E2,1.6604E2,4.4E1,2.26E2,2.2148294E0,6.9E1,3.406688E-1,3.9769948E-1,3.1E1,9.213E2,4.4E1,-2.850967E-1,3.692117E0,3E0,3.6189335E-3,-4.051718E-2,1.0158008E-2,2.8930324E-1,4.256956E-2,-1.7519012E-1,1.9497006E-1,-1.8112107E-1,-1.366812E-1,1.1701811E-1,1.597882E-1,5.282692E-4,7.379576E-2,-2.1533915E-1],"split_indices":[7,9,7,0,0,6,0,0,0,3,10,6,8,6,6,3,0,10,0,6,5,0,0,0,0,0,0,0,0,0,0,0,0,0,0],"split_type":[0,0,0,0,0,0,0,0,0,0,0,0,0,0,0,0,0,0,0,0,0,0,0,0,0,0,0,0,0,0,0,0,0,0,0],"sum_hessian":[1.6357598E3,5.0379047E0,1.6307218E3,4.036219E0,1.0016855E0,1.6285851E3,2.1367717E0,1.51026E3,1.1832511E2,1.4850625E3,2.5197401E1,1.9345444E1,9.897967E1,1.4501517E3,3.4910885E1,2.0709269E1,4.488132E0,3.7226796E0,1.5622764E1,9.014753E1,8.832137E0,1.3037461E3,1.4640561E2,1.9491179E1,1.5419705E1,3.26417E0,1.7445099E1,3.1186488E0,1.3694834E0,2.5931199E0,1.12956E0,1.7395401E1,7.275213E1,1.9644799E0,6.867657E0],"tree_param":{"num_deleted":"0","num_feature":"11","num_nodes":"35","size_leaf_vector":"1"}},{"base_weights":[-7.875655E-3,-6.2396115E-1,-5.9060613E-3,-2.3159356E-1,-7.970601E-4,-8.418625E-3,2.821839E-1,-6.2452443E-3,-3.8803035E-1,-9.072742E-2,1.2862834E0,-9.636842E-3,5.2642304E-1,-8.2574375E-3,-2.40916E-1,5.830233E-1,-4.275985E-1,7.313854E-1,-1.7408109E-1,-6.282982E-3,-4.2369723E-1,-4.5508027E-1,1.006034E0,-2.919678E-1,5.0212216E-1,3.8067916E-1,-1.7157298E-1,-2.5371185E-1,2.4061778E-1,1.8487595E-1,-2.8263829E-3,-1.9239382E-1,5.8489036E-2,-1.7876571E-1,-4.8532495E-3,9.40905E-2,6.5475774E-1,4.227445E-1,-1.19382806E-1,2.028047E-1,-7.513987E-2],"categories":[],"categories_nodes":[],"categories_segments":[],"categories_sizes":[],"default_left":[0,0,0,0,0,0,0,0,0,0,0,0,0,0,0,0,0,0,0,0,0,0,0,0,0,0,0,0,0,0,0,0,0,0,0,0,0,0,0,0,0],"id":30,"left_children":[1,3,5,-1,-1,7,9,11,13,15,17,19,21,23,-1,25,27,-1,-1,29,31,33,35,-1,37,-1,-1,-1,39,-1,-1,-1,-1,-1,-1,-1,-1,-1,-1,-1,-1],"loss_changes":[1.9736943E0,4.746418E-1,1.1789005E0,0E0,0E0,1.3277918E0,5.3896117E0,2.903107E0,1.4374266E0,2.7919273E0,9.754231E0,2.2122777E0,5.243937E0,3.3424923E0,0E0,4.0190153E0,2.45125E0,0E0,0E0,3.0988517E0,1.84834E0,2.3916185E-1,5.1327853E0,0E0,4.1933727E0,0E0,0E0,0E0,9.978635E-1,0E0,0E0,0E0,0E0,0E0,0E0,0E0,0E0,0E0,0E0,0E0,0E0],"parents":[2147483647,0,0,1,1,2,2,5,5,6,6,7,7,8,8,9,9,10,10,11,11,12,12,13,13,15,15,16,16,19,19,20,20,21,21,22,22,24,24,28,28],"right_children":[2,4,6,-1,-1,8,10,12,14,16,18,20,22,24,-1,26,28,-1,-1,30,32,34,36,-1,38,-1,-1,-1,40,-1,-1,-1,-1,-1,-1,-1,-1,-1,-1,-1,-1],"split_conditions":[0E0,2.241E1,1.6E1,-2.3159356E-1,-7.970601E-4,1.3E1,4.35E0,1.1E1,1.4326549E0,0E0,4.7E1,3.06E2,3.82E0,8E0,-2.40916E-1,1.1830423E0,2.5E1,7.313854E-1,-1.7408109E-1,-7.661E1,8.76E2,2.21E2,2.678376E0,-2.919678E-1,9E0,3.8067916E-1,-1.7157298E-1,-2.5371185E-1,1.1E2,1.8487595E-1,-2.8263829E-3,-1.9239382E-1,5.8489036E-2,-1.7876571E-1,-4.8532495E-3,9.40905E-2,6.5475774E-1,4.227445E-1,-1.19382806E-1,2.028047E-1,-7.513987E-2],"split_indices":[7,9,5,0,0,5,9,5,6,10,4,4,2,3,0,6,8,0,0,9,4,3,6,0,10,0,0,0,3,0,0,0,0,0,0,0,0,0,0,0,0],"split_type":[0,0,0,0,0,0,0,0,0,0,0,0,0,0,0,0,0,0,0,0,0,0,0,0,0,0,0,0,0,0,0,0,0,0,0,0,0,0,0,0,0],"sum_hessian":[1.6285676E3,4.1834855E0,1.624384E3,3.1827307E0,1.0007551E0,1.611302E3,1.3082121E1,1.60314E3,8.1619625E0,1.0202623E1,2.8794968E0,1.5939728E3,9.1672125E0,4.7945423E0,3.3674204E0,3.1572807E0,7.045343E0,1.5914465E0,1.2880504E0,1.5821725E3,1.1800311E1,3.0259275E0,6.141285E0,1.3448962E0,3.449646E0,1.9189341E0,1.2383467E0,4.170325E0,2.8750184E0,6.9560246E0,1.5752164E3,8.702552E0,3.0977595E0,2.0201633E0,1.0057644E0,4.663353E0,1.4779316E0,1.4364643E0,2.0131817E0,1.3243043E0,1.550714E0],"tree_param":{"num_deleted":"0","num_feature":"11","num_nodes":"41","size_leaf_vector":"1"}},{"base_weights":[-6.0572745E-3,-3.016975E-1,-2.520262E-3,-1.6531727E-1,-2.2931166E-1,-1.668144E-1,2.6191594E-3,1.9952115E-1,-2.9072037E-1,-3.53299E-2,-5.314791E-1,5.1864815E-1,-4.3492566E-4,-3.9953284E-2,1.0143136E-1,-1.2763411E-1,8.31071E-2,-3.7655222E-1,1.2333591E-1,-8.2542884E-1,6.483281E-3,1.0138444E0,-1.04820125E-1,3.9489497E-3,-3.1763604E-1,-6.1000276E-1,2.5766823E-1,9.8293364E-1,-1.4540586E-1,-4.1749574E-2,-2.775697E-1,-3.9695308E-1,2.695761E-1,-9.899982E-3,1.5971717E0,-2.1164832E-1,1.5810835E-1,8.036682E-1,1.7584856E-3,-8.059222E-1,7.8504466E-2,-1.1094511E-2,-2.9330644E-1,-1.591501E-1,2.2630064E-1,5.112813E-2,3.8869825E-1,-1.2580018E-1,9.592913E-2,5.5917674E-3,-2.0284523E-1,5.8809346E-1,1.2327183E-1,2.1947064E-2,3.534825E-1,1.0228778E-3,-2.8385893E-1,-2.6679733E-1,-1.5541293E-2,-2.3696868E-2,2.8409284E-1],"categories":[],"categories_nodes":[],"categories_segments":[],"categories_sizes":[],"default_left":[0,0,0,0,0,0,0,0,0,0,0,0,0,0,0,0,0,0,0,0,0,0,0,0,0,0,0,0,0,0,0,0,0,0,0,0,0,0,0,0,0,0,0,0,0,0,0,0,0,0,0,0,0,0,0,0,0,0,0,0,0],"id":31,"left_children":[1,3,5,7,-1,9,11,13,15,17,19,21,23,-1,-1,-1,-1,25,27,29,31,33,35,37,39,41,43,45,47,-1,-1,49,-1,-1,51,-1,-1,53,55,57,59,-1,-1,-1,-1,-1,-1,-1,-1,-1,-1,-1,-1,-1,-1,-1,-1,-1,-1,-1,-1],"loss_changes":[1.7043678E0,1.0895485E0,1.3618811E0,7.972979E-1,0E0,2.3269846E0,2.4657812E0,2.6294583E-1,1.0688124E0,2.0512223E0,2.0443223E0,2.948343E0,2.1653109E0,0E0,0E0,0E0,0E0,1.9338778E0,6.155971E0,4.4285345E-1,2.353528E0,3.2428665E0,2.2623672E0,2.689302E0,4.1692133E0,1.8744504E0,1.9392561E0,1.387187E0,2.7718701E0,0E0,0E0,5.3638005E-1,0E0,0E0,6.483984E-1,0E0,0E0,1.0613737E0,2.4023514E0,5.5750227E-1,1.8023962E0,0E0,0E0,0E0,0E0,0E0,0E0,0E0,0E0,0E0,0E0,0E0,0E0,0E0,0E0,0E0,0E0,0E0,0E0,0E0,0E0],"parents":[2147483647,0,0,1,1,2,2,3,3,5,5,6,6,7,7,8,8,9,9,10,10,11,11,12,12,17,17,18,18,19,19,20,20,21,21,22,22,23,23,24,24,25,25,26,26,27,27,28,28,31,31,34,34,37,37,38,38,39,39,40,40],"right_children":[2,4,6,8,-1,10,12,14,16,18,20,22,24,-1,-1,-1,-1,26,28,30,32,34,36,38,40,42,44,46,48,-1,-1,50,-1,-1,52,-1,-1,54,56,58,60,-1,-1,-1,-1,-1,-1,-1,-1,-1,-1,-1,-1,-1,-1,-1,-1,-1,-1,-1,-1],"split_conditions":[1E0,5.5102113E-4,-1.7E1,0E0,-2.2931166E-1,6.48E0,-1.3E1,0E0,4E0,6.4E1,2.3E2,5.316E1,1.5673657E1,-3.9953284E-2,1.0143136E-1,-1.2763411E-1,8.31071E-2,1.1122361E0,8.93E1,3E0,-8.5E1,1.273E1,2.6488E2,-2.238E1,1.56315E3,3.9E1,3E0,8.5E1,8.8994E2,-4.1749574E-2,-2.775697E-1,-2.69E2,2.695761E-1,-9.899982E-3,2.202E1,-2.1164832E-1,1.5810835E-1,3.1E1,2.24E2,2.6488E2,1.7E1,-1.1094511E-2,-2.9330644E-1,-1.591501E-1,2.2630064E-1,5.112813E-2,3.8869825E-1,-1.2580018E-1,9.592913E-2,5.5917674E-3,-2.0284523E-1,5.8809346E-1,1.2327183E-1,2.1947064E-2,3.534825E-1,1.0228778E-3,-2.8385893E-1,-2.6679733E-1,-1.5541293E-2,-2.3696868E-2,2.8409284E-1],"split_indices":[5,6,10,9,0,2,8,6,3,4,4,2,6,0,0,0,0,6,1,5,10,2,2,9,0,4,5,4,1,0,0,10,0,0,2,0,0,3,4,2,5,0,0,0,0,0,0,0,0,0,0,0,0,0,0,0,0,0,0,0,0],"split_type":[0,0,0,0,0,0,0,0,0,0,0,0,0,0,0,0,0,0,0,0,0,0,0,0,0,0,0,0,0,0,0,0,0,0,0,0,0,0,0,0,0,0,0,0,0,0,0,0,0,0,0,0,0,0,0,0,0,0,0,0,0],"sum_hessian":[1.6296355E3,1.8269709E1,1.6113658E3,1.515875E1,3.110959E0,4.7923286E1,1.5634425E3,3.7264004E0,1.1432349E1,3.6029335E1,1.1893951E1,8.205416E0,1.555237E3,1.107241E0,2.6191592E0,9.442308E0,1.9900403E0,1.0999936E1,2.5029398E1,7.345766E0,4.5481853E0,4.2241797E0,3.9812357E0,1.53501E3,2.0227043E1,8.068269E0,2.9316678E0,5.328408E0,1.970099E1,1.2366648E0,6.1091013E0,3.5140586E0,1.0341269E0,1.8491343E0,2.3750453E0,1.9812133E0,2.0000224E0,3.1935096E0,1.5318165E3,8.596495E0,1.16305485E1,3.5837445E0,4.484524E0,1.1069356E0,1.8247323E0,1.9102625E0,3.4181454E0,1.2461328E1,7.239663E0,1.7871234E0,1.7269351E0,1.3188212E0,1.0562242E0,1.4876907E0,1.705819E0,1.5301478E3,1.6687416E0,7.5789986E0,1.0174959E0,1.0614666E1,1.0158818E0],"tree_param":{"num_deleted":"0","num_feature":"11","num_nodes":"61","size_leaf_vector":"1"}},{"base_weights":[-4.9756854E-3,-5.3903735E-1,-3.5724966E-3,-2.1076027E-1,-1.9348287E-3,-2.5441025E-3,-1.8801841E-1,-5.2901804E-1,-1.3790599E-3,-3.530423E-2,-1.9789788E-1,-2.0446975E-2,2.881943E-2,-3.0379076E-3,-7.811611E-1,6.458363E-2,-6.706437E-2,2.0875726E-3,-1.0974429E-1,-1.5164347E-1,-2.6277435E-1,1.7047012E-2,3.261088E-1,-9.95776E-2,4.4219834E-3],"categories":[],"categories_nodes":[],"categories_segments":[],"categories_sizes":[],"default_left":[0,0,0,0,0,0,0,0,0,0,0,0,0,0,0,0,0,0,0,0,0,0,0,0,0],"id":32,"left_children":[1,3,5,-1,-1,7,-1,9,11,-1,-1,13,15,17,19,21,23,-1,-1,-1,-1,-1,-1,-1,-1],"loss_changes":[1.2167368E0,3.659631E-1,1.0384735E0,0E0,0E0,9.937077E-1,0E0,1.14602804E-1,9.326758E-1,0E0,0E0,1.3145488E1,2.1541476E0,3.5259817E0,1.3735771E-1,3.565163E0,3.705604E0,0E0,0E0,0E0,0E0,0E0,0E0,0E0,0E0],"parents":[2147483647,0,0,1,1,2,2,5,5,7,7,8,8,11,11,12,12,13,13,14,14,15,15,16,16],"right_children":[2,4,6,-1,-1,8,-1,10,12,-1,-1,14,16,18,20,22,24,-1,-1,-1,-1,-1,-1,-1,-1],"split_conditions":[0E0,1.138E1,6.8686344E-2,-2.1076027E-1,-1.9348287E-3,0E0,-1.8801841E-1,1E0,2E0,-3.530423E-2,-1.9789788E-1,4.3E-1,4.5E-1,5.5102113E-4,9.78E0,1.7E1,3E0,2.0875726E-3,-1.0974429E-1,-1.5164347E-1,-2.6277435E-1,1.7047012E-2,3.261088E-1,-9.95776E-2,4.4219834E-3],"split_indices":[7,9,7,0,0,6,0,5,5,0,0,9,2,6,1,5,5,0,0,0,0,0,0,0,0],"split_type":[0,0,0,0,0,0,0,0,0,0,0,0,0,0,0,0,0,0,0,0,0,0,0,0,0],"sum_hessian":[1.6252072E3,3.2548141E0,1.6219523E3,2.2461753E0,1.008639E0,1.6202825E3,1.6698707E0,2.5772266E0,1.6177052E3,1.0794058E0,1.4978209E0,9.917916E2,6.259136E2,9.705837E2,2.120797E1,4.5611234E2,1.6980127E2,9.4551044E2,2.507319E1,7.0450907E0,1.416288E1,4.5372418E2,2.388144E0,3.9347336E1,1.3045393E2],"tree_param":{"num_deleted":"0","num_feature":"11","num_nodes":"25","size_leaf_vector":"1"}},{"base_weights":[-4.6984605E-3,-2.526852E-3,-3.1397653E-1,-1.2705784E-1,1.9220238E-3,-2.402378E-1,4.4365354E-2,-4.794261E-1,-9.984908E-3,-1.7964521E-2,3.612713E-2,5.510636E-1,-2.696562E-1,1.4832327E-1,-6.5102935E-1,4.8627385E-1,-1.4920954E-1,-4.221055E-3,-7.351107E-1,-4.6423588E-2,7.6008074E-2,-3.1114548E-2,2.9640266E-1,-1.9808546E-1,1.2457585E-1,-1.2657891E-1,-2.6695073E-1,-1.02207705E-1,1.54202E0,1.7187911E-1,-3.201386E-1,9.135202E-4,-6.3496304E-1,-4.4015342E-1,-8.4525186E-1,8.564029E-1,-8.052926E-2,1.9262484E-1,-1.1185004E-2,1.9938877E-1,-1.6408104E-1,9.4607346E-2,-1.4123216E-1,1.9166794E-1,-2.3671241E-1,6.037155E-1,1.0326028E-1,4.000761E-1,-1.7997848E-2,-1.9509293E-1,-3.963605E-2,1.7107151E-3,-1.6631536E-1,-2.5644824E-1,9.010782E-2,-2.4778618E-1,1.9124925E-1,-6.310703E-2,-2.7462995E-1,3.283864E-1,-3.778536E-2,-1.051784E-2,-2.0466645E-1,2.6687771E-2,1.9332589E-1,-2.631601E-1,2.6585568E-2],"categories":[],"categories_nodes":[],"categories_segments":[],"categories_sizes":[],"default_left":[0,0,0,0,0,0,0,0,0,0,0,0,0,0,0,0,0,0,0,0,0,0,0,0,0,0,0,0,0,0,0,0,0,0,0,0,0,0,0,0,0,0,0,0,0,0,0,0,0,0,0,0,0,0,0,0,0,0,0,0,0,0,0,0,0,0,0],"id":33,"left_children":[1,3,5,7,9,-1,11,13,15,17,19,21,23,-1,25,27,29,31,33,35,37,-1,-1,-1,39,41,-1,43,45,47,49,51,53,55,57,59,61,63,65,-1,-1,-1,-1,-1,-1,-1,-1,-1,-1,-1,-1,-1,-1,-1,-1,-1,-1,-1,-1,-1,-1,-1,-1,-1,-1,-1,-1],"loss_changes":[1.087306E0,8.921087E-1,2.004692E0,2.2864463E0,1.0585674E0,0E0,1.3339188E0,2.6330664E0,3.0235388E0,9.696666E0,1.8870451E0,1.0119534E0,8.9392406E-1,0E0,1.4140368E0,6.1171007E0,1.9275954E0,3.1311374E0,2.2896099E-1,5.8264127E0,3.9284225E0,0E0,0E0,0E0,1.6199179E0,9.059436E-1,0E0,4.116528E0,1.2766142E0,3.4481165E0,1.3179994E0,2.5555978E0,1.8621926E0,3.4852412E0,3.592081E-1,1.750782E0,4.9304733E0,7.682191E0,1.925551E1,0E0,0E0,0E0,0E0,0E0,0E0,0E0,0E0,0E0,0E0,0E0,0E0,0E0,0E0,0E0,0E0,0E0,0E0,0E0,0E0,0E0,0E0,0E0,0E0,0E0,0E0,0E0,0E0],"parents":[2147483647,0,0,1,1,2,2,3,3,4,4,6,6,7,7,8,8,9,9,10,10,11,11,12,12,14,14,15,15,16,16,17,17,18,18,19,19,20,20,24,24,25,25,27,27,28,28,29,29,30,30,31,31,32,32,33,33,34,34,35,35,36,36,37,37,38,38],"right_children":[2,4,6,8,10,-1,12,14,16,18,20,22,24,-1,26,28,30,32,34,36,38,-1,-1,-1,40,42,-1,44,46,48,50,52,54,56,58,60,62,64,66,-1,-1,-1,-1,-1,-1,-1,-1,-1,-1,-1,-1,-1,-1,-1,-1,-1,-1,-1,-1,-1,-1,-1,-1,-1,-1,-1,-1],"split_conditions":[4.3719532E1,-5.13E0,3.1793E3,9.174501E-2,2E0,-2.402378E-1,2.54E2,-2.4597E2,5.74715E-1,4.3E-1,5.5102113E-4,2.15E2,2.2313E2,1.4832327E-1,3.9E-1,3.017E1,-7.661E1,1.9630127E-1,9.78E0,-2.43E0,3.406688E-1,-3.1114548E-2,2.9640266E-1,-1.9808546E-1,1.27947105E2,1.2E1,-2.6695073E-1,1.319E1,1.4E1,1.01E2,8.112E1,2.1E1,4.5E1,4.51E0,5E0,4.609E1,8E0,1.713E1,2.599E1,1.9938877E-1,-1.6408104E-1,9.4607346E-2,-1.4123216E-1,1.9166794E-1,-2.3671241E-1,6.037155E-1,1.0326028E-1,4.000761E-1,-1.7997848E-2,-1.9509293E-1,-3.963605E-2,1.7107151E-3,-1.6631536E-1,-2.5644824E-1,9.010782E-2,-2.4778618E-1,1.9124925E-1,-6.310703E-2,-2.7462995E-1,3.283864E-1,-3.778536E-2,-1.051784E-2,-2.0466645E-1,2.6687771E-2,1.9332589E-1,-2.631601E-1,2.6585568E-2],"split_indices":[6,9,0,6,5,0,3,9,6,9,6,3,9,0,0,1,9,6,1,9,6,0,0,0,6,4,0,1,3,4,1,10,3,9,3,0,5,0,0,0,0,0,0,0,0,0,0,0,0,0,0,0,0,0,0,0,0,0,0,0,0,0,0,0,0,0,0],"split_type":[0,0,0,0,0,0,0,0,0,0,0,0,0,0,0,0,0,0,0,0,0,0,0,0,0,0,0,0,0,0,0,0,0,0,0,0,0,0,0,0,0,0,0,0,0,0,0,0,0,0,0,0,0,0,0,0,0,0,0,0,0,0,0,0,0,0,0],"sum_hessian":[1.6190853E3,1.6087972E3,1.0288065E1,5.454131E1,1.554256E3,3.8385649E0,6.4495E0,1.2830058E1,4.171125E1,9.831412E2,5.7111475E2,2.1788678E0,4.2706323E0,1.6403055E0,1.1189753E1,8.592175E0,3.3119076E1,9.656414E2,1.7499771E1,1.8598172E2,3.8513303E2,1.1772902E0,1.0015776E0,1.8061389E0,2.4644933E0,3.979748E0,7.2100043E0,6.0969014E0,2.4952736E0,1.15037775E1,2.1615297E1,9.5883453E2,6.8068714E0,6.1163893E0,1.1383382E1,5.8923516E0,1.8008937E2,1.642487E2,2.2088432E2,1.3716311E0,1.092862E0,1.7791504E0,2.2005978E0,2.9661708E0,3.1307306E0,1.3034058E0,1.1918678E0,1.123501E0,1.0380277E1,6.950706E0,1.4664591E1,9.5161755E2,7.2169724E0,5.5810146E0,1.225857E0,4.6759524E0,1.4404367E0,1.5309535E0,9.852428E0,4.6503654E0,1.2419862E0,1.6842015E2,1.1669217E1,1.3456848E2,2.9680222E1,2.2020323E1,1.98864E2],"tree_param":{"num_deleted":"0","num_feature":"11","num_nodes":"67","size_leaf_vector":"1"}},{"base_weights":[-5.4167905E-3,4.2358697E-3,-7.751796E-2,-1.0492391E-2,2.3091288E-1,-2.581115E-1,-4.8371404E-2,8.696228E-3,-1.3792843E-1,-4.8006712E-3,6.616145E-1,-1.9168474E-1,8.3604E-2,1.7889349E-2,-3.28411E-1,-3.0566025E-1,-2.7774699E-2,2.9683617E-1,-2.7587804E-1,7.35864E-1,-1.7395703E-1,-6.1744446E-1,-1.0695148E-1,1.2328542E0,-1.843097E-2,2.8764778E-3,3.5143098E-1,1.162176E-1,-6.1965233E-1,3.336541E-1,-7.873769E-2,-6.6777086E-1,5.199857E-1,-7.2434217E-1,1.0458734E-1,5.490177E-1,6.323807E-1,-2.5694653E-1,2.1950842E-1,-2.85747E-1,-1.2101185E-2,-3.729842E-2,1.4998554E0,-5.6109124E-1,5.3384602E-2,2.4314427E-3,-2.8018603E-1,5.013694E-2,2.3678538E-1,4.8072895E-1,-8.987622E-2,-2.6678735E-1,3.580737E-2,-9.9223815E-2,2.1686059E-1,-5.3443875E-2,2.1175196E-2,-2.3976864E-1,