{"learner":{"attributes":{"scikit_learn":"{\"_estimator_type\": \"classifier\"}"},"feature_names":[],"feature_types":[],"gradient_booster":{"model":{"gbtree_model_param":{"num_parallel_tree":"1","num_trees":"100"},"iteration_indptr":[0,1,2,3,4,5,6,7,8,9,10,11,12,13,14,15,16,17,18,19,20,21,22,23,24,25,26,27,28,29,30,31,32,33,34,35,36,37,38,39,40,41,42,43,44,45,46,47,48,49,50,51,52,53,54,55,56,57,58,59,60,61,62,63,64,65,66,67,68,69,70,71,72,73,74,75,76,77,78,79,80,81,82,83,84,85,86,87,88,89,90,91,92,93,94,95,96,97,98,99,100],"tree_info":[0,0,0,0,0,0,0,0,0,0,0,0,0,0,0,0,0,0,0,0,0,0,0,0,0,0,0,0,0,0,0,0,0,0,0,0,0,0,0,0,0,0,0,0,0,0,0,0,0,0,0,0,0,0,0,0,0,0,0,0,0,0,0,0,0,0,0,0,0,0,0,0,0,0,0,0,0,0,0,0,0,0,0,0,0,0,0,0,0,0,0,0,0,0,0,0,0,0,0,0],"trees":[{"base_weights":[9.174905E-8,1.5792192E0,-1.9959904E0,1.0512537E-1,1.6004511E0,-1.5421505E0,-6.000016E-1,-5.9251744E-1,4.597553E-1,5.9206486E-1,1.6067688E0,-1.7206963E0,6.351626E-1,-1.781478E-1,8.9715976E-1,8.521215E-1,-1.0150594E0,1.6221386E0,1.239466E0,-1.247661E0,-1.9147887E0,1.2834523E0,-4.3639752E-1,8.651141E-1,-4.116204E-1,7.5241876E-1,1.9116307E0,-1.0770398E0,9.107786E-1,-1.5363619E0,-4.3491265E-1,1.5933462E0,1.7002947E0,-8.0011046E-1,1.2453948E0,-7.747013E-1,-5.463089E-1,-5.837023E-1,-3.913422E-1,1.4919342E0,-3.0002072E-1,-2.1180125E-1,3.9455467E-1,-2.4080469E-1,-8.358537E-2,6.1036926E-2,3.092181E-1,5.8177805E-1,1.499793E-1,1.1997516E-1,-4.8003313E-1,2.0215671E-1,4.2113572E-1,-1.3849021E-1,-5.000387E-1,4.95618E-1,-4.080381E-1,4.611357E-1,4.818733E-1,1.0341258E-1,5.103399E-1,1.99977E-1,-4.400304E-1,3.9093763E-1,3.0505168E-1,-3.060006E-1,2.307342E-1,5.142473E-1,-5.457181E-2],"categories":[],"categories_nodes":[],"categories_segments":[],"categories_sizes":[],"default_left":[0,0,0,0,0,0,0,0,0,0,0,0,0,0,0,0,0,0,0,0,0,0,0,0,0,0,0,0,0,0,0,0,0,0,0,0,0,0,0,0,0,0,0,0,0,0,0,0,0,0,0,0,0,0,0,0,0,0,0,0,0,0,0,0,0,0,0,0,0],"id":0,"left_children":[1,3,5,7,9,11,-1,-1,13,15,17,19,21,23,25,27,29,31,33,35,37,39,-1,41,43,45,47,49,51,53,55,57,59,61,63,65,-1,-1,-1,67,-1,-1,-1,-1,-1,-1,-1,-1,-1,-1,-1,-1,-1,-1,-1,-1,-1,-1,-1,-1,-1,-1,-1,-1,-1,-1,-1,-1,-1],"loss_changes":[2.1678533E5,1.2015469E3,5.2265625E1,4.0387405E2,2.4017969E2,1.0634711E2,0E0,0E0,1.3060245E2,1.00022E2,2.1034375E2,2.0610046E1,3.0656689E1,4.6878555E1,3.9308517E1,2.4150253E1,9.463291E0,7.853125E1,1.9316406E1,1.9131142E1,7.7471924E-1,9.466255E0,0E0,2.585416E1,7.9292736E0,3.7145172E1,3.5665894E-1,5.6615047E0,2.2327393E1,1.6486626E0,3.555498E1,1.6679688E1,1.04375E1,5.8666673E0,1.861206E1,1.7163223E1,0E0,0E0,0E0,6.170288E0,0E0,0E0,0E0,0E0,0E0,0E0,0E0,0E0,0E0,0E0,0E0,0E0,0E0,0E0,0E0,0E0,0E0,0E0,0E0,0E0,0E0,0E0,0E0,0E0,0E0,0E0,0E0,0E0,0E0],"parents":[2147483647,0,0,1,1,2,2,3,3,4,4,5,5,8,8,9,9,10,10,11,11,12,12,13,13,14,14,15,15,16,16,17,17,18,18,19,19,20,20,21,21,23,23,24,24,25,25,26,26,27,27,28,28,29,29,30,30,31,31,32,32,33,33,34,34,35,35,39,39],"right_children":[2,4,6,8,10,12,-1,-1,14,16,18,20,22,24,26,28,30,32,34,36,38,40,-1,42,44,46,48,50,52,54,56,58,60,62,64,66,-1,-1,-1,68,-1,-1,-1,-1,-1,-1,-1,-1,-1,-1,-1,-1,-1,-1,-1,-1,-1,-1,-1,-1,-1,-1,-1,-1,-1,-1,-1,-1,-1],"split_conditions":[-3.5170028E-1,-2.9290002E-2,-1.3802736E-1,-1.3240997E-1,-1.8589686E-1,-5.6854916E-1,-6.000016E-1,-5.9251744E-1,-3.2733705E-2,2.4809721E-1,7.178529E-1,-1.3235489E-1,9.481128E-1,-1.0610091E-1,2.5776505E-1,-6.997714E-1,2.5776505E-1,8.828418E-1,-2.4721267E0,-3.4528553E-1,1.086434E0,-1.3235489E-1,-4.3639752E-1,-8.956734E-2,-5.3687975E-2,5.6698424E-1,6.952468E-1,4.4394824E-1,8.828418E-1,-1.2313038E0,7.178529E-1,-1.2313038E0,-2.9200304E-2,-2.8639655E0,1.7798381E0,1.086434E0,-5.463089E-1,-5.837023E-1,-3.913422E-1,5.240045E-1,-3.0002072E-1,-2.1180125E-1,3.9455467E-1,-2.4080469E-1,-8.358537E-2,6.1036926E-2,3.092181E-1,5.8177805E-1,1.499793E-1,1.1997516E-1,-4.8003313E-1,2.0215671E-1,4.2113572E-1,-1.3849021E-1,-5.000387E-1,4.95618E-1,-4.080381E-1,4.611357E-1,4.818733E-1,1.0341258E-1,5.103399E-1,1.99977E-1,-4.400304E-1,3.9093763E-1,3.0505168E-1,-3.060006E-1,2.307342E-1,5.142473E-1,-5.457181E-2],"split_indices":[15,3,12,1,17,8,0,0,3,11,11,1,0,17,11,6,11,0,0,14,0,1,0,3,3,0,11,9,0,0,11,0,3,0,11,0,0,0,0,11,0,0,0,0,0,0,0,0,0,0,0,0,0,0,0,0,0,0,0,0,0,0,0,0,0,0,0,0,0],"split_type":[0,0,0,0,0,0,0,0,0,0,0,0,0,0,0,0,0,0,0,0,0,0,0,0,0,0,0,0,0,0,0,0,0,0,0,0,0,0,0,0,0,0,0,0,0,0,0,0,0,0,0,0,0,0,0,0,0,0,0,0,0,0,0,0,0,0,0,0,0],"sum_hessian":[6.877275E4,3.8395E4,3.037775E4,5.4525E2,3.784975E4,2.6975E2,3.0108E4,7.875E1,4.665E2,2.3625E2,3.76135E4,2.495E2,2.025E1,1.9E2,2.765E2,2.0375E2,3.25E1,3.60995E4,1.514E3,7.475E1,1.7475E2,1.575E1,4.5E0,3.425E1,1.5575E2,2.435E2,3.3E1,5.5E0,1.9825E2,1.625E1,1.625E1,2.63965E4,9.703E3,4E0,1.51E3,4.225E1,3.25E1,1.6425E2,1.05E1,1.475E1,1E0,7.5E0,2.675E1,3.825E1,1.175E2,8.25E1,1.61E2,3.2E1,1E0,1.5E0,4E0,1.355E2,6.275E1,2.25E0,1.4E1,4.75E0,1.15E1,4.94775E3,2.144875E4,6.25E0,9.69675E3,1.25E0,2.75E0,1.20175E3,3.0825E2,3.675E1,5.5E0,1.3E1,1.75E0],"tree_param":{"num_deleted":"0","num_feature":"18","num_nodes":"69","size_leaf_vector":"1"}},{"base_weights":[-2.8041382E-3,1.1800343E0,-1.5454195E0,7.570036E-2,1.1964247E0,-1.1755197E0,-4.6462733E-1,-4.595405E-1,3.3186924E-1,1.2096531E0,8.8814163E-1,4.2705902E-1,-1.2608689E0,-1.2625422E-1,6.503249E-1,3.3235094E-1,1.2134327E0,-1.1535324E0,9.029806E-1,-7.9517263E-1,-1.4797653E0,5.8476895E-1,-3.2891622E-1,5.383407E-1,4.4608912E-1,4.6710727E-1,-6.5265983E-1,1.1716901E0,1.2563816E0,-3.959056E-1,-5.94678E-1,9.390111E-1,5.923132E-1,-9.191373E-1,9.0554726E-1,-4.512091E-1,-3.2147774E-1,6.82231E-2,4.590567E-1,2.2860646E-2,-1.4105015E-1,9.466896E-2,2.760397E-1,1.0156472E-1,4.8970294E-1,-3.5822576E-1,3.7613907E-1,3.5099313E-1,4.7912502E-1,3.6820075E-1,3.841899E-1,-2.0074185E-2,-2.947359E-1,2.4097998E-1,3.166343E-1,5.0820783E-2,3.2738024E-1,-1.6411349E-1,-4.1413677E-1,3.382619E-1,1.4090294E-3],"categories":[],"categories_nodes":[],"categories_segments":[],"categories_sizes":[],"default_left":[0,0,0,0,0,0,0,0,0,0,0,0,0,0,0,0,0,0,0,0,0,0,0,0,0,0,0,0,0,0,0,0,0,0,0,0,0,0,0,0,0,0,0,0,0,0,0,0,0,0,0,0,0,0,0,0,0,0,0,0,0],"id":1,"left_children":[1,3,5,7,9,11,-1,-1,13,15,17,-1,19,21,23,25,27,29,31,33,35,37,39,41,-1,43,45,47,49,-1,51,53,55,57,59,-1,-1,-1,-1,-1,-1,-1,-1,-1,-1,-1,-1,-1,-1,-1,-1,-1,-1,-1,-1,-1,-1,-1,-1,-1,-1],"loss_changes":[1.1690925E5,6.563203E2,3.2523438E1,2.1935002E2,1.4465234E2,5.788382E1,0E0,0E0,6.707734E1,1.13203125E2,4.569934E1,0E0,2.3833221E1,2.7448128E1,2.4595459E1,1.9995852E1,5.96875E1,2.4359226E-1,1.5830444E1,1.782697E1,2.9724121E-2,1.3948137E1,8.495379E0,2.0176453E1,0E0,1.9082773E1,2.0355156E1,1.075E1,1.0261719E1,0E0,8.262143E-1,1.985913E1,3.2490265E1,1.2226704E1,1.1906114E0,0E0,0E0,0E0,0E0,0E0,0E0,0E0,0E0,0E0,0E0,0E0,0E0,0E0,0E0,0E0,0E0,0E0,0E0,0E0,0E0,0E0,0E0,0E0,0E0,0E0,0E0],"parents":[2147483647,0,0,1,1,2,2,3,3,4,4,5,5,8,8,9,9,10,10,12,12,13,13,14,14,15,15,16,16,17,17,18,18,19,19,20,20,21,21,22,22,23,23,25,25,26,26,27,27,28,28,30,30,31,31,32,32,33,33,34,34],"right_children":[2,4,6,8,10,12,-1,-1,14,16,18,-1,20,22,24,26,28,30,32,34,36,38,40,42,-1,44,46,48,50,-1,52,54,56,58,60,-1,-1,-1,-1,-1,-1,-1,-1,-1,-1,-1,-1,-1,-1,-1,-1,-1,-1,-1,-1,-1,-1,-1,-1,-1,-1],"split_conditions":[-3.5170028E-1,-2.9290002E-2,-1.3802736E-1,-1.3240997E-1,7.178529E-1,1.1412537E0,-4.6462733E-1,-4.595405E-1,-3.2733705E-2,-3.264761E-1,-2.6569283E-1,4.2705902E-1,-1.3235489E-1,-9.280158E-2,2.5776505E-1,2.4809721E-1,3.4399772E-1,8.828418E-1,-2.054426E-1,-1.1234898E-1,1.086434E0,-5.3687975E-2,2.9943097E-1,9.481128E-1,4.4608912E-1,-3.2758534E-1,2.5776505E-1,2.5776505E-1,8.828418E-1,-3.959056E-1,-5.9817594E-1,2.0543829E-1,7.665133E-1,-3.4528553E-1,-3.4753004E-1,-4.512091E-1,-3.2147774E-1,6.82231E-2,4.590567E-1,2.2860646E-2,-1.4105015E-1,9.466896E-2,2.760397E-1,1.0156472E-1,4.8970294E-1,-3.5822576E-1,3.7613907E-1,3.5099313E-1,4.7912502E-1,3.6820075E-1,3.841899E-1,-2.0074185E-2,-2.947359E-1,2.4097998E-1,3.166343E-1,5.0820783E-2,3.2738024E-1,-1.6411349E-1,-4.1413677E-1,3.382619E-1,1.4090294E-3],"split_indices":[15,3,12,1,11,16,0,0,3,17,17,0,1,17,11,11,0,0,7,7,0,3,0,0,0,11,11,11,0,0,17,0,11,14,2,0,0,0,0,0,0,0,0,0,0,0,0,0,0,0,0,0,0,0,0,0,0,0,0,0,0],"split_type":[0,0,0,0,0,0,0,0,0,0,0,0,0,0,0,0,0,0,0,0,0,0,0,0,0,0,0,0,0,0,0,0,0,0,0,0,0,0,0,0,0,0,0,0,0,0,0,0,0,0,0,0,0,0,0,0,0,0,0,0,0],"sum_hessian":[6.4069637E4,3.6263746E4,2.7805889E4,5.304374E2,3.573331E4,2.5185023E2,2.7554037E4,7.2226234E1,4.5821115E2,3.426029E4,1.473023E3,7.5089555E0,2.443413E2,1.881484E2,2.7006274E2,1.4734653E2,3.411294E4,1.0075079E1,1.4629479E3,7.960864E1,1.6473265E2,4.131448E1,1.4683394E2,2.396315E2,3.0431244E1,1.3007689E2,1.7269638E1,1.7313781E4,1.679916E4,6.716719E0,3.3583596E0,1.3090991E3,1.5384882E2,7.462856E1,4.9800787E0,1.5295505E2,1.1777603E1,3.0881966E1,1.0432513E1,3.8079517E1,1.0875442E2,1.5248323E2,8.714827E1,1.18314064E2,1.176282E1,1.37409315E1,3.5287068E0,1.7248072E4,6.570796E1,7.6674673E3,9.131692E3,1.9190626E0,1.439297E0,6.080813E2,7.010178E2,8.399483E1,6.985398E1,4.251913E1,3.2109436E1,3.7936003E0,1.1864781E0],"tree_param":{"num_deleted":"0","num_feature":"18","num_nodes":"61","size_leaf_vector":"1"}},{"base_weights":[-8.709791E-3,9.457873E-1,-1.3412509E0,5.577691E-2,9.5987976E-1,-9.7081953E-1,-4.0342736E-1,-3.9819098E-1,2.465163E-1,9.727402E-1,6.74546E-1,-1.0897608E0,4.0059814E-1,-8.670037E-2,4.8487014E-1,3.3964518E-1,9.7717166E-1,-9.5902056E-1,6.8625593E-1,-7.263625E-1,-1.25991E0,-7.073086E-1,9.789951E-1,6.860852E-1,-2.0115155E-1,3.9228645E-1,1.2762122E0,4.1874793E-1,-4.736416E-1,9.409069E-1,1.0263673E0,-3.2910004E-1,-5.0569063E-1,7.384067E-1,4.844448E-1,-4.094863E-1,-1.1835945E0,-3.870223E-1,-7.6112694E-1,-5.046825E-2,-3.3301353E-1,1.3445208E-2,3.468071E-1,-1.746502E-1,3.8497376E-1,1.7088719E-3,-1.0545479E-1,1.5067883E-2,1.729764E-1,3.9143303E-1,9.728738E-2,1.0096705E-1,4.1795802E-1,-3.0358484E-1,3.427496E-1,2.8170532E-1,4.1287544E-1,3.080781E-1,-1.3245533E-1,-1.616698E-2,-2.5598362E-1,2.047887E-1,4.4567093E-1,6.944554E-2,2.0212771E-1,-1.8053265E-1,2.1403068E-1,-3.930188E-1,-2.3555744E-1,-6.855008E-2,-2.53456E-1,1.4237674E-1,-1.6509315E-1],"categories":[],"categories_nodes":[],"categories_segments":[],"categories_sizes":[],"default_left":[0,0,0,0,0,0,0,0,0,0,0,0,0,0,0,0,0,0,0,0,0,0,0,0,0,0,0,0,0,0,0,0,0,0,0,0,0,0,0,0,0,0,0,0,0,0,0,0,0,0,0,0,0,0,0,0,0,0,0,0,0,0,0,0,0,0,0,0,0,0,0,0,0],"id":2,"left_children":[1,3,5,7,9,11,-1,-1,13,15,17,19,21,23,25,27,29,31,33,35,37,39,41,43,45,47,49,51,53,55,57,-1,59,61,63,65,67,-1,69,71,-1,-1,-1,-1,-1,-1,-1,-1,-1,-1,-1,-1,-1,-1,-1,-1,-1,-1,-1,-1,-1,-1,-1,-1,-1,-1,-1,-1,-1,-1,-1,-1,-1],"loss_changes":[7.065966E4,4.0592578E2,2.8816406E1,1.3370796E2,1.1626953E2,3.6492233E1,0E0,0E0,3.539862E1,8.519922E1,2.7007874E1,1.167804E1,1.2465278E1,1.6632277E1,1.8524632E1,1.3930603E1,5.304883E1,8.458614E-2,1.4042664E1,9.267841E0,1.084671E0,1.7645037E0,2.0136986E0,1.9138052E1,5.078122E0,1.4717941E1,3.0437088E-1,1.5154018E1,1.8025291E1,1.3050781E1,1.0998047E1,0E0,6.199064E-1,4.4219177E1,1.3438599E1,9.344253E0,3.3298874E-1,0E0,2.6502848E-1,1.2226237E0,0E0,0E0,0E0,0E0,0E0,0E0,0E0,0E0,0E0,0E0,0E0,0E0,0E0,0E0,0E0,0E0,0E0,0E0,0E0,0E0,0E0,0E0,0E0,0E0,0E0,0E0,0E0,0E0,0E0,0E0,0E0,0E0,0E0],"parents":[2147483647,0,0,1,1,2,2,3,3,4,4,5,5,8,8,9,9,10,10,11,11,12,12,13,13,14,14,15,15,16,16,17,17,18,18,19,19,20,20,21,21,22,22,23,23,24,24,25,25,26,26,27,27,28,28,29,29,30,30,32,32,33,33,34,34,35,35,36,36,38,38,39,39],"right_children":[2,4,6,8,10,12,-1,-1,14,16,18,20,22,24,26,28,30,32,34,36,38,40,42,44,46,48,50,52,54,56,58,-1,60,62,64,66,68,-1,70,72,-1,-1,-1,-1,-1,-1,-1,-1,-1,-1,-1,-1,-1,-1,-1,-1,-1,-1,-1,-1,-1,-1,-1,-1,-1,-1,-1,-1,-1,-1,-1,-1,-1],"split_conditions":[-3.5170028E-1,-2.9290002E-2,-1.3802736E-1,-1.3240997E-1,7.178529E-1,-5.6854916E-1,-4.0342736E-1,-3.9819098E-1,-3.2733705E-2,-1.7259754E-1,-2.6569283E-1,-1.3235489E-1,4.909061E-2,-1.3269956E-1,2.5776505E-1,2.4809721E-1,5.6698424E-1,8.828418E-1,1.7798381E0,-3.4528553E-1,1.086434E0,-1.3235489E-1,-1.8602584E-1,-8.956734E-2,2.4809721E-1,5.6698424E-1,6.8139154E-1,-3.2758534E-1,2.5776505E-1,2.5776505E-1,3.152234E0,-3.2910004E-1,-5.9817594E-1,7.665133E-1,2.0543829E-1,1.086434E0,-3.3649734E-1,-3.870223E-1,-2.884151E-2,8.122197E-1,-3.3301353E-1,1.3445208E-2,3.468071E-1,-1.746502E-1,3.8497376E-1,1.7088719E-3,-1.0545479E-1,1.5067883E-2,1.729764E-1,3.9143303E-1,9.728738E-2,1.0096705E-1,4.1795802E-1,-3.0358484E-1,3.427496E-1,2.8170532E-1,4.1287544E-1,3.080781E-1,-1.3245533E-1,-1.616698E-2,-2.5598362E-1,2.047887E-1,4.4567093E-1,6.944554E-2,2.0212771E-1,-1.8053265E-1,2.1403068E-1,-3.930188E-1,-2.3555744E-1,-6.855008E-2,-2.53456E-1,1.4237674E-1,-1.6509315E-1],"split_indices":[15,3,12,1,11,8,0,0,3,17,17,1,5,17,11,11,0,0,11,14,0,1,7,3,11,0,11,11,11,11,17,0,17,11,0,0,13,0,3,0,0,0,0,0,0,0,0,0,0,0,0,0,0,0,0,0,0,0,0,0,0,0,0,0,0,0,0,0,0,0,0,0,0],"split_type":[0,0,0,0,0,0,0,0,0,0,0,0,0,0,0,0,0,0,0,0,0,0,0,0,0,0,0,0,0,0,0,0,0,0,0,0,0,0,0,0,0,0,0,0,0,0,0,0,0,0,0,0,0,0,0,0,0,0,0,0,0,0,0,0,0,0,0,0,0,0,0,0,0],"sum_hessian":[5.5552125E4,3.2367574E4,2.3184553E4,5.045981E2,3.1862975E4,2.2004019E2,2.2964512E4,6.0432705E1,4.441654E2,3.0486496E4,1.3764792E3,2.026684E2,1.7371792E1,1.8548924E2,2.5867615E2,2.124553E2,3.0274041E4,9.221039E0,1.3672583E3,6.631159E1,1.3635681E2,5.8820243E0,1.1489767E1,2.328333E1,1.6220592E2,2.329211E2,2.5755062E1,1.9406506E2,1.8390245E1,1.7438945E4,1.2835095E4,5.9807987E0,3.24024E0,1.0843806E3,2.8287762E2,4.0287E1,2.6024593E1,1.2708484E2,9.271972E0,2.6634316E0,3.2185926E0,2.0301027E0,9.459664E0,7.4615536E0,1.5821777E1,6.868372E1,9.352219E1,8.20011E1,1.5092E2,2.4644863E1,1.1101999E0,1.8021033E2,1.3854734E1,1.4075719E1,4.3145256E0,1.7366738E4,7.220754E1,1.2830503E4,4.5918508E0,1.9111439E0,1.3290963E0,1.0108329E3,7.354776E1,1.2203649E2,1.6084114E2,3.479312E1,5.4938765E0,1.8017025E1,8.007566E0,1.7660898E0,7.505882E0,1.3235921E0,1.3398397E0],"tree_param":{"num_deleted":"0","num_feature":"18","num_nodes":"73","size_leaf_vector":"1"}},{"base_weights":[-1.5187495E-2,7.7416384E-1,-1.2262679E0,5.440477E-2,7.870116E-1,-8.3406925E-1,-3.6906853E-1,-3.628775E-1,1.9299816E-1,7.999376E-1,5.172318E-1,-3.6077648E-1,-1.1311264E0,1.2647595E-1,9.5287395E-1,2.535089E-1,8.041361E-1,-8.2131726E-1,5.2658516E-1,-5.8217025E-1,6.552738E-1,-3.4923068E-1,-7.0591766E-1,-4.28348E-1,1.9526365E-1,4.05997E-1,-1.263913E0,8.801815E-2,6.4289045E-1,7.772555E-1,8.802721E-1,-2.8353268E-1,-4.3563557E-1,5.565913E-1,1.2769544E-1,-3.0209407E-1,-1.0416896E0,8.358842E-1,-2.3087509E-1,-4.6276003E-1,-3.091102E-1,1.6175795E-1,-2.4434257E-1,-8.048214E-3,1.05361946E-1,-6.4008996E-2,-4.4554362E-1,-1.4961335E-1,5.2368693E-2,2.5405902E-1,-1.942077E-1,2.3218532E-1,3.242749E-1,2.6423046E-1,-3.6614487E-1,-1.3018017E-2,-2.2655286E-1,1.3234326E-1,1.9668992E-1,-1.4109476E-1,2.4267013E-1,-3.8996556E-1,-2.693875E-2,-3.5344553E-1,-1.9510852E-1,3.1297308E-1,-1.0617707E-1,3.2280184E-2,-1.7490357E-1],"categories":[],"categories_nodes":[],"categories_segments":[],"categories_sizes":[],"default_left":[0,0,0,0,0,0,0,0,0,0,0,0,0,0,0,0,0,0,0,0,0,0,0,0,0,0,0,0,0,0,0,0,0,0,0,0,0,0,0,0,0,0,0,0,0,0,0,0,0,0,0,0,0,0,0,0,0,0,0,0,0,0,0,0,0,0,0,0,0],"id":3,"left_children":[1,3,5,7,9,11,-1,-1,13,15,17,19,21,23,25,27,29,31,33,35,37,-1,39,41,43,-1,45,47,49,51,53,-1,55,57,59,61,63,65,-1,67,-1,-1,-1,-1,-1,-1,-1,-1,-1,-1,-1,-1,-1,-1,-1,-1,-1,-1,-1,-1,-1,-1,-1,-1,-1,-1,-1,-1,-1],"loss_changes":[4.486123E4,2.6267773E2,2.7738281E1,8.7703E1,9.691992E1,2.6055008E1,0E0,0E0,2.2668451E1,6.090039E1,1.6445953E1,1.7038654E1,7.931366E-1,1.5948678E1,3.379008E1,1.3124055E1,5.3408203E1,3.0682564E-2,1.5138916E1,7.578577E0,4.173729E0,0E0,3.7757206E-1,1.7686691E1,1.2842125E1,0E0,1.0883732E0,7.4345083E0,1.6561628E1,1.877246E1,8.253906E0,0E0,4.8193598E-1,1.3220947E1,3.7126034E1,8.25346E0,4.522152E-1,3.491393E0,0E0,6.1181617E-1,0E0,0E0,0E0,0E0,0E0,0E0,0E0,0E0,0E0,0E0,0E0,0E0,0E0,0E0,0E0,0E0,0E0,0E0,0E0,0E0,0E0,0E0,0E0,0E0,0E0,0E0,0E0,0E0,0E0],"parents":[2147483647,0,0,1,1,2,2,3,3,4,4,5,5,8,8,9,9,10,10,11,11,12,12,13,13,14,14,15,15,16,16,17,17,18,18,19,19,20,20,22,22,23,23,24,24,26,26,27,27,28,28,29,29,30,30,32,32,33,33,34,34,35,35,36,36,37,37,39,39],"right_children":[2,4,6,8,10,12,-1,-1,14,16,18,20,22,24,26,28,30,32,34,36,38,-1,40,42,44,-1,46,48,50,52,54,-1,56,58,60,62,64,66,-1,68,-1,-1,-1,-1,-1,-1,-1,-1,-1,-1,-1,-1,-1,-1,-1,-1,-1,-1,-1,-1,-1,-1,-1,-1,-1,-1,-1,-1,-1],"split_conditions":[-3.5170028E-1,-2.9200304E-2,-1.3802736E-1,-1.3240997E-1,7.178529E-1,-1.3235489E-1,-3.6906853E-1,-3.628775E-1,2.5776505E-1,-1.7259754E-1,-2.6569283E-1,-5.6854916E-1,1.086434E0,-4.790646E-1,7.178529E-1,8.828418E-1,8.828418E-1,8.828418E-1,-1.8602584E-1,-3.4528553E-1,1.086434E0,-3.4923068E-1,-3.421328E-1,2.4809721E-1,-3.2733705E-2,4.05997E-1,6.981514E-1,8.695027E-2,1.0544223E0,-3.2758534E-1,4.571084E0,-2.8353268E-1,-5.9817594E-1,2.0543829E-1,7.665133E-1,-8.394651E-1,-3.3649734E-1,5.240045E-1,-2.3087509E-1,-2.884151E-2,-3.091102E-1,1.6175795E-1,-2.4434257E-1,-8.048214E-3,1.05361946E-1,-6.4008996E-2,-4.4554362E-1,-1.4961335E-1,5.2368693E-2,2.5405902E-1,-1.942077E-1,2.3218532E-1,3.242749E-1,2.6423046E-1,-3.6614487E-1,-1.3018017E-2,-2.2655286E-1,1.3234326E-1,1.9668992E-1,-1.4109476E-1,2.4267013E-1,-3.8996556E-1,-2.693875E-2,-3.5344553E-1,-1.9510852E-1,3.1297308E-1,-1.0617707E-1,3.2280184E-2,-1.7490357E-1],"split_indices":[15,3,12,1,11,1,0,0,11,17,17,8,0,0,11,0,0,0,7,14,0,0,2,11,3,0,0,9,0,11,7,0,17,0,11,0,13,11,0,3,0,0,0,0,0,0,0,0,0,0,0,0,0,0,0,0,0,0,0,0,0,0,0,0,0,0,0,0,0],"split_type":[0,0,0,0,0,0,0,0,0,0,0,0,0,0,0,0,0,0,0,0,0,0,0,0,0,0,0,0,0,0,0,0,0,0,0,0,0,0,0,0,0,0,0,0,0,0,0,0,0,0,0,0,0,0,0,0,0,0,0,0,0,0,0,0,0,0,0,0,0],"sum_hessian":[4.692555E4,2.8409395E4,1.8516158E4,4.9830804E2,2.7911086E4,1.8722214E2,1.8328936E4,4.847547E1,4.4983255E2,2.663305E4,1.278036E3,7.304928E1,1.1417286E2,4.1469513E2,3.5137436E1,2.0354434E2,2.6429506E4,8.266178E0,1.2697699E3,6.0330505E1,1.2718778E1,1.0434312E2,9.829743E0,4.516652E1,3.695286E2,3.0091158E1,5.046277E0,1.4369759E2,5.984675E1,1.9541408E4,6.888097E3,5.1596155E0,3.1065633E0,1.1805675E3,8.92024E1,3.851382E1,2.1816683E1,1.1654806E1,1.0639706E0,7.005665E0,2.8240786E0,1.2770451E1,3.239607E1,1.5277586E2,2.1675275E2,1.2195449E0,3.8267322E0,1.7859043E1,1.2583855E2,5.1973934E1,7.8728127E0,1.9334559E4,2.0684937E2,6.887052E3,1.0453777E0,1.9045236E0,1.2020397E0,5.4765393E2,6.329135E2,4.7666695E1,4.153571E1,5.8581047E0,3.2655716E1,1.4685108E1,7.1315756E0,1.002997E1,1.6248366E0,1.2381696E0,5.7674956E0],"tree_param":{"num_deleted":"0","num_feature":"18","num_nodes":"69","size_leaf_vector":"1"}},{"base_weights":[-2.1695973E-2,6.33341E-1,-1.1543891E0,6.5621686E-1,3.1837183E-1,-7.278933E-1,-3.4772262E-1,6.526832E-1,1.2814407E0,-1.2853344E-1,4.5384872E-1,-2.9880428E-1,-1.0332779E0,2.1441604E-1,6.585206E-1,4.8667327E-1,3.695E-1,-3.3983052E-1,-2.0566773E-2,3.647378E-1,3.8825476E-1,3.047354E-1,-4.131393E-1,-3.220413E-1,-5.919286E-1,-6.47864E-1,2.943295E-1,6.1920214E-1,7.1401846E-1,-1.2535378E0,4.1011784E-2,-4.5074525E-1,4.020872E-1,-2.5997087E-1,-3.6128202E-1,-3.676951E-1,-2.740918E-1,-2.1084659E-2,-3.9603433E-1,-3.1518787E-1,9.699743E-2,1.5270571E-1,1.8941118E-1,2.1443199E-1,-4.8656234E-1,-1.1264152E-1,-3.8813108E-1,-2.115783E-1,4.2509984E-2,1.8881343E-1,-1.8264726E-1,1.23989396E-1,-1.4904775E-1,-3.1426477E-1,-4.282908E-2,2.669418E-2,-1.4183547E-1],"categories":[],"categories_nodes":[],"categories_segments":[],"categories_sizes":[],"default_left":[0,0,0,0,0,0,0,0,0,0,0,0,0,0,0,0,0,0,0,0,0,0,0,0,0,0,0,0,0,0,0,0,0,0,0,0,0,0,0,0,0,0,0,0,0,0,0,0,0,0,0,0,0,0,0,0,0],"id":4,"left_children":[1,3,5,7,9,11,-1,13,15,17,19,21,23,25,27,-1,-1,-1,29,-1,31,-1,33,-1,35,37,39,41,43,45,47,49,51,53,-1,55,-1,-1,-1,-1,-1,-1,-1,-1,-1,-1,-1,-1,-1,-1,-1,-1,-1,-1,-1,-1,-1],"loss_changes":[2.9228176E4,1.7962793E2,2.800586E1,5.057129E1,1.0249913E2,2.060025E1,0E0,5.9057617E1,2.0257568E-1,4.2736294E1,6.443036E1,1.0603036E1,1.0110092E0,2.1251192E1,4.9384766E1,0E0,0E0,0E0,2.7164757E1,0E0,1.4074478E1,0E0,7.3261223E0,0E0,3.8371897E-1,1.0093771E1,1.1274477E1,1.7608887E1,1.7843262E1,1.1543274E-1,2.572976E1,3.7790027E0,1.2079117E1,4.8436317E0,0E0,4.045118E-1,0E0,0E0,0E0,0E0,0E0,0E0,0E0,0E0,0E0,0E0,0E0,0E0,0E0,0E0,0E0,0E0,0E0,0E0,0E0,0E0,0E0],"parents":[2147483647,0,0,1,1,2,2,3,3,4,4,5,5,7,7,8,8,9,9,10,10,11,11,12,12,13,13,14,14,18,18,20,20,22,22,24,24,25,25,26,26,27,27,28,28,29,29,30,30,31,31,32,32,33,33,35,35],"right_children":[2,4,6,8,10,12,-1,14,16,18,20,22,24,26,28,-1,-1,-1,30,-1,32,-1,34,-1,36,38,40,42,44,46,48,50,52,54,-1,56,-1,-1,-1,-1,-1,-1,-1,-1,-1,-1,-1,-1,-1,-1,-1,-1,-1,-1,-1,-1,-1],"split_conditions":[-3.5170028E-1,2.4809721E-1,-1.3802736E-1,-3.2758534E-1,2.5776505E-1,-1.3235489E-1,-3.4772262E-1,-5.2903604E-2,-2.9290002E-2,-1.3240997E-1,7.178529E-1,1.1412537E0,1.086434E0,-9.0477157E-1,5.6698424E-1,4.8667327E-1,3.695E-1,-3.3983052E-1,-5.3687975E-2,3.647378E-1,-5.2903604E-2,3.047354E-1,-6.768385E-2,-3.220413E-1,-3.421328E-1,-1.4272232E0,-6.997714E-1,-1.6884491E0,3.152234E0,-1.100691E0,-4.790646E-1,-1.4384993E0,4.9657936E0,-8.394651E-1,-3.6128202E-1,-2.884151E-2,-2.740918E-1,-2.1084659E-2,-3.9603433E-1,-3.1518787E-1,9.699743E-2,1.5270571E-1,1.8941118E-1,2.1443199E-1,-4.8656234E-1,-1.1264152E-1,-3.8813108E-1,-2.115783E-1,4.2509984E-2,1.8881343E-1,-1.8264726E-1,1.23989396E-1,-1.4904775E-1,-3.1426477E-1,-4.282908E-2,2.669418E-2,-1.4183547E-1],"split_indices":[15,11,12,11,11,1,0,17,3,1,11,16,0,0,0,0,0,0,3,0,17,0,4,0,2,0,6,0,17,0,0,0,11,0,0,3,0,0,0,0,0,0,0,0,0,0,0,0,0,0,0,0,0,0,0,0,0],"split_type":[0,0,0,0,0,0,0,0,0,0,0,0,0,0,0,0,0,0,0,0,0,0,0,0,0,0,0,0,0,0,0,0,0,0,0,0,0,0,0,0,0,0,0,0,0,0,0,0,0,0,0,0,0,0,0,0,0],"sum_hessian":[3.9391426E4,2.4958408E4,1.443302E4,2.326744E4,1.690969E3,1.5856541E2,1.4274454E4,2.3138707E4,1.2873119E2,3.9337427E2,1.2975947E3,6.675206E1,9.1813354E1,3.046332E2,2.2834074E4,1.237909E1,1.163521E2,3.726528E1,3.5610898E2,1.0146268E2,1.196132E3,4.710292E0,6.2041767E1,8.283724E1,8.976112E0,2.5235092E1,2.793981E2,1.3372354E4,9.461722E3,1.6018482E1,3.4009048E2,1.8888298E1,1.1772438E3,5.3091526E1,8.950241E0,6.552167E0,2.423946E0,1.4167368E1,1.1067724E1,5.1527276E0,2.742454E2,1.3341981E3,1.2038155E4,9.459358E3,2.3626626E0,1.15449E0,1.4863992E1,3.971673E1,3.0037378E2,2.0308015E0,1.6857496E1,1.1632761E3,1.3967545E1,5.8493094E0,4.7242214E1,1.2543936E0,5.2977734E0],"tree_param":{"num_deleted":"0","num_feature":"18","num_nodes":"57","size_leaf_vector":"1"}},{"base_weights":[-2.7631914E-2,5.1214594E-1,-1.106306E0,5.330595E-1,2.4111287E-1,-6.2543964E-1,-3.3366784E-1,5.052858E-1,6.1431205E-1,-1.003687E-1,3.4851852E-1,-2.3405716E-1,-9.521814E-1,5.017444E-1,3.5241553E-1,1.1092273E-1,6.210809E-1,-3.236144E-1,-1.7248854E-2,3.442446E-1,2.916647E-1,-3.8725623E-1,5.0428784E-1,-3.003283E-1,-4.9844363E-1,-1.527993E-2,5.072001E-1,1.0793679E0,-1.4782608E-1,-3.9228007E-1,6.2183845E-1,-1.028765E0,2.8614827E-2,3.296833E-1,-4.963122E-3,-1.4989516E-1,-8.760337E-1,6.749936E-1,-1.24896355E-1,-2.9098776E-1,-2.4657603E-1,-3.5902163E-1,1.8194515E-2,1.5358555E-1,6.075367E-2,4.5595026E-1,-1.19684026E-1,-1.6090271E-4,-4.4438013E-1,1.8599041E-1,3.2923365E-1,-9.656128E-2,-3.1850597E-1,3.6922097E-2,-1.7183943E-1,-3.729425E-1,1.0102713E-1,-2.3724405E-2,3.4545597E-1,-3.010792E-1,1.7436302E-3,-3.1911305E-1,-1.2124227E-1,2.63339E-1,-7.073829E-2,2.2085818E-2,-1.14518754E-1],"categories":[],"categories_nodes":[],"categories_segments":[],"categories_sizes":[],"default_left":[0,0,0,0,0,0,0,0,0,0,0,0,0,0,0,0,0,0,0,0,0,0,0,0,0,0,0,0,0,0,0,0,0,0,0,0,0,0,0,0,0,0,0,0,0,0,0,0,0,0,0,0,0,0,0,0,0,0,0,0,0,0,0,0,0,0,0],"id":5,"left_children":[1,3,5,7,9,11,-1,13,15,17,19,21,23,25,-1,27,29,-1,31,-1,33,35,37,-1,39,41,43,45,47,-1,49,51,53,55,57,59,61,63,-1,65,-1,-1,-1,-1,-1,-1,-1,-1,-1,-1,-1,-1,-1,-1,-1,-1,-1,-1,-1,-1,-1,-1,-1,-1,-1,-1,-1],"loss_changes":[1.9351814E4,1.25433105E2,3.0860352E1,4.609619E1,5.8302414E1,1.730917E1,0E0,3.5757324E1,1.7764648E1,3.0955917E1,5.4572403E1,7.4010735E0,1.1520538E0,4.3030518E1,0E0,1.7866154E1,8.358643E0,0E0,1.636338E1,0E0,1.2742882E1,6.055035E0,2.0695693E0,0E0,3.802812E-1,1.4446673E1,2.1747559E1,1.0385992E1,1.11238575E1,0E0,3.9124756E0,1.4305115E-2,1.9259794E1,1.1560753E1,1.1177665E1,4.937325E0,1.0955095E0,2.0508003E0,0E0,2.653885E-1,0E0,0E0,0E0,0E0,0E0,0E0,0E0,0E0,0E0,0E0,0E0,0E0,0E0,0E0,0E0,0E0,0E0,0E0,0E0,0E0,0E0,0E0,0E0,0E0,0E0,0E0,0E0],"parents":[2147483647,0,0,1,1,2,2,3,3,4,4,5,5,7,7,8,8,9,9,10,10,11,11,12,12,13,13,15,15,16,16,18,18,20,20,21,21,22,22,24,24,25,25,26,26,27,27,28,28,30,30,31,31,32,32,33,33,34,34,35,35,36,36,37,37,39,39],"right_children":[2,4,6,8,10,12,-1,14,16,18,20,22,24,26,-1,28,30,-1,32,-1,34,36,38,-1,40,42,44,46,48,-1,50,52,54,56,58,60,62,64,-1,66,-1,-1,-1,-1,-1,-1,-1,-1,-1,-1,-1,-1,-1,-1,-1,-1,-1,-1,-1,-1,-1,-1,-1,-1,-1,-1,-1],"split_conditions":[-3.5170028E-1,2.4809721E-1,-1.3802736E-1,8.828418E-1,2.5776505E-1,-1.3235489E-1,-3.3366784E-1,-3.2758534E-1,-2.9290002E-2,-1.3240997E-1,7.178529E-1,-5.6854916E-1,1.086434E0,-6.620293E-2,3.5241553E-1,3.2564232E-1,-6.997714E-1,-3.236144E-1,-5.3687975E-2,3.442446E-1,-2.054426E-1,-3.4528553E-1,9.481128E-1,-3.003283E-1,-3.421328E-1,-4.2834464E-2,1.3593027E-2,-4.2834464E-2,1.1850352E0,-3.9228007E-1,-3.2758534E-1,-1.100691E0,-2.9200304E-2,-2.4721267E0,2.1121926E0,-3.4753004E-1,-3.3649734E-1,5.240045E-1,-1.24896355E-1,-2.884151E-2,-2.4657603E-1,-3.5902163E-1,1.8194515E-2,1.5358555E-1,6.075367E-2,4.5595026E-1,-1.19684026E-1,-1.6090271E-4,-4.4438013E-1,1.8599041E-1,3.2923365E-1,-9.656128E-2,-3.1850597E-1,3.6922097E-2,-1.7183943E-1,-3.729425E-1,1.0102713E-1,-2.3724405E-2,3.4545597E-1,-3.010792E-1,1.7436302E-3,-3.1911305E-1,-1.2124227E-1,2.63339E-1,-7.073829E-2,2.2085818E-2,-1.14518754E-1],"split_indices":[15,11,12,0,11,1,0,11,3,1,11,8,0,17,0,8,6,0,3,0,7,14,0,0,2,3,17,3,0,0,11,0,3,0,10,2,13,11,0,3,0,0,0,0,0,0,0,0,0,0,0,0,0,0,0,0,0,0,0,0,0,0,0,0,0,0,0],"split_type":[0,0,0,0,0,0,0,0,0,0,0,0,0,0,0,0,0,0,0,0,0,0,0,0,0,0,0,0,0,0,0,0,0,0,0,0,0,0,0,0,0,0,0,0,0,0,0,0,0,0,0,0,0,0,0,0,0,0,0,0,0,0,0,0,0,0,0],"sum_hessian":[3.323461E4,2.215072E4,1.1083888E4,2.056306E4,1.5876616E3,1.3609639E2,1.0947791E4,1.5330143E4,5.232918E3,3.7989694E2,1.2077646E3,6.270387E1,7.339252E1,1.5251209E4,7.8932846E1,6.9661316E1,5.163257E3,2.881052E1,3.5108643E2,7.896011E1,1.1288046E3,5.2322903E1,1.0380962E1,6.516175E1,8.230765E0,1.5923528E2,1.5091974E4,1.4019107E1,5.564221E1,1.3499564E0,5.1619067E3,1.4298754E1,3.3678766E2,1.0004642E3,1.2834038E2,3.6099075E1,1.622383E1,8.982215E0,1.3987484E0,6.172016E0,2.0587494E0,8.724167E0,1.5051111E2,1.4859555E4,2.3241905E2,1.0779308E1,3.2397988E0,5.1008312E1,4.6338935E0,5.1439805E3,1.7926096E1,1.1158587E0,1.3182896E1,2.9175894E2,4.5028744E1,3.6970682E0,9.967671E2,1.21486046E2,6.8543406E0,4.728506E0,3.137057E1,1.0710159E1,5.513669E0,7.376033E0,1.6061817E0,1.2675552E0,4.904461E0],"tree_param":{"num_deleted":"0","num_feature":"18","num_nodes":"67","size_leaf_vector":"1"}},{"base_weights":[-3.2463863E-2,4.0702748E-1,-1.0728191E0,4.2558777E-1,1.8027698E-1,-5.419721E-1,-3.240659E-1,4.2245567E-1,3.3996066E-1,-3.1113344E-1,1.9903545E-1,-1.9362573E-1,-8.77851E-1,3.9660728E-1,5.0026494E-1,-1.3779976E-2,2.6432118E-1,-7.239492E-2,-3.1398842E-1,-2.809675E-1,-4.2025086E-1,-1.2951741E-2,4.0136045E-1,-1.5856039E-2,5.075638E-1,-4.9847123E-1,5.3405542E-2,3.2975447E-1,2.1635117E-1,-2.0581885E-1,5.562435E-1,-2.2899127E-1,-2.2365071E-1,-2.6746753E-1,1.2864012E-2,8.8320315E-2,1.24101505E-1,-1.6619092E-1,8.737767E-2,-3.3340546E-1,1.5248258E-1,-2.9487675E-1,-9.243775E-2,-2.609065E-1,2.6690247E-2,8.167577E-2,3.811957E-3,-1.4302734E-1,4.1884102E-2,-6.5000184E-2,2.4066386E-1,1.8280085E-2,-9.1875784E-2],"categories":[],"categories_nodes":[],"categories_segments":[],"categories_sizes":[],"default_left":[0,0,0,0,0,0,0,0,0,0,0,0,0,0,0,0,0,0,0,0,0,0,0,0,0,0,0,0,0,0,0,0,0,0,0,0,0,0,0,0,0,0,0,0,0,0,0,0,0,0,0,0,0],"id":6,"left_children":[1,3,5,7,9,11,-1,13,-1,-1,15,17,19,21,23,25,27,29,-1,-1,31,33,35,37,39,41,43,-1,45,47,49,51,-1,-1,-1,-1,-1,-1,-1,-1,-1,-1,-1,-1,-1,-1,-1,-1,-1,-1,-1,-1,-1],"loss_changes":[1.2978332E4,8.390552E1,3.253125E1,4.0400146E1,3.4724514E1,1.362603E1,0E0,3.6738037E1,0E0,0E0,2.0697685E1,6.0424805E0,1.2114983E0,2.6850342E1,1.7244995E1,1.1443811E1,4.541073E1,4.549556E0,0E0,0E0,3.6474383E-1,7.846434E0,1.7829102E1,1.0866427E1,5.761841E0,3.641963E0,1.0215199E1,0E0,1.2281578E1,4.2172327E0,1.9851866E0,1.7240626E-1,0E0,0E0,0E0,0E0,0E0,0E0,0E0,0E0,0E0,0E0,0E0,0E0,0E0,0E0,0E0,0E0,0E0,0E0,0E0,0E0,0E0],"parents":[2147483647,0,0,1,1,2,2,3,3,4,4,5,5,7,7,10,10,11,11,12,12,13,13,14,14,15,15,16,16,17,17,20,20,21,21,22,22,23,23,24,24,25,25,26,26,28,28,29,29,30,30,31,31],"right_children":[2,4,6,8,10,12,-1,14,-1,-1,16,18,20,22,24,26,28,30,-1,-1,32,34,36,38,40,42,44,-1,46,48,50,52,-1,-1,-1,-1,-1,-1,-1,-1,-1,-1,-1,-1,-1,-1,-1,-1,-1,-1,-1,-1,-1],"split_conditions":[-3.5170028E-1,2.4809721E-1,-1.3802736E-1,-3.2758534E-1,-1.3240997E-1,-1.3235489E-1,-3.240659E-1,8.828418E-1,3.3996066E-1,-3.1113344E-1,2.5776505E-1,-6.768385E-2,1.086434E0,-6.620293E-2,-2.9290002E-2,-4.790646E-1,7.178529E-1,-5.6854916E-1,-3.1398842E-1,-2.809675E-1,-3.421328E-1,-4.2834464E-2,-1.5578362E0,1.086434E0,-6.997714E-1,-1.4384993E0,-5.3687975E-2,3.2975447E-1,1.7798381E0,7.56699E-1,4.909061E-2,-2.884151E-2,-2.2365071E-1,-2.6746753E-1,1.2864012E-2,8.8320315E-2,1.24101505E-1,-1.6619092E-1,8.737767E-2,-3.3340546E-1,1.5248258E-1,-2.9487675E-1,-9.243775E-2,-2.609065E-1,2.6690247E-2,8.167577E-2,3.811957E-3,-1.4302734E-1,4.1884102E-2,-6.5000184E-2,2.4066386E-1,1.8280085E-2,-9.1875784E-2],"split_indices":[15,11,12,11,1,1,0,0,0,0,11,4,0,17,3,0,11,8,0,0,2,3,0,0,6,0,3,0,11,0,5,3,0,0,0,0,0,0,0,0,0,0,0,0,0,0,0,0,0,0,0,0,0],"split_type":[0,0,0,0,0,0,0,0,0,0,0,0,0,0,0,0,0,0,0,0,0,0,0,0,0,0,0,0,0,0,0,0,0,0,0,0,0,0,0,0,0,0,0,0,0,0,0,0,0,0,0,0,0],"sum_hessian":[2.8382914E4,1.995406E4,8.4288545E3,1.8443518E4,1.5105419E3,1.1691234E2,8.311942E3,1.8363832E4,7.968656E1,2.209859E1,1.4884434E3,5.8164894E1,5.8747444E1,1.3789144E4,4.5746875E3,3.4960522E2,1.1388381E3,5.1876892E1,6.2880025E0,5.1139835E1,7.6076083E0,1.5817513E2,1.3630969E4,6.377611E1,4.5109116E3,4.1779476E1,3.0782574E2,6.0689884E1,1.0781482E3,4.3348984E1,8.52791E0,5.8636274E0,1.7439808E0,8.556447E0,1.4961868E2,1.409574E3,1.2221395E4,2.2881075E1,4.0895035E1,1.2958139E0,4.5096157E3,1.0610538E1,3.1168938E1,1.0548893E1,2.9727686E2,8.4567084E2,2.3247742E2,2.408097E1,1.9268011E1,2.0874949E0,6.4404154E0,1.27826E0,4.585367E0],"tree_param":{"num_deleted":"0","num_feature":"18","num_nodes":"53","size_leaf_vector":"1"}},{"base_weights":[-3.576068E-2,3.171227E-1,-1.0482997E0,3.3296072E-1,1.3314915E-1,-4.6018514E-1,-3.1733856E-1,3.301409E-1,3.2686985E-1,-3.0066213E-1,1.472182E-1,-1.524309E-1,-8.0478567E-1,2.9045612E-1,3.752056E-1,-6.9152784E-1,1.5995549E-1,-5.1884998E-2,-2.9122323E-1,-8.7367857E-1,-3.5449937E-1,6.662132E-1,2.829684E-1,-1.255751E-1,3.7973428E-1,8.885564E-2,-7.9104173E-1,-2.0936933E-1,1.8438125E-1,3.9775483E-2,-2.493979E-1,-6.2861085E-1,-2.8845236E-1,-2.1590994E-1,-1.9257677E-1,-1.4476547E-1,2.4009486E-1,-3.5302266E-1,8.684588E-2,-1.7352042E-1,6.2087446E-2,1.14349894E-1,-3.143105E-1,-2.6442504E-1,1.2174492E-1,2.750262E-2,-3.7620062E-1,2.1231757E-2,7.886363E-2,-2.2822508E-1,4.2139355E-2,-2.922681E-1,1.9444966E-1,1.4218491E-3,-1.8702665E-1],"categories":[],"categories_nodes":[],"categories_segments":[],"categories_sizes":[],"default_left":[0,0,0,0,0,0,0,0,0,0,0,0,0,0,0,0,0,0,0,0,0,0,0,0,0,0,0,0,0,0,0,0,0,0,0,0,0,0,0,0,0,0,0,0,0,0,0,0,0,0,0,0,0,0,0],"id":7,"left_children":[1,3,5,7,9,11,-1,13,-1,-1,15,17,19,21,23,25,27,29,-1,31,33,35,37,39,41,-1,43,45,47,49,-1,51,-1,-1,53,-1,-1,-1,-1,-1,-1,-1,-1,-1,-1,-1,-1,-1,-1,-1,-1,-1,-1,-1,-1],"loss_changes":[8.80722E3,5.3215332E1,3.5087402E1,3.5545044E1,2.3317127E1,1.0799543E1,0E0,2.9878784E1,0E0,0E0,1.5426619E1,4.5273085E0,1.1902466E0,2.491034E1,1.784668E1,2.3606749E0,1.2785309E1,3.6484964E0,0E0,2.8352737E-1,3.4032786E-1,2.7122162E1,8.35719E1,1.082435E1,1.6299316E1,0E0,2.512989E0,2.7827534E1,1.1805557E1,3.8335595E0,0E0,6.70883E0,0E0,0E0,5.960413E-1,0E0,0E0,0E0,0E0,0E0,0E0,0E0,0E0,0E0,0E0,0E0,0E0,0E0,0E0,0E0,0E0,0E0,0E0,0E0,0E0],"parents":[2147483647,0,0,1,1,2,2,3,3,4,4,5,5,7,7,10,10,11,11,12,12,13,13,14,14,15,15,16,16,17,17,19,19,20,20,21,21,22,22,23,23,24,24,26,26,27,27,28,28,29,29,31,31,34,34],"right_children":[2,4,6,8,10,12,-1,14,-1,-1,16,18,20,22,24,26,28,30,-1,32,34,36,38,40,42,-1,44,46,48,50,-1,52,-1,-1,54,-1,-1,-1,-1,-1,-1,-1,-1,-1,-1,-1,-1,-1,-1,-1,-1,-1,-1,-1,-1],"split_conditions":[-3.5170028E-1,2.4809721E-1,-1.3802736E-1,-3.2758534E-1,-1.3240997E-1,-1.3235489E-1,-3.1733856E-1,3.4399772E-1,3.2686985E-1,-3.0066213E-1,-2.2316045E-1,-6.768385E-2,1.086434E0,-2.5374331E0,-2.9290002E-2,-1.2313038E0,-3.2733705E-2,-3.421328E-1,-2.9122323E-1,-5.129328E-1,-3.2733705E-2,-3.0598848E0,-2.4721267E0,1.086434E0,3.4348648E0,8.885564E-2,1.2168341E1,1.0458157E0,2.0543829E-1,-8.394651E-1,-2.493979E-1,-6.435457E-1,-2.8845236E-1,-2.1590994E-1,-3.421328E-1,-1.4476547E-1,2.4009486E-1,-3.5302266E-1,8.684588E-2,-1.7352042E-1,6.2087446E-2,1.14349894E-1,-3.143105E-1,-2.6442504E-1,1.2174492E-1,2.750262E-2,-3.7620062E-1,2.1231757E-2,7.886363E-2,-2.2822508E-1,4.2139355E-2,-2.922681E-1,1.9444966E-1,1.4218491E-3,-1.8702665E-1],"split_indices":[15,11,12,11,1,1,0,0,0,0,17,4,0,0,3,0,3,2,0,0,3,0,0,0,9,0,9,0,0,0,0,0,0,0,2,0,0,0,0,0,0,0,0,0,0,0,0,0,0,0,0,0,0,0,0],"split_type":[0,0,0,0,0,0,0,0,0,0,0,0,0,0,0,0,0,0,0,0,0,0,0,0,0,0,0,0,0,0,0,0,0,0,0,0,0,0,0,0,0,0,0,0,0,0,0,0,0,0,0,0,0,0,0],"sum_hessian":[2.4646875E4,1.827758E4,6.3692944E3,1.6828066E4,1.4495137E3,1.01989E2,6.2673057E3,1.6767014E4,6.1053387E1,1.6882458E1,1.4326312E3,5.4636673E1,4.7352325E1,8.919654E3,7.8473584E3,2.0633482E1,1.4119977E3,4.960511E1,5.0315614E0,4.025337E1,7.098956E0,1.7255078E2,8.747104E3,7.0089516E1,7.777269E3,1.7076889E0,1.8925793E1,8.712157E1,1.3248761E3,4.5234596E1,4.370514E0,1.2772312E1,2.7481056E1,1.1225165E0,5.9764395E0,1.7765757E1,1.5478502E2,3.8085625E1,8.709018E3,2.936391E1,4.072561E1,7.7702065E3,7.0623035E0,1.784209E1,1.0837029E0,6.8339554E1,1.8782013E1,5.421414E2,7.8273474E2,4.3214636E0,4.091313E1,1.02379265E1,2.5343854E0,4.777476E0,1.1989635E0],"tree_param":{"num_deleted":"0","num_feature":"18","num_nodes":"55","size_leaf_vector":"1"}},{"base_weights":[-3.721081E-2,2.3877485E-1,-3.1253648E-1,2.4233481E-1,-4.3686545E-1,2.5544667E-1,9.626344E-2,-1.9532517E-1,-7.345436E-1,2.5298366E-1,3.1690004E-1,-2.910818E-1,1.06833845E-1,-1.15587264E-1,-2.710254E-1,-8.120614E-1,-3.1186476E-1,2.315713E-1,3.2053E-1,-4.287469E-2,1.5462805E-1,-2.4006261E-1,-3.7303787E-2,-5.511156E-1,-2.7448148E-1,-1.5560004E-1,-1.8735814E-1,-3.798877E-2,7.068417E-2,3.0862875E-3,9.775553E-2,3.595836E-3,-1.1724117E-1,3.179912E-1,3.4009043E-2,2.1471293E-1,-6.2393762E-2,-2.8009135E-1,1.3174218E-1,3.9103128E-2,-7.34976E-2],"categories":[],"categories_nodes":[],"categories_segments":[],"categories_sizes":[],"default_left":[0,0,0,0,0,0,0,0,0,0,0,0,0,0,0,0,0,0,0,0,0,0,0,0,0,0,0,0,0,0,0,0,0,0,0,0,0,0,0,0,0],"id":8,"left_children":[1,3,-1,5,7,9,11,13,15,17,-1,-1,19,21,-1,23,25,27,29,31,33,-1,35,37,-1,39,-1,-1,-1,-1,-1,-1,-1,-1,-1,-1,-1,-1,-1,-1,-1],"loss_changes":[6.0512573E3,4.1289246E1,0E0,3.259851E1,6.3349323E0,3.0563538E1,1.593895E1,2.7809546E0,1.0572948E0,2.2463745E1,0E0,0E0,9.964777E0,2.4932537E0,0E0,3.8638306E-1,2.8500152E-1,1.716864E1,6.185089E0,6.4481616E0,3.9299225E1,0E0,5.713265E0,4.916092E0,0E0,1.9929077E-1,0E0,0E0,0E0,0E0,0E0,0E0,0E0,0E0,0E0,0E0,0E0,0E0,0E0,0E0,0E0],"parents":[2147483647,0,0,1,1,3,3,4,4,5,5,6,6,7,7,8,8,9,9,12,12,13,13,15,15,16,16,17,17,18,18,19,19,20,20,22,22,23,23,25,25],"right_children":[2,4,-1,6,8,10,12,14,16,18,-1,-1,20,22,-1,24,26,28,30,32,34,-1,36,38,-1,40,-1,-1,-1,-1,-1,-1,-1,-1,-1,-1,-1,-1,-1,-1,-1],"split_conditions":[-1.3802736E-1,1.1412537E0,-3.1253648E-1,2.4809721E-1,-1.3235489E-1,-3.2758534E-1,-1.3240997E-1,-6.768385E-2,1.086434E0,8.828418E-1,3.1690004E-1,-2.910818E-1,2.5776505E-1,-8.394651E-1,-2.710254E-1,-5.129328E-1,-3.421328E-1,-1.4599888E-1,-2.9290002E-2,-2.9200304E-2,7.178529E-1,-2.4006261E-1,-2.5170693E-1,-6.435457E-1,-2.7448148E-1,-2.884151E-2,-1.8735814E-1,-3.798877E-2,7.068417E-2,3.0862875E-3,9.775553E-2,3.595836E-3,-1.1724117E-1,3.179912E-1,3.4009043E-2,2.1471293E-1,-6.2393762E-2,-2.8009135E-1,1.3174218E-1,3.9103128E-2,-7.34976E-2],"split_indices":[12,16,0,11,1,11,1,4,0,0,0,0,11,0,0,0,2,17,3,3,11,0,0,0,0,3,0,0,0,0,0,0,0,0,0,0,0,0,0,0,0],"split_type":[0,0,0,0,0,0,0,0,0,0,0,0,0,0,0,0,0,0,0,0,0,0,0,0,0,0,0,0,0,0,0,0,0,0,0,0,0,0,0,0,0],"sum_hessian":[2.1824182E4,1.7121254E4,4.7029277E3,1.7032152E4,8.9101425E1,1.5628533E4,1.4036194E3,5.010317E1,3.8998257E1,1.5581929E4,4.6603962E1,1.2883715E1,1.3907356E3,4.607763E1,4.025537E0,3.2176056E1,6.8222017E0,1.1834719E4,3.7472097E3,3.3657266E2,1.054163E3,3.78185E0,4.229578E1,1.0895863E1,2.1280193E1,5.5473614E0,1.2748404E0,1.3173575E2,1.1702983E4,6.3243446E1,3.6839663E3,2.9156482E2,4.500783E1,4.4877E1,1.009286E3,7.2251763E0,3.5070602E1,7.900993E0,2.9948692E0,1.2120817E0,4.3352795E0],"tree_param":{"num_deleted":"0","num_feature":"18","num_nodes":"41","size_leaf_vector":"1"}},{"base_weights":[-3.68092E-2,1.7899075E-1,-3.0905503E-1,1.8174312E-1,-3.623496E-1,9.873123E-2,1.9591951E-1,-2.4688447E-1,-2.8406617E-1,5.034259E-1,7.189678E-2,-7.201216E-2,2.0098574E-1,-2.6091614E-1,-1.614593E-1,-3.4930378E-1,6.352591E-1,-6.969071E-1,9.8558165E-2,-2.7583644E-1,-4.3888923E-2,2.0777185E-1,2.2049787E-2,5.1552916E-1,-3.2292205E-1,7.125558E-2,-6.090522E-1,2.0093006E-1,-4.541801E-1,1.395644E-1,-2.1859272E-1,3.133208E-2,-1.295371E-1,-7.3611615E-3,-2.8640947E-1,-4.301189E-2,6.3215666E-2,1.21532045E-2,-3.5383278E-1,5.7755347E-2,3.4043935E-1,-3.0649602E-1,-2.5518795E-2],"categories":[],"categories_nodes":[],"categories_segments":[],"categories_sizes":[],"default_left":[0,0,0,0,0,0,0,0,0,0,0,0,0,0,0,0,0,0,0,0,0,0,0,0,0,0,0,0,0,0,0,0,0,0,0,0,0,0,0,0,0,0,0],"id":9,"left_children":[1,3,-1,5,7,9,11,13,-1,15,17,19,21,-1,23,25,27,29,31,-1,33,35,37,39,41,-1,-1,-1,-1,-1,-1,-1,-1,-1,-1,-1,-1,-1,-1,-1,-1,-1,-1],"loss_changes":[4.225753E3,2.419513E1,0E0,1.894281E1,5.3179874E0,2.5510092E1,1.8694885E1,3.586145E0,0E0,1.6647877E1,4.5311848E1,6.063841E0,1.6396362E1,0E0,7.033313E0,2.0416855E1,1.0425739E1,3.0719604E0,6.7027397E0,0E0,4.3644767E0,1.3496643E1,1.1019266E1,2.2784557E0,8.445471E0,0E0,0E0,0E0,0E0,0E0,0E0,0E0,0E0,0E0,0E0,0E0,0E0,0E0,0E0,0E0,0E0,0E0,0E0],"parents":[2147483647,0,0,1,1,3,3,4,4,5,5,6,6,7,7,9,9,10,10,11,11,12,12,14,14,15,15,16,16,17,17,18,18,20,20,21,21,22,22,23,23,24,24],"right_children":[2,4,-1,6,8,10,12,14,-1,16,18,20,22,-1,24,26,28,30,32,-1,34,36,38,40,42,-1,-1,-1,-1,-1,-1,-1,-1,-1,-1,-1,-1,-1,-1,-1,-1,-1,-1],"split_conditions":[-1.3802736E-1,1.1412537E0,-3.0905503E-1,-1.2313038E0,-3.421328E-1,-2.5374331E0,-2.9917892E-2,-7.7415866E-1,-2.8406617E-1,-3.0598848E0,-2.40682E0,-1.3240997E-1,-3.9604276E-2,-2.6091614E-1,-2.5170693E-1,-3.1251912E0,-1.2777552E-1,-2.9917892E-2,1.7798381E0,-2.7583644E-1,6.576126E-1,-3.264761E-1,-2.1305434E-2,-3.6245897E-1,6.406019E-1,7.125558E-2,-6.090522E-1,2.0093006E-1,-4.541801E-1,1.395644E-1,-2.1859272E-1,3.133208E-2,-1.295371E-1,-7.3611615E-3,-2.8640947E-1,-4.301189E-2,6.3215666E-2,1.21532045E-2,-3.5383278E-1,5.7755347E-2,3.4043935E-1,-3.0649602E-1,-2.5518795E-2],"split_indices":[12,16,0,0,2,0,3,0,0,0,0,1,17,0,0,0,7,3,11,0,11,17,9,0,0,0,0,0,0,0,0,0,0,0,0,0,0,0,0,0,0,0,0],"split_type":[0,0,0,0,0,0,0,0,0,0,0,0,0,0,0,0,0,0,0,0,0,0,0,0,0,0,0,0,0,0,0,0,0,0,0,0,0,0,0,0,0,0,0],"sum_hessian":[1.9710555E4,1.6193507E4,3.5170466E3,1.6112251E4,8.125594E1,2.3513806E3,1.376087E4,6.904056E1,1.221539E1,1.4511514E2,2.2062654E3,2.5512541E2,1.3505745E4,7.2198033E0,6.182075E1,1.9210072E1,1.25905075E2,7.310422E1,2.1331614E3,7.1766415E0,2.4794878E2,1.3012103E4,4.9364288E2,1.1482699E1,5.0338055E1,1.4875468E1,4.3346043E0,1.2459296E2,1.3121171E0,1.5801742E0,7.152404E1,2.1105562E3,2.26051E1,2.4379585E2,4.152924E0,1.0790053E2,1.2904201E4,4.871245E2,6.51837E0,8.407969E0,3.0747292E0,1.1947145E1,3.8390907E1],"tree_param":{"num_deleted":"0","num_feature":"18","num_nodes":"43","size_leaf_vector":"1"}},{"base_weights":[-3.483314E-2,1.3202465E-1,-3.0649197E-1,1.4210504E-1,2.5854083E-2,1.3982281E-1,3.088807E-1,4.5434583E-2,-3.6757588E-1,1.4026226E-1,-6.5005475E-1,-2.748492E-1,5.224073E-2,-2.9952043E-1,-5.6367654E-1,1.1854253E-1,1.8822484E-1,-3.714185E-2,1.18416E-1,-1.1096785E0,-1.7315474E-1,3.619869E-2,-1.434121E-1,3.3547094E-1,5.595931E-2,-1.1867911E-3,-1.3683553E-1,9.521075E-2,1.4075979E-2,-2.6575934E-2,-3.7839234E-1,-7.677448E-2,4.1517198E-2],"categories":[],"categories_nodes":[],"categories_segments":[],"categories_sizes":[],"default_left":[0,0,0,0,0,0,0,0,0,0,0,0,0,0,0,0,0,0,0,0,0,0,0,0,0,0,0,0,0,0,0,0,0],"id":10,"left_children":[1,3,-1,5,7,9,-1,11,13,15,-1,-1,17,19,-1,21,23,25,27,29,31,-1,-1,-1,-1,-1,-1,-1,-1,-1,-1,-1,-1],"loss_changes":[2.9882441E3,1.6610443E1,0E0,2.857193E1,1.0395851E1,1.4639496E1,0E0,8.453541E0,6.0184603E0,1.4708252E1,0E0,0E0,7.55333E0,6.197961E0,0E0,1.2369507E1,6.731735E0,7.557683E0,1.0419624E1,1.1636086E0,1.4581709E0,0E0,0E0,0E0,0E0,0E0,0E0,0E0,0E0,0E0,0E0,0E0,0E0],"parents":[2147483647,0,0,1,1,3,3,4,4,5,5,7,7,8,8,9,9,12,12,13,13,15,15,16,16,17,17,18,18,19,19,20,20],"right_children":[2,4,-1,6,8,10,-1,12,14,16,-1,-1,18,20,-1,22,24,26,28,30,32,-1,-1,-1,-1,-1,-1,-1,-1,-1,-1,-1,-1],"split_conditions":[-1.3802736E-1,2.4809721E-1,-3.0649197E-1,-3.2758534E-1,1.1197288E0,1.2782971E0,3.088807E-1,-1.3240997E-1,1.3593027E-2,7.56699E-1,-6.5005475E-1,-2.748492E-1,2.0543829E-1,-3.2733705E-2,-5.6367654E-1,1.1412537E0,7.9319644E-1,1.4013183E-1,5.319706E-1,-5.3687975E-2,7.665133E-1,3.619869E-2,-1.434121E-1,3.3547094E-1,5.595931E-2,-1.1867911E-3,-1.3683553E-1,9.521075E-2,1.4075979E-2,-2.6575934E-2,-3.7839234E-1,-7.677448E-2,4.1517198E-2],"split_indices":[12,11,0,11,0,8,0,1,17,0,0,0,0,3,0,16,0,0,0,3,11,0,0,0,0,0,0,0,0,0,0,0,0],"split_type":[0,0,0,0,0,0,0,0,0,0,0,0,0,0,0,0,0,0,0,0,0,0,0,0,0,0,0,0,0,0,0,0,0],"sum_hessian":[1.8146547E4,1.5522701E4,2.623846E3,1.4176382E4,1.3463193E3,1.4141175E4,3.520697E1,1.283334E3,6.298536E1,1.413942E4,1.7545599E0,8.080503E0,1.2752534E3,6.141791E1,1.5674493E0,9.734602E3,4.4048184E3,5.426874E2,7.325661E2,7.237193E0,5.4180717E1,9.70093E3,3.3671505E1,6.8094473E0,4.3980093E3,5.0379288E2,3.8894478E1,1.9275233E2,5.398138E2,1.1405833E0,6.09661E0,4.2949898E1,1.1230821E1],"tree_param":{"num_deleted":"0","num_feature":"18","num_nodes":"33","size_leaf_vector":"1"}},{"base_weights":[-3.1741925E-2,9.606572E-2,-3.045696E-1,9.732305E-2,-5.721042E-1,-9.107881E-3,1.0447651E-1,-4.4141242E-1,-2.6885486E-1,3.8555568E-1,-6.9725394E-2,1.0992698E-1,-4.293223E-2,-3.0474292E-2,-5.706434E-1,-2.6991028E-1,5.105778E-1,-4.6328938E-1,-2.595326E-2,1.074955E-1,4.3995762E-1,-2.7054667E-2,-9.005534E-1,-2.4141504E-1,3.7693736E-1,-8.3179176E-1,-1.6371068E-1,4.4959318E-2,-3.329224E-1,1.6395512E-1,-3.1125677E-1,1.6087736E-1,-1.4606479E-1,2.1285908E-2,-4.948002E-2,3.3371035E-2,-3.2520104E-2,1.7473492E-1,3.8775004E-2,-3.6197662E-1,-6.271422E-3,-4.3929598E-1,6.47666E-2,-7.6307215E-2,-2.732387E-1,1.8466377E-1,-1.5769544E-1],"categories":[],"categories_nodes":[],"categories_segments":[],"categories_sizes":[],"default_left":[0,0,0,0,0,0,0,0,0,0,0,0,0,0,0,0,0,0,0,0,0,0,0,0,0,0,0,0,0,0,0,0,0,0,0,0,0,0,0,0,0,0,0,0,0,0,0],"id":11,"left_children":[1,3,-1,5,7,9,11,13,-1,15,17,19,21,23,25,27,29,31,33,35,37,39,41,-1,-1,43,45,-1,-1,-1,-1,-1,-1,-1,-1,-1,-1,-1,-1,-1,-1,-1,-1,-1,-1,-1,-1],"loss_changes":[2.1368704E3,1.2695267E1,0E0,1.1434738E1,8.074255E-1,2.2675966E1,1.1310852E1,1.1621728E0,0E0,1.0479897E1,1.4140499E1,1.084259E1,6.8179183E0,7.358478E0,1.6535344E0,7.523823E0,6.4831676E0,2.1987705E0,9.982901E0,1.0894226E1,4.304495E0,3.5610385E0,6.045455E0,0E0,0E0,2.2512197E-1,2.5314493E0,0E0,0E0,0E0,0E0,0E0,0E0,0E0,0E0,0E0,0E0,0E0,0E0,0E0,0E0,0E0,0E0,0E0,0E0,0E0,0E0],"parents":[2147483647,0,0,1,1,3,3,4,4,5,5,6,6,7,7,9,9,10,10,11,11,12,12,13,13,14,14,15,15,16,16,17,17,18,18,19,19,20,20,21,21,22,22,25,25,26,26],"right_children":[2,4,-1,6,8,10,12,14,-1,16,18,20,22,24,26,28,30,32,34,36,38,40,42,-1,-1,44,46,-1,-1,-1,-1,-1,-1,-1,-1,-1,-1,-1,-1,-1,-1,-1,-1,-1,-1,-1,-1],"split_conditions":[-1.3802736E-1,-1.3235489E-1,-3.045696E-1,-1.6884491E0,-3.421328E-1,-2.5374331E0,-3.9604276E-2,-5.129328E-1,-2.6885486E-1,-3.0598848E0,-2.40682E0,4.697546E-2,-2.1305434E-2,-6.435457E-1,1.0146651E0,-3.1251912E0,-1.2777552E-1,-1.0610091E-1,-1.8843684E0,5.28049E-3,5.9727705E-1,-1.6231426E0,2.0274866E0,-2.4141504E-1,3.7693736E-1,-2.5170693E-1,1.1197288E0,4.4959318E-2,-3.329224E-1,1.6395512E-1,-3.1125677E-1,1.6087736E-1,-1.4606479E-1,2.1285908E-2,-4.948002E-2,3.3371035E-2,-3.2520104E-2,1.7473492E-1,3.8775004E-2,-3.6197662E-1,-6.271422E-3,-4.3929598E-1,6.47666E-2,-7.6307215E-2,-2.732387E-1,1.8466377E-1,-1.5769544E-1],"split_indices":[12,1,0,0,2,0,17,0,0,0,0,7,9,0,0,0,7,17,0,9,0,0,7,0,0,0,0,0,0,0,0,0,0,0,0,0,0,0,0,0,0,0,0,0,0,0,0],"split_type":[0,0,0,0,0,0,0,0,0,0,0,0,0,0,0,0,0,0,0,0,0,0,0,0,0,0,0,0,0,0,0,0,0,0,0,0,0,0,0,0,0,0,0,0,0,0,0],"sum_hessian":[1.699832E4,1.5044184E4,1.954137E3,1.501678E4,2.7403456E1,9.457285E2,1.4071052E4,2.1211506E1,6.1919494E0,1.2520347E2,8.20525E2,1.3569568E4,5.0148334E2,5.3703346E0,1.5841171E1,1.9870018E1,1.0533345E2,8.116553E1,7.393595E2,1.3471643E4,9.792571E1,4.9338068E2,8.102654E0,3.5870183E0,1.7833161E0,9.013026E0,6.8281455E0,1.3795924E1,6.074094E0,1.03575905E2,1.7575495E0,1.3705796E0,7.9794945E1,4.3590604E2,3.034535E2,1.32426455E4,2.2899762E2,6.653694E1,3.1388773E1,1.5466322E0,4.9183405E2,5.1768966E0,2.9257574E0,1.5925725E0,7.4204535E0,1.943379E0,4.8847666E0],"tree_param":{"num_deleted":"0","num_feature":"18","num_nodes":"47","size_leaf_vector":"1"}},{"base_weights":[-2.792262E-2,6.926039E-2,-3.0308992E-1,7.117482E-2,-3.0998412E-1,6.868056E-2,3.7730506E-1,-8.150588E-1,5.0135735E-2,7.25261E-2,-4.295296E-1,-5.037215E-1,-1.2673622E0,3.4956002E-1,-3.2922107E-1,6.930657E-2,3.4568748E-1,-7.612654E-1,-1.9573148E-1,-8.412115E-1,2.2984101E-1,-2.2420928E0,-3.981476E-1,-1.8480086E-1,-6.2761605E-1,2.3099484E-2,-8.370518E-3,-1.20670095E-1,-5.4256546E-1,-1.995004E-3,-2.5543493E-1,-9.565355E-2,-3.453918E-1,-2.5957578E-1,-8.5019565E-1,7.038731E-2,-5.993069E-1,-1.532328E-1,1.4454648E-1],"categories":[],"categories_nodes":[],"categories_segments":[],"categories_sizes":[],"default_left":[0,0,0,0,0,0,0,0,0,0,0,0,0,0,0,0,0,0,0,0,0,0,0,0,0,0,0,0,0,0,0,0,0,0,0,0,0,0,0],"id":12,"left_children":[1,3,-1,5,7,9,-1,11,13,15,17,19,21,-1,23,25,-1,27,29,31,-1,33,35,37,-1,-1,-1,-1,-1,-1,-1,-1,-1,-1,-1,-1,-1,-1,-1],"loss_changes":[1.5426841E3,1.0698006E1,0E0,4.3214554E1,1.3508149E1,2.8006409E1,0E0,3.7095833E0,1.9065926E1,5.029489E1,8.536671E0,9.193345E0,9.213919E0,0E0,8.201636E0,1.0805443E1,0E0,1.655048E1,8.30584E0,2.2628622E0,0E0,1.9543858E0,8.081635E0,7.259829E0,0E0,0E0,0E0,0E0,0E0,0E0,0E0,0E0,0E0,0E0,0E0,0E0,0E0,0E0,0E0],"parents":[2147483647,0,0,1,1,3,3,4,4,5,5,7,7,8,8,9,9,10,10,11,11,12,12,14,14,15,15,17,17,18,18,19,19,21,21,22,22,23,23],"right_children":[2,4,-1,6,8,10,-1,12,14,16,18,20,22,-1,24,26,-1,28,30,32,-1,34,36,38,-1,-1,-1,-1,-1,-1,-1,-1,-1,-1,-1,-1,-1,-1,-1],"split_conditions":[-1.3802736E-1,2.8418233E0,-3.0308992E-1,1.8728731E0,2.942875E0,1.7798381E0,3.7730506E-1,5.319706E-1,3.9038084E0,7.665133E-1,9.560309E-2,3.4399772E-1,8.828418E-1,3.4956002E-1,9.481128E-1,2.4809721E-1,3.4568748E-1,-5.7823926E-1,9.787689E-1,-5.129328E-1,2.2984101E-1,6.981514E-1,1.0544223E0,5.6698424E-1,-6.2761605E-1,2.3099484E-2,-8.370518E-3,-1.20670095E-1,-5.4256546E-1,-1.995004E-3,-2.5543493E-1,-9.565355E-2,-3.453918E-1,-2.5957578E-1,-8.5019565E-1,7.038731E-2,-5.993069E-1,-1.532328E-1,1.4454648E-1],"split_indices":[12,11,0,11,11,11,0,0,11,11,0,0,0,0,0,11,0,0,0,0,0,0,0,0,0,0,0,0,0,0,0,0,0,0,0,0,0,0,0],"split_type":[0,0,0,0,0,0,0,0,0,0,0,0,0,0,0,0,0,0,0,0,0,0,0,0,0,0,0,0,0,0,0,0,0,0,0,0,0,0,0],"sum_hessian":[1.6157042E4,1.4703416E4,1.4536262E3,1.4630374E4,7.304187E1,1.4600738E4,2.963552E1,2.9876387E1,4.3165485E1,1.4489751E4,1.1098767E2,1.8947674E1,1.0928713E1,1.043165E1,3.2733833E1,1.4447736E4,4.201455E1,4.4950874E1,6.60368E1,1.5235967E1,3.711706E0,4.407137E0,6.5215764E0,3.1276348E1,1.4574858E0,1.338856E4,1.0591763E3,3.4505672E1,1.0445201E1,5.2040623E1,1.3996177E1,6.4309688E0,8.804998E0,2.0651336E0,2.342003E0,5.2844057E0,1.2371705E0,2.1162012E1,1.0114336E1],"tree_param":{"num_deleted":"0","num_feature":"18","num_nodes":"39","size_leaf_vector":"1"}},{"base_weights":[-2.3770066E-2,4.970516E-2,-3.0190605E-1,2.6069432E-2,7.743458E-2,2.87179E-1,2.2259913E-2,2.3306014E-1,5.934036E-2,-2.1581332E-1,3.9947218E-1,-1.8275377E-1,2.9431166E-2,2.0558996E-1,3.407262E-1,-2.817415E-1,7.62991E-2,9.1165364E-2,-2.2060896E-1,4.3326735E-1,-3.9143723E-1,-6.788128E-2,-3.3755884E-1,3.0603532E-2,-1.1618091E0,3.302148E-1,1.860557E-1,-3.2293162E-1,3.062784E-1,8.4192075E-2,-2.1224537E-1,-9.58354E-2,1.2655176E-1,1.4046696E-1,-2.075249E-1,-9.658538E-2,8.4117174E-2,-1.4949971E-1,9.6935205E-2,9.7140774E-2,7.78304E-3,-5.40498E-1,-2.018149E-1,6.141762E-2,-1.5919657E-1,-9.061403E-2,-5.388615E-1,-8.342289E-2,2.6496684E-2,-1.7182577E-1,1.8250396E-2],"categories":[],"categories_nodes":[],"categories_segments":[],"categories_sizes":[],"default_left":[0,0,0,0,0,0,0,0,0,0,0,0,0,0,0,0,0,0,0,0,0,0,0,0,0,0,0,0,0,0,0,0,0,0,0,0,0,0,0,0,0,0,0,0,0,0,0,0,0,0,0],"id":13,"left_children":[1,3,-1,5,7,9,11,13,15,17,19,21,23,25,-1,27,29,31,-1,33,-1,35,37,39,41,-1,43,45,-1,47,49,-1,-1,-1,-1,-1,-1,-1,-1,-1,-1,-1,-1,-1,-1,-1,-1,-1,-1,-1,-1],"loss_changes":[1.122178E3,9.476746E0,0E0,7.7612853E0,1.872446E1,6.424101E0,1.1322781E1,1.6945099E1,3.451131E1,3.4367843E0,5.8688393E0,4.6060314E0,1.0423979E1,1.1572239E1,0E0,1.5495129E1,1.2956207E1,2.0588584E0,0E0,3.904192E0,0E0,1.3422902E1,1.1911844E1,1.014641E1,1.0847502E0,0E0,8.944574E0,7.9107513E0,0E0,8.299458E0,1.4954237E1,0E0,0E0,0E0,0E0,0E0,0E0,0E0,0E0,0E0,0E0,0E0,0E0,0E0,0E0,0E0,0E0,0E0,0E0,0E0,0E0],"parents":[2147483647,0,0,1,1,3,3,4,4,5,5,6,6,7,7,8,8,9,9,10,10,11,11,12,12,13,13,15,15,16,16,17,17,19,19,21,21,22,22,23,23,24,24,26,26,27,27,29,29,30,30],"right_children":[2,4,-1,6,8,10,12,14,16,18,20,22,24,26,-1,28,30,32,-1,34,-1,36,38,40,42,-1,44,46,-1,48,50,-1,-1,-1,-1,-1,-1,-1,-1,-1,-1,-1,-1,-1,-1,-1,-1,-1,-1,-1,-1],"split_conditions":[-1.3802736E-1,3.4399772E-1,-3.0190605E-1,-2.5374331E0,5.319706E-1,-3.0598848E0,-2.1605158E0,4.6905676E-1,5.6698424E-1,-3.1251912E0,-5.0108414E-2,-2.3415136E0,4.9657936E0,4.0135768E-1,3.407262E-1,2.9939353E-1,1.3593027E-2,-3.255804E0,-2.2060896E-1,1.6888611E-1,-3.9143723E-1,-2.40682E0,-3.2758534E-1,-2.0149815E0,-3.8231987E-1,3.302148E-1,1.3593027E-2,8.821097E-1,3.062784E-1,-2.6368815E-1,8.828418E-1,-9.58354E-2,1.2655176E-1,1.4046696E-1,-2.075249E-1,-9.658538E-2,8.4117174E-2,-1.4949971E-1,9.6935205E-2,9.7140774E-2,7.78304E-3,-5.40498E-1,-2.018149E-1,6.141762E-2,-1.5919657E-1,-9.061403E-2,-5.388615E-1,-8.342289E-2,2.6496684E-2,-1.7182577E-1,1.8250396E-2],"split_indices":[12,0,0,0,0,0,0,0,0,0,7,0,11,0,0,7,17,0,0,11,0,0,11,0,0,0,17,11,0,17,0,0,0,0,0,0,0,0,0,0,0,0,0,0,0,0,0,0,0,0,0],"split_type":[0,0,0,0,0,0,0,0,0,0,0,0,0,0,0,0,0,0,0,0,0,0,0,0,0,0,0,0,0,0,0,0,0,0,0,0,0,0,0,0,0,0,0,0,0,0,0,0,0,0,0],"sum_hessian":[1.5541898E4,1.4461455E4,1.0804434E3,7.8080493E3,6.653406E3,1.1120962E2,7.69684E3,6.917648E2,5.961641E3,2.0128153E1,9.108147E1,2.5930402E2,7.4375356E3,6.725266E2,1.9238127E1,2.8163602E2,5.680005E3,1.3170704E1,6.9574475E0,9.0041725E1,1.039735E0,1.4967601E2,1.09628006E2,7.431197E3,6.33914E0,1.3180993E1,6.5934564E2,2.7373276E2,7.903271E0,5.529458E3,1.50547E2,5.8903084E0,7.280396E0,8.789453E1,2.1471972E0,8.658582E1,6.3090187E1,8.836932E1,2.1258684E1,1.151911E2,7.3160054E3,1.5836573E0,4.7554827E0,6.4330255E2,1.6043114E1,2.710948E2,2.6379778E0,6.1582714E1,5.467875E3,6.441372E1,8.6133286E1],"tree_param":{"num_deleted":"0","num_feature":"18","num_nodes":"51","size_leaf_vector":"1"}},{"base_weights":[-1.9584002E-2,3.5712335E-2,-1.003014E0,-2.0152779E-1,3.8529888E-2,-6.4557296E-1,-3.016473E-1,-6.7703724E-1,-1.3379458E-1,-9.797981E-1,3.9006677E-2,5.692626E-2,-2.57688E-1,-8.772178E-1,5.6177425E-1,9.568324E-1,-2.2528115E-1,-3.7812558E-1,-4.2616004E-1,3.9545376E-2,-2.562317E-1,-5.002314E-1,-4.4393167E-1,-1.4267551E-2,2.636767E-1,-8.683722E-2,1.1436247E0,1.2687983E-1,-3.1917176E-1,5.388471E-2,-2.6130933E-1,4.0016018E-2,-9.690183E-1,8.776692E-2,-1.7909247E-1,1.2730452E-1,3.6614597E-1,-3.3068113E-2,3.4265533E-1,-7.160696E-2,-2.4390323E-1,1.1850113E-2,2.8783992E-1,-6.9948137E-1,1.4753363E-1],"categories":[],"categories_nodes":[],"categories_segments":[],"categories_sizes":[],"default_left":[0,0,0,0,0,0,0,0,0,0,0,0,0,0,0,0,0,0,0,0,0,0,0,0,0,0,0,0,0,0,0,0,0,0,0,0,0,0,0,0,0,0,0,0,0],"id":14,"left_children":[1,3,5,7,9,11,-1,13,15,17,19,-1,-1,21,23,25,27,-1,29,31,-1,33,-1,-1,-1,-1,35,37,39,-1,-1,41,43,-1,-1,-1,-1,-1,-1,-1,-1,-1,-1,-1,-1],"loss_changes":[8.209622E2,9.562002E0,6.25E-2,5.317811E0,6.897051E0,1.6468618E0,0E0,5.6238136E0,1.5005727E1,4.9591732E-1,6.827572E0,0E0,0E0,3.3946304E0,7.158381E-1,3.0460386E0,4.589151E0,0E0,1.1663654E0,6.7379456E0,0E0,1.1493115E0,0E0,0E0,0E0,0E0,5.3977966E-2,7.2691884E0,4.1340227E0,0E0,0E0,6.6506596E0,1.4328414E1,0E0,0E0,0E0,0E0,0E0,0E0,0E0,0E0,0E0,0E0,0E0,0E0],"parents":[2147483647,0,0,1,1,2,2,3,3,4,4,5,5,7,7,8,8,9,9,10,10,13,13,14,14,15,15,16,16,18,18,19,19,21,21,26,26,27,27,28,28,31,31,32,32],"right_children":[2,4,6,8,10,12,-1,14,16,18,20,-1,-1,22,24,26,28,-1,30,32,-1,34,-1,-1,-1,-1,36,38,40,-1,-1,42,44,-1,-1,-1,-1,-1,-1,-1,-1,-1,-1,-1,-1],"split_conditions":[-1.3802736E-1,-3.2733705E-2,-1.3722625E-1,-2.5170693E-1,-2.015186E-2,-3.4630105E-1,-3.016473E-1,3.1866416E-2,9.560309E-2,-2.019033E0,-3.421328E-1,5.692626E-2,-2.57688E-1,-7.7415866E-1,-5.3687975E-2,-5.3687975E-2,-9.280158E-2,-3.7812558E-1,2.7074474E-1,1.2822868E0,-2.562317E-1,-2.40682E0,-4.4393167E-1,-1.4267551E-2,2.636767E-1,-8.683722E-2,-4.2834464E-2,-5.3687975E-2,5.28049E-3,5.388471E-2,-2.6130933E-1,3.5808298E-1,2.6055998E-1,8.776692E-2,-1.7909247E-1,1.2730452E-1,3.6614597E-1,-3.3068113E-2,3.4265533E-1,-7.160696E-2,-2.4390323E-1,1.1850113E-2,2.8783992E-1,-6.9948137E-1,1.4753363E-1],"split_indices":[12,3,12,0,6,15,0,9,0,6,2,0,0,0,3,3,17,0,0,8,0,0,0,0,0,0,3,3,9,0,0,8,7,0,0,0,0,0,0,0,0,0,0,0,0],"split_type":[0,0,0,0,0,0,0,0,0,0,0,0,0,0,0,0,0,0,0,0,0,0,0,0,0,0,0,0,0,0,0,0,0,0,0,0,0,0,0,0,0,0,0,0,0],"sum_hessian":[1.5095086E4,1.4292416E4,8.026708E2,1.6692195E2,1.4125493E4,7.3247576E0,7.95346E2,1.9690752E1,1.472312E2,5.6493526E0,1.4119844E4,1.512939E0,5.8118186E0,1.7202822E1,2.4879305E0,1.06625395E1,1.3656866E2,2.9018774E0,2.7474751E0,1.4112288E4,7.556391E0,1.1707956E1,5.494865E0,1.1426377E0,1.3452927E0,1.3181484E0,9.344391E0,2.8672747E1,1.0789591E2,1.4158207E0,1.3316545E0,1.4106665E4,5.6224732E0,1.0532006E0,1.0654756E1,1.5316912E0,7.8127E0,2.3967083E1,4.705664E0,9.40515E1,1.38444195E1,1.4099801E4,6.864444E0,2.6005979E0,3.0218754E0],"tree_param":{"num_deleted":"0","num_feature":"18","num_nodes":"45","size_leaf_vector":"1"}},{"base_weights":[-1.6272182E-2,2.5234092E-2,-9.999736E-1,-2.816356E-1,2.5833856E-2,-5.8271927E-1,-3.00989E-1,2.674288E-2,-4.9928886E-1,4.4792943E-2,-2.4678886E-1,1.5480865E-2,6.400704E-2,-5.983048E-1,-1.4787747E-1,-8.0090475E-1,1.7671872E-2,3.3361185E-1,6.021626E-2,-2.2209843E-1,-2.3471124E-1,1.5231372E-2,-6.318802E-2,-2.7400047E-1,1.0182543E-1,5.5373865E-3,-1.8741617E-1,1.8585254E-2,-3.5537955E-1,-1.7417017E-1,2.909988E-1],"categories":[],"categories_nodes":[],"categories_segments":[],"categories_sizes":[],"default_left":[0,0,0,0,0,0,0,0,0,0,0,0,0,0,0,0,0,0,0,0,0,0,0,0,0,0,0,0,0,0,0],"id":15,"left_children":[1,3,5,-1,7,9,-1,11,13,-1,-1,15,17,19,21,23,25,-1,27,29,-1,-1,-1,-1,-1,-1,-1,-1,-1,-1,-1],"loss_changes":[6.024811E2,8.210722E0,2.4359131E-1,0E0,6.768344E0,1.3707235E0,0E0,5.9279156E0,7.6418257E-1,0E0,0E0,1.9421877E1,1.2957735E1,1.1273708E0,9.439848E-2,4.036091E0,5.4763947E0,0E0,7.1290493E0,3.7977767E0,0E0,0E0,0E0,0E0,0E0,0E0,0E0,0E0,0E0,0E0,0E0],"parents":[2147483647,0,0,1,1,2,2,4,4,5,5,7,7,8,8,11,11,12,12,13,13,14,14,15,15,16,16,18,18,19,19],"right_children":[2,4,6,-1,8,10,-1,12,14,-1,-1,16,18,20,22,24,26,-1,28,30,-1,-1,-1,-1,-1,-1,-1,-1,-1,-1,-1],"split_conditions":[-1.3802736E-1,-1.3240997E-1,-1.3722625E-1,-2.816356E-1,-1.3235489E-1,-3.4630105E-1,-3.00989E-1,8.828418E-1,1.086434E0,4.4792943E-2,-2.4678886E-1,-4.2834464E-2,9.2380935E-1,-5.129328E-1,-2.884151E-2,2.5776505E-1,4.9657936E0,3.3361185E-1,3.9038084E0,-5.7823926E-1,-2.3471124E-1,1.5231372E-2,-6.318802E-2,-2.7400047E-1,1.0182543E-1,5.5373865E-3,-1.8741617E-1,1.8585254E-2,-3.5537955E-1,-1.7417017E-1,2.909988E-1],"split_indices":[12,1,12,0,1,15,0,0,0,0,0,3,0,0,3,11,11,0,11,0,0,0,0,0,0,0,0,0,0,0,0],"split_type":[0,0,0,0,0,0,0,0,0,0,0,0,0,0,0,0,0,0,0,0,0,0,0,0,0,0,0,0,0,0,0],"sum_hessian":[1.4754304E4,1.41579E4,5.9640375E2,7.8302727E0,1.4150069E4,6.105613E0,5.9029816E2,1.4126564E4,2.350496E1,1.6003052E0,4.505308E0,1.0849141E4,3.2774243E3,1.778981E1,5.7151484E0,2.8063147E1,1.0821077E4,1.0758198E1,3.266666E3,6.5694184E0,1.1220392E1,1.4177593E0,4.2973895E0,2.572577E1,2.3373747E0,1.0808822E4,1.2255276E1,3.2630693E3,3.5966842E0,5.4450502E0,1.1243684E0],"tree_param":{"num_deleted":"0","num_feature":"18","num_nodes":"31","size_leaf_vector":"1"}},{"base_weights":[-1.3330435E-2,1.7749697E-2,-9.9695283E-1,-2.6953256E-1,1.8208766E-2,-5.20511E-1,-3.004234E-1,2.0008108E-2,-2.101656E-1,3.535556E-2,-2.346995E-1,-4.5240056E-2,2.5895176E-2,-1.6197658E-1,-9.721351E-1,-3.991233E-2,-1.744773E0,2.722381E-1,2.1756662E-2,-1.9536017E-1,2.120631E-1,3.411609E-2,-4.3094423E-1,-1.625661E-2,1.4487374E-1,-7.5432324E-1,-9.890792E-2,7.655835E-2,2.4269196E-1,-2.2678876E-2,8.41661E-3,-4.0234447E-2,-4.9486315E-1],"categories":[],"categories_nodes":[],"categories_segments":[],"categories_sizes":[],"default_left":[0,0,0,0,0,0,0,0,0,0,0,0,0,0,0,0,0,0,0,0,0,0,0,0,0,0,0,0,0,0,0,0,0],"id":16,"left_children":[1,3,5,-1,7,9,-1,11,13,-1,-1,15,17,19,21,23,25,27,29,31,-1,-1,-1,-1,-1,-1,-1,-1,-1,-1,-1,-1,-1],"loss_changes":[4.4335226E2,5.929306E0,4.2233276E-1,0E0,5.778701E0,1.1285398E0,0E0,5.35717E0,3.879366E0,0E0,0E0,1.0382273E1,1.3033632E1,3.1720748E0,3.359755E0,8.622734E0,3.0741806E0,1.7259274E0,7.7161345E0,8.819762E0,0E0,0E0,0E0,0E0,0E0,0E0,0E0,0E0,0E0,0E0,0E0,0E0,0E0],"parents":[2147483647,0,0,1,1,2,2,4,4,5,5,7,7,8,8,11,11,12,12,13,13,14,14,15,15,16,16,17,17,18,18,19,19],"right_children":[2,4,6,-1,8,10,-1,12,14,-1,-1,16,18,20,22,24,26,28,30,32,-1,-1,-1,-1,-1,-1,-1,-1,-1,-1,-1,-1,-1],"split_conditions":[-1.3802736E-1,-1.3240997E-1,-1.3722625E-1,-2.6953256E-1,1.1850352E0,-3.4630105E-1,-3.004234E-1,-1.5578362E0,-8.012473E-3,3.535556E-2,-2.346995E-1,1.5988562E-1,-1.4925297E0,7.665133E-1,-7.1896754E-2,-5.6854916E-1,-3.2758534E-1,-3.0277967E-1,-1.2313038E0,2.0310472E-1,2.120631E-1,3.411609E-2,-4.3094423E-1,-1.625661E-2,1.4487374E-1,-7.5432324E-1,-9.890792E-2,7.655835E-2,2.4269196E-1,-2.2678876E-2,8.41661E-3,-4.0234447E-2,-4.9486315E-1],"split_indices":[12,1,12,0,0,15,0,0,9,0,0,17,0,11,3,8,11,10,0,11,0,0,0,0,0,0,0,0,0,0,0,0,0],"split_type":[0,0,0,0,0,0,0,0,0,0,0,0,0,0,0,0,0,0,0,0,0,0,0,0,0,0,0,0,0,0,0,0,0],"sum_hessian":[1.4500746E4,1.4057543E4,4.43203E2,6.0605307E0,1.4051482E4,5.2005615E0,4.3800244E2,1.3942543E4,1.08939705E2,1.6725293E0,3.528032E0,1.1533152E3,1.2789228E4,1.0360031E2,5.33939E0,1.1507313E3,2.583847E0,2.1023627E2,1.2578991E4,1.0051348E2,3.0868347E0,1.8255358E0,3.513854E0,1.121017E3,2.9714375E1,1.1704117E0,1.4134352E0,2.0519588E2,5.040394E0,7.637318E2,1.181526E4,9.749936E1,3.0141196E0],"tree_param":{"num_deleted":"0","num_feature":"18","num_nodes":"33","size_leaf_vector":"1"}},{"base_weights":[-1.0718213E-2,1.2492989E-2,-9.9368274E-1,1.3132031E-2,-5.1464355E-1,-4.6122393E-1,-2.9989856E-1,-8.626074E-1,1.3517018E-2,-7.501156E-1,5.777561E-1,4.751061E-2,-2.2501475E-1,-3.3563977E-1,-3.358646E-1,2.2040252E-1,1.1988241E-2,-8.311493E-1,3.348142E-2,2.2760369E-1,3.6496636E-2,-2.3208664E-1,8.804346E-2,-1.5873493E-1,3.1600064E-1,-7.153598E-2,1.7208353E-2,-2.8925067E-1,-5.082625E-1,1.9171078E-2,-1.5146215E-1,1.0374952E-1,-2.8978002E-1,-8.884596E-2,-1.6022934E-2,6.0882713E-3,-3.3962965E-2,7.541477E-2,-2.3021206E-1],"categories":[],"categories_nodes":[],"categories_segments":[],"categories_sizes":[],"default_left":[0,0,0,0,0,0,0,0,0,0,0,0,0,0,0,0,0,0,0,0,0,0,0,0,0,0,0,0,0,0,0,0,0,0,0,0,0,0,0],"id":17,"left_children":[1,3,5,7,9,11,-1,13,15,17,19,-1,-1,21,-1,23,25,27,-1,-1,-1,-1,-1,29,31,33,35,-1,37,-1,-1,-1,-1,-1,-1,-1,-1,-1,-1],"loss_changes":[3.2686667E2,4.721586E0,5.9106445E-1,4.7251134E0,4.799059E0,1.1077807E0,0E0,4.581194E-1,4.417452E0,1.0981054E0,2.026695E-1,0E0,0E0,1.1767783E0,0E0,3.7635984E0,6.0502515E0,8.025265E-2,0E0,0E0,0E0,0E0,0E0,1.6734911E0,3.4758682E0,3.3076015E0,5.2577405E0,0E0,1.3717388E0,0E0,0E0,0E0,0E0,0E0,0E0,0E0,0E0,0E0,0E0],"parents":[2147483647,0,0,1,1,2,2,3,3,4,4,5,5,7,7,8,8,9,9,10,10,13,13,15,15,16,16,17,17,23,23,24,24,25,25,26,26,28,28],"right_children":[2,4,6,8,10,12,-1,14,16,18,20,-1,-1,22,-1,24,26,28,-1,-1,-1,-1,-1,30,32,34,36,-1,38,-1,-1,-1,-1,-1,-1,-1,-1,-1,-1],"split_conditions":[-1.3802736E-1,-3.4528553E-1,-1.3722625E-1,-2.015186E-2,-1.8602584E-1,-2.5170693E-1,-2.9989856E-1,2.7074474E-1,-2.5374331E0,1.8048207E0,-3.4870312E-1,4.751061E-2,-2.2501475E-1,7.482537E-2,-3.358646E-1,-3.0598848E0,-1.6884491E0,-3.397522E-1,3.348142E-2,2.2760369E-1,3.6496636E-2,-2.3208664E-1,8.804346E-2,-3.1251912E0,-3.069164E-2,-2.4721267E0,1.3593027E-2,-2.8925067E-1,-3.283601E-1,1.9171078E-2,-1.5146215E-1,1.0374952E-1,-2.8978002E-1,-8.884596E-2,-1.6022934E-2,6.0882713E-3,-3.3962965E-2,7.541477E-2,-2.3021206E-1],"split_indices":[12,14,12,6,7,0,0,0,0,5,13,0,0,0,0,0,0,13,0,0,0,0,0,0,7,0,17,0,13,0,0,0,0,0,0,0,0,0,0],"split_type":[0,0,0,0,0,0,0,0,0,0,0,0,0,0,0,0,0,0,0,0,0,0,0,0,0,0,0,0,0,0,0,0,0,0,0,0,0,0,0],"sum_hessian":[1.4324792E4,1.3995302E4,3.2949033E2,1.397933E4,1.5971905E1,4.52654E0,3.249638E2,5.1586833E0,1.3974171E4,1.339737E1,2.574535E0,1.5827907E0,2.943749E0,2.446789E0,2.7118943E0,1.014543E2,1.3872717E4,1.2278236E1,1.1191335E0,1.3683467E0,1.2061883E0,1.3071076E0,1.1396816E0,2.029699E1,8.115731E1,8.152724E2,1.3057444E4,7.2892113E0,4.989025E0,1.2848282E1,7.448707E0,8.002532E1,1.1319933E0,5.9732903E1,7.555395E2,1.2756453E4,3.009917E2,1.2764976E0,3.7125275E0],"tree_param":{"num_deleted":"0","num_feature":"18","num_nodes":"39","size_leaf_vector":"1"}},{"base_weights":[-8.583063E-3,8.735055E-3,-9.898716E-1,-2.5706685E-1,9.091334E-3,-4.0530145E-1,-2.9936695E-1,9.729511E-3,-4.123607E-1,5.0990146E-2,-2.138946E-1,-3.0618915E-1,9.972548E-3,-5.117474E-1,-1.1067045E-1,8.775537E-3,2.4502182E-1,-1.8371084E-1,-7.7952397E-1,8.013074E-3,-4.6654373E-2,-1.0287792E-1,3.1139571E-3,-4.593734E-2,1.78278E-1,-2.2598249E-1,7.465972E-2,-2.6034358E-1,-7.409337E-2],"categories":[],"categories_nodes":[],"categories_segments":[],"categories_sizes":[],"default_left":[0,0,0,0,0,0,0,0,0,0,0,0,0,0,0,0,0,0,0,0,0,0,0,0,0,0,0,0,0],"id":18,"left_children":[1,3,5,-1,7,9,-1,11,13,-1,-1,-1,15,17,19,21,23,25,27,-1,-1,-1,-1,-1,-1,-1,-1,-1,-1],"loss_changes":[2.41177E2,4.3088512E0,7.49176E-1,0E0,3.753717E0,1.0086815E0,0E0,3.4963112E0,5.7607937E-1,0E0,0E0,0E0,3.91407E0,1.2268243E0,4.4228904E-2,7.818073E0,9.892183E0,2.236858E0,1.7491579E-1,0E0,0E0,0E0,0E0,0E0,0E0,0E0,0E0,0E0,0E0],"parents":[2147483647,0,0,1,1,2,2,4,4,5,5,7,7,8,8,12,12,13,13,14,14,15,15,16,16,17,17,18,18],"right_children":[2,4,6,-1,8,10,-1,12,14,-1,-1,-1,16,18,20,22,24,26,28,-1,-1,-1,-1,-1,-1,-1,-1,-1,-1],"split_conditions":[-1.3802736E-1,-1.3240997E-1,-1.3722625E-1,-2.5706685E-1,-1.3235489E-1,-3.4630105E-1,-2.9936695E-1,-2.019033E0,1.086434E0,5.0990146E-2,-2.138946E-1,-3.0618915E-1,1.0288386E0,-2.5170693E-1,-2.884151E-2,-3.264761E-1,-1.7951154E0,-6.435457E-1,1.0146651E0,8.013074E-3,-4.6654373E-2,-1.0287792E-1,3.1139571E-3,-4.593734E-2,1.78278E-1,-2.2598249E-1,7.465972E-2,-2.6034358E-1,-7.409337E-2],"split_indices":[12,1,12,0,1,15,0,6,0,0,0,0,9,0,3,17,17,0,0,0,0,0,0,0,0,0,0,0,0],"split_type":[0,0,0,0,0,0,0,0,0,0,0,0,0,0,0,0,0,0,0,0,0,0,0,0,0,0,0,0,0],"sum_hessian":[1.4190323E4,1.3945204E4,2.4511868E2,4.748198E0,1.3940456E4,4.014142E0,2.4110454E2,1.39203545E4,2.0101742E1,1.5547746E0,2.4593678E0,2.292621E0,1.3918062E4,1.4596806E1,5.5049357E0,1.3848574E4,6.948787E1,7.3180156E0,7.2787895E0,1.454236E0,4.0506997E0,6.191855E1,1.3786655E4,3.2732727E1,3.6755146E1,2.838827E0,4.479189E0,5.703659E0,1.5751306E0],"tree_param":{"num_deleted":"0","num_feature":"18","num_nodes":"29","size_leaf_vector":"1"}},{"base_weights":[-6.857989E-3,5.9332657E-3,-2.987812E-1,6.2920344E-3,-2.6467374E-1,6.652463E-3,-2.3306127E-1,7.0288195E-3,-6.613847E-1,6.5506077E-3,3.017796E-1,-1.2854698E0,3.9242044E-1,2.5374056E-3,-3.5086744E-2,-9.46108E-2,-4.4023514E-1,-6.810396E-3,2.0014891E-1],"categories":[],"categories_nodes":[],"categories_segments":[],"categories_sizes":[],"default_left":[0,0,0,0,0,0,0,0,0,0,0,0,0,0,0,0,0,0,0],"id":19,"left_children":[1,3,-1,5,-1,7,-1,9,11,13,-1,15,17,-1,-1,-1,-1,-1,-1],"loss_changes":[1.7828322E2,4.4387474E0,0E0,3.9309833E0,0E0,3.4999857E0,0E0,6.631132E0,5.659465E0,3.2731361E0,0E0,4.4759083E-1,4.350354E-1,0E0,0E0,0E0,0E0,0E0,0E0],"parents":[2147483647,0,0,1,1,3,3,5,5,7,7,8,8,9,9,11,11,12,12],"right_children":[2,4,-1,6,-1,8,-1,10,12,14,-1,16,18,-1,-1,-1,-1,-1,-1],"split_conditions":[-1.3722625E-1,-6.768385E-2,-2.987812E-1,-3.421328E-1,-2.6467374E-1,1.2822868E0,-2.3306127E-1,3.5808298E-1,2.6055998E-1,1.7798381E0,3.017796E-1,-6.620293E-2,2.5776505E-1,2.5374056E-3,-3.5086744E-2,-9.46108E-2,-4.4023514E-1,-6.810396E-3,2.0014891E-1],"split_indices":[12,4,0,2,0,8,0,8,7,11,0,17,11,0,0,0,0,0,0],"split_type":[0,0,0,0,0,0,0,0,0,0,0,0,0,0,0,0,0,0,0],"sum_hessian":[1.4090325E4,1.391141E4,1.7891513E2,1.3906786E4,4.62455E0,1.390138E4,5.406219E0,1.3894541E4,6.8383784E0,1.3888898E4,5.6425686E0,4.1568E0,2.6815784E0,1.3678581E4,2.1031802E2,1.0882977E0,3.0685022E0,1.4333035E0,1.2482748E0],"tree_param":{"num_deleted":"0","num_feature":"18","num_nodes":"19","size_leaf_vector":"1"}},{"base_weights":[-5.395065E-3,4.1278983E-3,-2.9809013E-1,4.4078175E-3,-2.494299E-1,-2.4376762E-1,4.686427E-3,6.008407E-3,-1.5706255E-1,1.6804825E-3,8.293747E-2,-1.08122595E-1,-6.7353266E-1,-1.2405016E-1,7.9208304E-4,4.159994E-1,1.7424151E-2,3.300916E-1,-4.555066E-2,-3.5088927E-1,-1.153919E-2],"categories":[],"categories_nodes":[],"categories_segments":[],"categories_sizes":[],"default_left":[0,0,0,0,0,0,0,0,0,0,0,0,0,0,0,0,0,0,0,0,0],"id":20,"left_children":[1,3,-1,5,-1,-1,7,9,11,13,15,17,19,-1,-1,-1,-1,-1,-1,-1,-1],"loss_changes":[1.3193845E2,3.2515526E0,0E0,3.163724E0,0E0,0E0,2.9686806E0,4.583646E0,2.772018E0,5.1954684E0,2.3682163E1,5.660766E0,2.9640522E0,0E0,0E0,0E0,0E0,0E0,0E0,0E0,0E0],"parents":[2147483647,0,0,1,1,3,3,6,6,7,7,8,8,9,9,10,10,11,11,12,12],"right_children":[2,4,-1,6,-1,-1,8,10,12,14,16,18,20,-1,-1,-1,-1,-1,-1,-1,-1],"split_conditions":[-1.3722625E-1,-6.768385E-2,-2.9809013E-1,-1.3240997E-1,-2.494299E-1,-2.4376762E-1,1.1850352E0,1.086434E0,1.7600937E-1,-5.3687975E-2,1.1197288E0,-3.2733705E-2,-3.2733705E-2,-1.2405016E-1,7.9208304E-4,4.159994E-1,1.7424151E-2,3.300916E-1,-4.555066E-2,-3.5088927E-1,-1.153919E-2],"split_indices":[12,4,0,1,0,0,0,0,8,3,0,3,3,0,0,0,0,0,0,0,0],"split_type":[0,0,0,0,0,0,0,0,0,0,0,0,0,0,0,0,0,0,0,0,0],"sum_hessian":[1.4018223E4,1.3885415E4,1.328082E2,1.3881759E4,3.6557708E0,3.7385423E0,1.38780205E4,1.376647E4,1.1155102E2,1.3034204E4,7.322648E2,1.0300022E2,8.5508E0,2.9070963E1,1.3005134E4,1.2675207E1,7.1958954E2,2.7519665E0,1.0024825E2,4.328083E0,4.222718E0],"tree_param":{"num_deleted":"0","num_feature":"18","num_nodes":"21","size_leaf_vector":"1"}},{"base_weights":[-4.182541E-3,2.906285E-3,-2.972348E-1,3.1838734E-3,-2.1352501E-1,1.9979414E-3,1.6640013E-1,4.5633493E-3,-2.968388E-1,3.4851122E-1,-1.5225412E-1,2.0158722E-3,3.2623196E-1,-7.4326617E-1,-1.7044266E-1,-5.6686234E-1,1.58703E-1,1.4142818E-3,-3.5617467E-2,3.1941783E-2,-3.3030197E-1,2.1170233E-1,-9.185385E-2,-1.02054216E-1,-2.7955428E-1,3.215147E-1,-2.4121584E-2],"categories":[],"categories_nodes":[],"categories_segments":[],"categories_sizes":[],"default_left":[0,0,0,0,0,0,0,0,0,0,0,0,0,0,0,0,0,0,0,0,0,0,0,0,0,0,0],"id":21,"left_children":[1,3,-1,5,-1,7,9,11,13,-1,15,17,-1,19,21,23,25,-1,-1,-1,-1,-1,-1,-1,-1,-1,-1],"loss_changes":[9.767606E1,2.7532022E0,0E0,2.6829576E0,0E0,1.0553057E1,3.188855E1,3.764567E1,6.4845552E0,0E0,9.968592E0,4.4368796E0,0E0,7.88573E0,1.1229328E1,2.4180021E0,9.815257E0,0E0,0E0,0E0,0E0,0E0,0E0,0E0,0E0,0E0,0E0],"parents":[2147483647,0,0,1,1,3,3,5,5,6,6,7,7,8,8,10,10,11,11,13,13,14,14,15,15,16,16],"right_children":[2,4,-1,6,-1,8,10,12,14,-1,16,18,-1,20,22,24,26,-1,-1,-1,-1,-1,-1,-1,-1,-1,-1],"split_conditions":[-1.3722625E-1,-3.421328E-1,-2.972348E-1,1.8728731E0,-2.1352501E-1,1.7798381E0,2.8418233E0,7.665133E-1,-7.6548064E-1,3.4851122E-1,2.942875E0,1.3593027E-2,3.2623196E-1,-1.949675E0,-5.7823926E-1,6.406019E-1,3.9038084E0,1.4142818E-3,-3.5617467E-2,3.1941783E-2,-3.3030197E-1,2.1170233E-1,-9.185385E-2,-1.02054216E-1,-2.7955428E-1,3.215147E-1,-2.4121584E-2],"split_indices":[12,2,0,11,0,11,11,11,0,0,11,17,0,0,0,0,11,0,0,0,0,0,0,0,0,0,0],"split_type":[0,0,0,0,0,0,0,0,0,0,0,0,0,0,0,0,0,0,0,0,0,0,0,0,0,0,0],"sum_hessian":[1.396461E4,1.3865979E4,9.863147E1,1.386159E4,4.388606E0,1.3762604E4,9.898705E1,1.36464375E4,1.16165115E2,2.3364212E1,7.562284E1,1.3615409E4,3.1028519E1,2.4555475E1,9.160964E1,3.2057148E1,4.3565697E1,1.3318714E4,2.9669513E2,7.4831543E0,1.707232E1,1.1725868E1,7.988377E1,2.0967121E1,1.1090027E1,8.318842E0,3.5246853E1],"tree_param":{"num_deleted":"0","num_feature":"18","num_nodes":"27","size_leaf_vector":"1"}},{"base_weights":[-2.9876167E-3,2.291363E-3,-2.9614443E-1,-1.0573518E-2,1.7738083E-2,-4.61247E-3,-1.7229383E-1,1.4869238E-1,2.9516818E-3,-5.4328647E-3,3.0121684E-1,-6.4610904E-1,-1.3038754E-1,1.2575363E-1,3.206956E-1,-2.2444282E-1,1.5277302E-2,-1.0294383E-2,1.15140386E-1,-1.1217278E-1,-4.6130314E-1,3.109195E-1,1.0897323E-1,-2.4952662E-1,2.779648E-1,3.0393356E-1,1.3757009E-2,3.3809913E-3,-1.334093E-2,3.4749633E-1,2.27746E-2,-2.82175E-2,-3.6588615E-1,-2.752324E-1,3.6258124E-2,-7.0736766E-2,-3.2472777E-1,5.6374767E-3,-4.64749E-2],"categories":[],"categories_nodes":[],"categories_segments":[],"categories_sizes":[],"default_left":[0,0,0,0,0,0,0,0,0,0,0,0,0,0,0,0,0,0,0,0,0,0,0,0,0,0,0,0,0,0,0,0,0,0,0,0,0,0,0],"id":22,"left_children":[1,3,-1,5,7,9,11,13,15,17,-1,-1,19,21,-1,23,25,27,29,31,-1,-1,33,35,-1,-1,37,-1,-1,-1,-1,-1,-1,-1,-1,-1,-1,-1,-1],"loss_changes":[7.235235E1,2.7529786E0,0E0,7.2858257E0,1.21889105E1,6.038703E0,2.2028404E1,1.3347811E1,1.5859813E1,4.271984E0,0E0,0E0,6.5993004E0,9.4263115E0,0E0,8.631223E0,8.128461E0,5.162596E0,1.1470247E1,5.138827E0,0E0,0E0,7.603364E0,3.011776E0,0E0,0E0,4.5548587E0,0E0,0E0,0E0,0E0,0E0,0E0,0E0,0E0,0E0,0E0,0E0,0E0],"parents":[2147483647,0,0,1,1,3,3,4,4,5,5,6,6,7,7,8,8,9,9,12,12,13,13,15,15,16,16,17,17,18,18,19,19,22,22,23,23,26,26],"right_children":[2,4,-1,6,8,10,12,14,16,18,-1,-1,20,22,-1,24,26,28,30,32,-1,-1,34,36,-1,-1,38,-1,-1,-1,-1,-1,-1,-1,-1,-1,-1,-1,-1],"split_conditions":[-1.3722625E-1,3.4399772E-1,-2.9614443E-1,3.3605123E-1,5.319706E-1,2.9943097E-1,-2.9200304E-2,4.6905676E-1,5.6698424E-1,2.2128728E-1,3.0121684E-1,-6.4610904E-1,1.7798381E0,4.0135768E-1,3.206956E-1,2.9939353E-1,5.9727705E-1,-5.129328E-1,2.7074474E-1,4.5159377E-2,-4.6130314E-1,3.109195E-1,-3.6211857E-1,8.821097E-1,2.779648E-1,3.0393356E-1,1.3593027E-2,3.3809913E-3,-1.334093E-2,3.4749633E-1,2.27746E-2,-2.82175E-2,-3.6588615E-1,-2.752324E-1,3.6258124E-2,-7.0736766E-2,-3.2472777E-1,5.6374767E-3,-4.64749E-2],"split_indices":[12,0,0,0,0,0,3,0,0,0,0,0,11,0,0,7,0,0,0,9,0,0,17,11,0,0,17,0,0,0,0,0,0,0,0,0,0,0,0],"split_type":[0,0,0,0,0,0,0,0,0,0,0,0,0,0,0,0,0,0,0,0,0,0,0,0,0,0,0,0,0,0,0,0,0,0,0,0,0,0,0],"sum_hessian":[1.39248955E4,1.3851595E4,7.3301476E1,7.5575586E3,6.2940356E3,7.2898804E3,2.6767816E2,6.3765466E2,5.6563813E3,7.2849497E3,4.930556E0,4.500355E0,2.631778E2,6.2325635E2,1.4398326E1,2.8994766E2,5.3664336E3,7.003484E3,2.8146616E2,2.608809E2,2.2969124E0,1.0177507E1,6.1307886E2,2.8453003E2,5.417613E0,7.1515703E0,5.3592817E3,4.2944165E3,2.7090671E3,9.166091E0,2.7230005E2,2.5774982E2,3.1310644E0,6.14679E0,6.0693207E2,2.8117557E2,3.3544707E0,5.2048164E3,1.5446532E2],"tree_param":{"num_deleted":"0","num_feature":"18","num_nodes":"39","size_leaf_vector":"1"}},{"base_weights":[-2.1001564E-3,1.8331036E-3,-2.9473227E-1,-2.7206254E-1,2.0257924E-3,2.2453987E-3,-2.3369469E-1,2.5507535E-3,-5.5464214E-1,2.2088734E-3,2.7709234E-1,-9.612199E-1,8.561398E-2,7.6273415E-4,-1.8619089E-1,-8.118567E-2,-3.200322E-1],"categories":[],"categories_nodes":[],"categories_segments":[],"categories_sizes":[],"default_left":[0,0,0,0,0,0,0,0,0,0,0,0,0,0,0,0,0],"id":23,"left_children":[1,3,-1,-1,5,7,-1,9,11,13,-1,15,-1,-1,-1,-1,-1],"loss_changes":[5.3582245E1,2.4253757E0,0E0,0E0,2.375355E0,2.3542404E0,0E0,4.3529468E0,2.8655849E0,2.8740315E0,0E0,1.0068607E-1,0E0,0E0,0E0,0E0,0E0],"parents":[2147483647,0,0,1,1,4,4,5,5,7,7,8,8,9,9,11,11],"right_children":[2,4,-1,-1,6,8,-1,10,12,14,-1,16,-1,-1,-1,-1,-1],"split_conditions":[-1.3722625E-1,-2.019033E0,-2.9473227E-1,-2.7206254E-1,-6.768385E-2,1.2822868E0,-2.3369469E-1,3.5808298E-1,2.6055998E-1,3.152234E0,2.7709234E-1,-6.620293E-2,8.561398E-2,7.6273415E-4,-1.8619089E-1,-8.118567E-2,-3.200322E-1],"split_indices":[12,6,0,0,4,8,0,8,7,17,0,17,0,0,0,0,0],"split_type":[0,0,0,0,0,0,0,0,0,0,0,0,0,0,0,0,0],"sum_hessian":[1.3894578E4,1.3840048E4,5.453002E1,1.9365585E0,1.3838111E4,1.3835219E4,2.893106E0,1.3828631E4,6.587151E0,1.3824502E4,4.12883E0,4.341533E0,2.2456179E0,1.3818098E4,6.404567E0,1.048087E0,3.2934463E0],"tree_param":{"num_deleted":"0","num_feature":"18","num_nodes":"17","size_leaf_vector":"1"}},{"base_weights":[-1.6946391E-3,1.2380531E-3,-2.9289162E-1,6.8334246E-4,3.059545E-1,1.2004799E-3,-1.4194108E0,6.240007E-1,-3.1418708E-1,-2.2904097E-1,1.4181468E-3,-2.3065708E0,1.1732776E-1,2.5097522E-1,9.1206443E-1,-1.0009037E0,7.067509E-1,1.5560266E-1,3.491246E-4,-1.0084646E0,-7.231611E-2,7.558757E-1,-4.152598E-1,2.4111705E-2,3.015621E-1,-1.4187388E-1,-4.391598E-1,2.4878459E-1,5.4188874E-2,1.0230897E-2,1.0464878E-1,-1.8694693E-2,1.3007642E-3,2.6678315E-1,5.779929E-2,-2.9124796E-1,5.1885962E-2,-2.4776687E-1,1.8300214E-1],"categories":[],"categories_nodes":[],"categories_segments":[],"categories_sizes":[],"default_left":[0,0,0,0,0,0,0,0,0,0,0,0,0,0,0,0,0,0,0,0,0,0,0,0,0,0,0,0,0,0,0,0,0,0,0,0,0,0,0],"id":24,"left_children":[1,3,-1,5,7,9,11,13,15,-1,17,19,-1,21,23,25,27,29,31,-1,-1,33,35,-1,-1,37,-1,-1,-1,-1,-1,-1,-1,-1,-1,-1,-1,-1,-1],"loss_changes":[3.9652084E1,2.3377879E0,0E0,1.0141901E1,5.1528916E0,2.2986228E0,8.976815E0,1.5921354E0,7.1468153E0,0E0,2.274686E0,6.857683E0,0E0,3.2619867E0,6.3056517E-1,2.1407642E0,1.2610364E-1,2.2190099E0,3.4246225E0,0E0,0E0,2.2990322E-1,1.6135751E0,0E0,0E0,2.1368432E0,0E0,0E0,0E0,0E0,0E0,0E0,0E0,0E0,0E0,0E0,0E0,0E0,0E0],"parents":[2147483647,0,0,1,1,3,3,4,4,5,5,6,6,7,7,8,8,10,10,11,11,13,13,14,14,15,15,16,16,17,17,18,18,21,21,22,22,25,25],"right_children":[2,4,-1,6,8,10,12,14,16,-1,18,20,-1,22,24,26,28,30,32,-1,-1,34,36,-1,-1,38,-1,-1,-1,-1,-1,-1,-1,-1,-1,-1,-1,-1,-1],"split_conditions":[-1.3722625E-1,2.04839E0,-2.9289162E-1,1.5962129E0,3.152234E0,-1.3240997E-1,-3.2758534E-1,3.949747E0,-3.2758534E-1,-2.2904097E-1,-2.5374331E0,1.689308E0,1.1732776E-1,2.6867576E0,9.560309E-2,4.176577E-1,7.56699E-1,-2.7333524E0,-1.6884491E0,-1.0084646E0,-7.231611E-2,6.981514E-1,4.6905676E-1,2.4111705E-2,3.015621E-1,9.560309E-2,-4.391598E-1,2.4878459E-1,5.4188874E-2,1.0230897E-2,1.0464878E-1,-1.8694693E-2,1.3007642E-3,2.6678315E-1,5.779929E-2,-2.9124796E-1,5.1885962E-2,-2.4776687E-1,1.8300214E-1],"split_indices":[12,17,0,17,17,1,11,7,11,0,0,17,0,17,0,0,0,0,0,0,0,0,0,0,0,0,0,0,0,0,0,0,0,0,0,0,0,0,0],"split_type":[0,0,0,0,0,0,0,0,0,0,0,0,0,0,0,0,0,0,0,0,0,0,0,0,0,0,0,0,0,0,0,0,0,0,0,0,0,0,0],"sum_hessian":[1.3871512E4,1.3830893E4,4.0619682E1,1.3806761E4,2.4131804E1,1.3802733E4,4.0272093E0,1.5946994E1,8.184809E0,2.9300303E0,1.3799804E4,2.518924E0,1.5082855E0,7.7641397E0,8.182854E0,4.9051E0,3.2797093E0,9.402531E1,1.3705778E4,1.2519966E0,1.2669272E0,4.3403187E0,3.4238212E0,1.0117334E0,7.17112E0,2.1752868E0,2.729813E0,2.1927993E0,1.08691E0,5.8449265E1,3.5576042E1,8.189349E2,1.2886844E4,3.041074E0,1.2992444E0,1.4262561E0,1.9975652E0,1.0875075E0,1.0877794E0],"tree_param":{"num_deleted":"0","num_feature":"18","num_nodes":"39","size_leaf_vector":"1"}},{"base_weights":[-1.2988852E-3,8.913857E-4,-2.9049274E-1,-1.0063567E-1,2.394705E-3,-1.7641978E-2,-5.834887E-1,4.6861586E-1,1.399252E-3,-1.5914553E-1,6.7629063E-1,1.3652273E-1,-8.54655E-1,-2.1133091E-2,7.313359E-1,-1.4221194E-1,2.8552862E-3,-7.098478E-1,-6.125082E-3,7.79857E-1,-1.5416083E-1,2.548885E-1,-8.333135E-1,-3.0975947E-1,-1.5038698E0,-2.7599502E-1,1.6676731E-1,3.5853124E-1,8.0188364E-1,4.50967E-2,-4.2561725E-1,1.4033108E-3,1.380385E-1,-1.1125443E-1,-4.7810283E-1,8.31328E-2,-4.668115E-2,2.849931E-1,1.722026E-1,-2.4850394E-1,1.3853036E-1,-3.1618845E-2,-3.307567E-1,-1.8338485E-1,2.3653433E-1,-2.3524544E-1,-6.2658703E-1,1.4470544E-1,-3.4601495E-2,2.4021849E-1,-7.8306906E-2,2.5028744E-1,5.60799E-2,-5.517372E-3,4.7506133E-1,-2.2480683E-3,-2.7744776E-1,4.9268914E-4,-2.3107779E-1,-6.2143773E-2,9.243837E-2],"categories":[],"categories_nodes":[],"categories_segments":[],"categories_sizes":[],"default_left":[0,0,0,0,0,0,0,0,0,0,0,0,0,0,0,0,0,0,0,0,0,0,0,0,0,0,0,0,0,0,0,0,0,0,0,0,0,0,0,0,0,0,0,0,0,0,0,0,0,0,0,0,0,0,0,0,0,0,0,0,0],"id":25,"left_children":[1,3,-1,5,7,9,11,13,15,17,19,21,23,25,27,29,31,33,35,37,39,-1,41,43,45,-1,47,49,51,53,55,57,59,-1,-1,-1,-1,-1,-1,-1,-1,-1,-1,-1,-1,-1,-1,-1,-1,-1,-1,-1,-1,-1,-1,-1,-1,-1,-1,-1,-1],"loss_changes":[2.9346176E1,2.1102858E0,0E0,8.074234E0,6.3222847E0,1.7113115E1,5.8877764E0,3.74994E0,2.843374E0,1.21858835E1,2.659459E0,6.8970184E0,7.17867E0,2.0291007E0,2.1007347E-1,7.2642665E0,2.6418784E0,8.830932E0,4.8785925E0,3.7973022E-1,2.088604E0,0E0,7.2579074E-1,4.7894235E0,2.4030685E0,0E0,9.487629E-1,1.5292764E0,1.4496994E-1,8.143452E0,1.1349188E1,2.4574218E0,8.461455E0,0E0,0E0,0E0,0E0,0E0,0E0,0E0,0E0,0E0,0E0,0E0,0E0,0E0,0E0,0E0,0E0,0E0,0E0,0E0,0E0,0E0,0E0,0E0,0E0,0E0,0E0,0E0,0E0],"parents":[2147483647,0,0,1,1,3,3,4,4,5,5,6,6,7,7,8,8,9,9,10,10,11,11,12,12,13,13,14,14,15,15,16,16,17,17,18,18,19,19,20,20,22,22,23,23,24,24,26,26,27,27,28,28,29,29,30,30,31,31,32,32],"right_children":[2,4,-1,6,8,10,12,14,16,18,20,22,24,26,28,30,32,34,36,38,40,-1,42,44,46,-1,48,50,52,54,56,58,60,-1,-1,-1,-1,-1,-1,-1,-1,-1,-1,-1,-1,-1,-1,-1,-1,-1,-1,-1,-1,-1,-1,-1,-1,-1,-1,-1,-1],"split_conditions":[-1.3722625E-1,-1.4599888E-1,-2.9049274E-1,9.8911583E-1,-1.0610091E-1,8.828418E-1,-2.9290002E-2,-6.620402E-2,-3.2733705E-2,8.695027E-2,1.2548189E0,3.2564232E-1,1.0544223E0,-8.012473E-3,4.176577E-1,1.0544223E0,-2.974502E-2,7.2788996E-1,-3.8231987E-1,4.5159377E-2,2.2119122E0,2.548885E-1,3.1866416E-2,1.0146651E0,-2.1249552E-1,-2.7599502E-1,9.8911583E-1,-1.4384993E0,5.538191E-1,1.0146651E0,-6.620293E-2,-3.421328E-1,2.2128728E-1,-1.1125443E-1,-4.7810283E-1,8.31328E-2,-4.668115E-2,2.849931E-1,1.722026E-1,-2.4850394E-1,1.3853036E-1,-3.1618845E-2,-3.307567E-1,-1.8338485E-1,2.3653433E-1,-2.3524544E-1,-6.2658703E-1,1.4470544E-1,-3.4601495E-2,2.4021849E-1,-7.8306906E-2,2.5028744E-1,5.60799E-2,-5.517372E-3,4.7506133E-1,-2.2480683E-3,-2.7744776E-1,4.9268914E-4,-2.3107779E-1,-6.2143773E-2,9.243837E-2],"split_indices":[12,17,0,0,17,0,3,3,3,9,9,8,0,9,0,0,9,0,0,9,9,0,9,0,17,0,0,0,11,0,17,2,0,0,0,0,0,0,0,0,0,0,0,0,0,0,0,0,0,0,0,0,0,0,0,0,0,0,0,0,0],"split_type":[0,0,0,0,0,0,0,0,0,0,0,0,0,0,0,0,0,0,0,0,0,0,0,0,0,0,0,0,0,0,0,0,0,0,0,0,0,0,0,0,0,0,0,0,0,0,0,0,0,0,0,0,0,0,0,0,0,0,0,0,0],"sum_hessian":[1.3854105E4,1.3823794E4,3.0311712E1,2.0074123E2,1.3623053E4,1.7218268E2,2.8558548E1,2.802445E1,1.3595028E4,1.4365904E2,2.8523634E1,7.9488873E0,2.060966E1,1.0105627E1,1.7918823E1,1.3548248E2,1.3459546E4,3.0446573E1,1.1321247E2,2.5415026E1,3.1086078E0,4.6521673E0,3.29672E0,1.2008162E1,8.601499E0,1.0736303E0,9.031997E0,3.8191106E0,1.4099712E1,8.207694E1,5.340554E1,1.3317516E4,1.4203035E2,2.3032036E1,7.414537E0,3.8813766E1,7.4398705E1,1.193588E1,1.3479146E1,1.3194667E0,1.789141E0,1.2657483E0,2.0309718E0,9.76929E0,2.2388713E0,4.9051747E0,3.6963239E0,3.9280095E0,5.1039877E0,2.0578947E0,1.761216E0,1.3055033E1,1.0446795E0,7.977294E1,2.304001E0,2.9615448E1,2.3790094E1,1.331439E4,3.1256347E0,4.6811615E1,9.521873E1],"tree_param":{"num_deleted":"0","num_feature":"18","num_nodes":"61","size_leaf_vector":"1"}},{"base_weights":[-9.126285E-4,7.2778686E-4,-2.873819E-1,9.047277E-4,-2.1905105E-1,-4.170173E-5,1.3748556E-1,1.6615941E-3,-1.90665E-1,3.275991E-1,-1.0142842E-1,-2.151894E-4,3.1314924E-1,-1.14951044E-1,-7.390778E-1,-3.7479076E-1,1.2497544E-1,1.0929676E-3,-2.2563882E-2,-1.0457487E-1,2.2077288E-2,-3.7267804E-1,-1.2758379E-2,-1.2957466E-1,1.7591424E-1,3.0003363E-1,-1.8506294E-2],"categories":[],"categories_nodes":[],"categories_segments":[],"categories_sizes":[],"default_left":[0,0,0,0,0,0,0,0,0,0,0,0,0,0,0,0,0,0,0,0,0,0,0,0,0,0,0],"id":26,"left_children":[1,3,-1,5,-1,7,9,11,13,-1,15,17,-1,19,21,23,25,-1,-1,-1,-1,-1,-1,-1,-1,-1,-1],"loss_changes":[2.1719164E1,1.7868348E0,0E0,1.7850261E0,0E0,4.453431E0,2.1782246E1,2.659023E1,4.958901E0,0E0,4.8075457E0,3.92739E0,0E0,4.7795076E0,5.047494E0,2.1803331E0,7.0573373E0,0E0,0E0,0E0,0E0,0E0,0E0,0E0,0E0,0E0,0E0],"parents":[2147483647,0,0,1,1,3,3,5,5,6,6,7,7,8,8,10,10,11,11,13,13,14,14,15,15,16,16],"right_children":[2,4,-1,6,-1,8,10,12,14,-1,16,18,-1,20,22,24,26,-1,-1,-1,-1,-1,-1,-1,-1,-1,-1],"split_conditions":[-1.3722625E-1,-6.768385E-2,-2.873819E-1,1.8728731E0,-2.1905105E-1,1.7798381E0,2.8418233E0,7.665133E-1,-2.054426E-1,3.275991E-1,2.942875E0,7.178529E-1,3.1314924E-1,9.560309E-2,8.828418E-1,-3.069164E-2,3.9038084E0,1.0929676E-3,-2.2563882E-2,-1.0457487E-1,2.2077288E-2,-3.7267804E-1,-1.2758379E-2,-1.2957466E-1,1.7591424E-1,3.0003363E-1,-1.8506294E-2],"split_indices":[12,4,0,11,0,11,11,11,7,0,11,11,0,0,0,7,11,0,0,0,0,0,0,0,0,0,0],"split_type":[0,0,0,0,0,0,0,0,0,0,0,0,0,0,0,0,0,0,0,0,0,0,0,0,0,0,0],"sum_hessian":[1.3833108E4,1.3810436E4,2.2672874E1,1.3808092E4,2.3439982E0,1.3714061E4,9.403114E1,1.3593588E4,1.2047289E2,1.8109446E1,7.59217E1,1.357015E4,2.3437923E1,1.06920975E2,1.355192E1,3.4097103E1,4.18246E1,1.290707E4,6.6307947E2,4.737161E1,5.9549366E1,7.4132195E0,6.1387E0,3.2704056E1,1.3930452E0,6.5866094E0,3.523799E1],"tree_param":{"num_deleted":"0","num_feature":"18","num_nodes":"27","size_leaf_vector":"1"}},{"base_weights":[-5.401642E-4,6.918838E-4,-2.833843E-1,-2.4439907E-1,8.4741483E-4,2.0168696E-1,1.1542067E-4,8.058602E-1,-9.744905E-2,-5.161278E-1,8.064887E-4,3.2477418E-1,9.29605E-1,-1.4779614E0,2.3654743E-1,-6.963295E-1,5.825831E-1,4.8096845E-4,5.716566E-1,2.3932786E-1,-1.5627768E-2,8.917132E-2,2.9171643E-1,-5.5900085E-1,-1.5036596E-1,2.893683E-1,-2.804255E-2,-3.508482E-1,-1.6882917E-2,2.4521486E-1,1.4633516E-2,2.2352727E-4,-1.8196186E-1,3.1784463E-1,-8.220099E-2],"categories":[],"categories_nodes":[],"categories_segments":[],"categories_sizes":[],"default_left":[0,0,0,0,0,0,0,0,0,0,0,0,0,0,0,0,0,0,0,0,0,0,0,0,0,0,0,0,0,0,0,0,0,0,0],"id":27,"left_children":[1,3,-1,-1,5,7,9,11,13,15,17,19,21,23,25,27,29,31,33,-1,-1,-1,-1,-1,-1,-1,-1,-1,-1,-1,-1,-1,-1,-1,-1],"loss_changes":[1.6074049E1,1.750953E0,0E0,0E0,2.0288012E0,9.135674E0,4.906268E0,6.9247913E-1,1.6215929E1,4.045689E0,2.5517793E0,9.2469186E-1,5.5891037E-2,1.6412344E0,6.954262E0,4.8554935E0,3.5305464E-1,2.2012622E0,3.5188828E0,0E0,0E0,0E0,0E0,0E0,0E0,0E0,0E0,0E0,0E0,0E0,0E0,0E0,0E0,0E0,0E0],"parents":[2147483647,0,0,1,1,4,4,5,5,6,6,7,7,8,8,9,9,10,10,11,11,12,12,13,13,14,14,15,15,16,16,17,17,18,18],"right_children":[2,4,-1,-1,6,8,10,12,14,16,18,20,22,24,26,28,30,32,34,-1,-1,-1,-1,-1,-1,-1,-1,-1,-1,-1,-1,-1,-1,-1,-1],"split_conditions":[-1.3722625E-1,-2.019033E0,-2.833843E-1,-2.4439907E-1,-1.249843E0,1.5871431E0,-7.045706E-1,-8.394651E-1,2.5043573E0,-2.054426E-1,2.1121926E0,-1.4272232E0,1.0953034E0,-3.2758534E-1,3.4348648E0,9.7566676E-1,-8.894196E-2,1.2782971E0,4.4714727E0,2.3932786E-1,-1.5627768E-2,8.917132E-2,2.9171643E-1,-5.5900085E-1,-1.5036596E-1,2.893683E-1,-2.804255E-2,-3.508482E-1,-1.6882917E-2,2.4521486E-1,1.4633516E-2,2.2352727E-4,-1.8196186E-1,3.1784463E-1,-8.220099E-2],"split_indices":[12,6,0,0,17,9,17,0,9,7,10,0,9,11,9,9,7,8,10,0,0,0,0,0,0,0,0,0,0,0,0,0,0,0,0],"split_type":[0,0,0,0,0,0,0,0,0,0,0,0,0,0,0,0,0,0,0,0,0,0,0,0,0,0,0,0,0,0,0,0,0,0,0],"sum_hessian":[1.3817917E4,1.3800905E4,1.7011372E1,1.6332849E0,1.3799272E4,4.911423E1,1.3750158E4,1.5703494E1,3.341074E1,1.738491E1,1.3732772E4,3.9544034E0,1.1749091E1,5.8413835E0,2.7569355E1,1.5249966E1,2.134945E0,1.3725946E4,6.826209E0,1.2583251E0,2.6960783E0,1.2481406E0,1.0500951E1,3.5378242E0,2.3035593E0,7.9996996E0,1.9569654E1,8.292491E0,6.9574747E0,1.113792E0,1.0211529E0,1.3720976E4,4.9714007E0,4.1686463E0,2.6575627E0],"tree_param":{"num_deleted":"0","num_feature":"18","num_nodes":"35","size_leaf_vector":"1"}},{"base_weights":[-4.1088162E-4,5.17619E-4,-2.783134E-1,-2.1449234E-1,6.9122104E-4,1.6830434E-3,-1.18467934E-1,-1.2307793E-3,5.4611553E-2,-1.409027E-1,1.9641599E-1,-2.2800185E-1,-2.0737463E-4,3.848742E-1,3.51459E-2,-1.0083375E-1,-2.8427023E-1,-1.785069E-1,2.2172913E-2,-8.212307E-4,2.1830605E-2,1.9105885E-2,-9.32287E-2,-2.1450572E-2,-2.3897555E-1],"categories":[],"categories_nodes":[],"categories_segments":[],"categories_sizes":[],"default_left":[0,0,0,0,0,0,0,0,0,0,0,0,0,0,0,0,0,0,0,0,0,0,0,0,0],"id":28,"left_children":[1,3,-1,-1,5,7,9,11,13,15,-1,17,19,-1,21,23,-1,-1,-1,-1,-1,-1,-1,-1,-1],"loss_changes":[1.1890687E1,1.7142271E0,0E0,0E0,1.6305127E0,2.1101227E0,2.067748E0,3.0097346E0,1.7024708E1,3.5082953E0,0E0,6.5000486E0,2.3841069E0,0E0,6.9681315E0,2.1336071E0,0E0,0E0,0E0,0E0,0E0,0E0,0E0,0E0,0E0],"parents":[2147483647,0,0,1,1,4,4,5,5,6,6,7,7,8,8,9,9,11,11,12,12,14,14,15,15],"right_children":[2,4,-1,-1,6,8,10,12,14,16,-1,18,20,-1,22,24,-1,-1,-1,-1,-1,-1,-1,-1,-1],"split_conditions":[-1.3722625E-1,-1.3240997E-1,-2.783134E-1,-2.1449234E-1,1.1850352E0,1.086434E0,7.665133E-1,-4.2834464E-2,1.1197288E0,2.0310472E-1,1.9641599E-1,8.828418E-1,-1.2777552E-1,3.848742E-1,2.3998772E-1,-3.2023208E-3,-2.8427023E-1,-1.785069E-1,2.2172913E-2,-8.212307E-4,2.1830605E-2,1.9105885E-2,-9.32287E-2,-2.1450572E-2,-2.3897555E-1],"split_indices":[12,1,0,0,0,0,11,3,0,11,0,0,7,0,11,9,0,0,0,0,0,0,0,0,0],"split_type":[0,0,0,0,0,0,0,0,0,0,0,0,0,0,0,0,0,0,0,0,0,0,0,0,0],"sum_hessian":[1.3808781E4,1.3795967E4,1.2814382E1,2.347754E0,1.3793619E4,1.3680733E4,1.1288583E2,1.2967806E4,7.129275E2,1.1049741E2,2.3884208E0,5.726362E1,1.2910542E4,1.0109371E1,7.028181E2,1.0634024E2,4.1571712E0,2.5406794E1,3.1856823E1,1.2478865E4,4.3167654E2,6.500032E2,5.2814922E1,1.0309661E2,3.2436314E0],"tree_param":{"num_deleted":"0","num_feature":"18","num_nodes":"25","size_leaf_vector":"1"}},{"base_weights":[-3.2534517E-4,4.4329863E-4,-8.66531E-1,6.8435096E-4,-2.3421343E-1,-7.5142324E-2,-2.7329457E-1,2.2240405E-3,-6.539297E-2,-1.5136713E-2,1.0980709E-2,-6.94063E-1,2.1240262E-2,7.164776E-3,-3.3930376E-1,1.3280186E-1,1.4550939E-3,-4.9108094E-1,-6.470926E-1,2.5475767E-1,-7.817675E-2,-1.2634081E-3,9.4099395E-2,-8.6037025E-2,-3.135993E-1,4.2977557E-2,-3.5285777E-1,-2.1786455E-2,3.7821743E-3,-2.206056E-1,1.9196315E-1,1.3155623E-1,-8.249344E-2,-3.0569956E-1,1.7564254E-3],"categories":[],"categories_nodes":[],"categories_segments":[],"categories_sizes":[],"default_left":[0,0,0,0,0,0,0,0,0,0,0,0,0,0,0,0,0,0,0,0,0,0,0,0,0,0,0,0,0,0,0,0,0,0,0],"id":29,"left_children":[1,3,5,7,-1,-1,-1,9,11,13,15,17,19,21,23,25,27,29,-1,31,33,-1,-1,-1,-1,-1,-1,-1,-1,-1,-1,-1,-1,-1,-1],"loss_changes":[9.187437E0,2.596654E0,1.0684013E-1,1.4025053E0,0E0,0E0,0E0,2.0480678E0,1.711111E1,3.2657703E1,1.0391435E1,1.0238861E1,6.447294E0,1.4740772E1,1.0480873E1,9.057738E0,6.863124E0,1.0058606E1,0E0,8.191174E0,1.5418424E1,0E0,0E0,0E0,0E0,0E0,0E0,0E0,0E0,0E0,0E0,0E0,0E0,0E0,0E0],"parents":[2147483647,0,0,1,1,2,2,3,3,7,7,8,8,9,9,10,10,11,11,12,12,13,13,14,14,15,15,16,16,17,17,19,19,20,20],"right_children":[2,4,6,8,-1,-1,-1,10,12,14,16,18,20,22,24,26,28,30,-1,32,34,-1,-1,-1,-1,-1,-1,-1,-1,-1,-1,-1,-1,-1,-1],"split_conditions":[-3.421328E-1,-6.768385E-2,-1.3235489E-1,1.3593027E-2,-2.3421343E-1,-7.5142324E-2,-2.7329457E-1,-3.8231987E-1,4.939488E-2,-5.129328E-1,-1.8640047E-1,1.0458157E0,7.482537E-2,-5.7823926E-1,6.952468E-1,1.6711704E0,9.560309E-2,9.481128E-1,-6.470926E-1,2.0230965E-1,2.2128728E-1,-1.2634081E-3,9.4099395E-2,-8.6037025E-2,-3.135993E-1,4.2977557E-2,-3.5285777E-1,-2.1786455E-2,3.7821743E-3,-2.206056E-1,1.9196315E-1,1.3155623E-1,-8.249344E-2,-3.0569956E-1,1.7564254E-3],"split_indices":[2,4,1,17,0,0,0,0,17,0,0,0,0,0,11,11,0,0,0,7,0,0,0,0,0,0,0,0,0,0,0,0,0,0,0],"split_type":[0,0,0,0,0,0,0,0,0,0,0,0,0,0,0,0,0,0,0,0,0,0,0,0,0,0,0,0,0,0,0,0,0,0,0],"sum_hessian":[1.3797444E4,1.378621E4,1.1233964E1,1.3782956E4,3.2540839E0,1.2025363E0,1.0031427E1,1.3470052E4,3.129038E2,4.516005E3,8.954047E3,3.7047836E1,2.7585596E2,4.2262334E3,2.8977127E2,6.4843274E2,8.305614E3,3.3706657E1,3.3411803E0,8.190633E1,1.9394965E2,4.0759363E3,1.5029735E2,2.710193E2,1.8751986E1,6.4417737E2,4.2553296E0,1.0860656E3,7.219549E3,2.8007277E1,5.699381E0,6.0939026E1,2.0967297E1,1.4990355E1,1.7895929E2],"tree_param":{"num_deleted":"0","num_feature":"18","num_nodes":"35","size_leaf_vector":"1"}},{"base_weights":[-9.8981196E-5,4.5465218E-4,-2.6594624E-1,6.469781E-4,-2.2042863E-1,1.8036367E-4,2.760479E-1,5.680232E-4,-8.755981E-1,4.5338947E-1,-5.932522E-1,7.941528E-4,-4.993594E-1,-1.3052025E0,9.946362E-2,-1.955116E-1,5.619925E-1,1.2975529E-2,-2.95496E-1,1.7021275E-4,2.488399E-1,-3.008737E-1,-5.249859E-2,-5.024113E-1,-6.154245E-2,2.367321E-1,9.839074E-2],"categories":[],"categories_nodes":[],"categories_segments":[],"categories_sizes":[],"default_left":[0,0,0,0,0,0,0,0,0,0,0,0,0,0,0,0,0,0,0,0,0,0,0,0,0,0,0],"id":30,"left_children":[1,3,-1,5,-1,7,9,11,13,15,17,19,21,23,-1,-1,25,-1,-1,-1,-1,-1,-1,-1,-1,-1,-1],"loss_changes":[6.767538E0,1.9492967E0,0E0,1.7707125E0,0E0,4.6711516E0,3.8620172E0,1.5550617E0,3.589707E0,2.7575288E0,1.1352758E0,2.5829158E0,8.403115E-1,1.563746E0,0E0,0E0,7.3396635E-1,0E0,0E0,0E0,0E0,0E0,0E0,0E0,0E0,0E0,0E0],"parents":[2147483647,0,0,1,1,3,3,5,5,6,6,7,7,8,8,9,9,10,10,11,11,12,12,13,13,16,16],"right_children":[2,4,-1,6,-1,8,10,12,14,16,18,20,22,24,-1,-1,26,-1,-1,-1,-1,-1,-1,-1,-1,-1,-1],"split_conditions":[-3.3673558E-1,-6.768385E-2,-2.6594624E-1,2.04839E0,-2.2042863E-1,1.5962129E0,8.585029E-1,1.2822868E0,-3.2758534E-1,-6.435457E-1,4.571084E0,3.5808298E-1,-5.5787556E-2,1.689308E0,9.946362E-2,-1.955116E-1,4.0135768E-1,1.2975529E-2,-2.95496E-1,1.7021275E-4,2.488399E-1,-3.008737E-1,-5.249859E-2,-5.024113E-1,-6.154245E-2,2.367321E-1,9.839074E-2],"split_indices":[2,4,0,17,0,17,0,8,11,0,7,8,0,17,0,0,0,0,0,0,0,0,0,0,0,0,0],"split_type":[0,0,0,0,0,0,0,0,0,0,0,0,0,0,0,0,0,0,0,0,0,0,0,0,0,0,0],"sum_hessian":[1.3788816E4,1.3781208E4,7.6081805E0,1.3778603E4,2.6052358E0,1.3756296E4,2.230677E1,1.3751208E4,5.087561E0,1.8924517E1,3.3822534E0,1.3745989E4,5.219242E0,3.6922958E0,1.3952655E0,1.2459104E0,1.7678606E1,1.6274706E0,1.7547827E0,1.3743229E4,2.7603304E0,1.2252274E0,3.9940145E0,2.3728878E0,1.3194079E0,7.768013E0,9.910594E0],"tree_param":{"num_deleted":"0","num_feature":"18","num_nodes":"27","size_leaf_vector":"1"}},{"base_weights":[-1.5048381E-4,3.0916068E-4,-7.90955E-1,-5.4309535E-4,1.2757573E-1,-5.3457472E-2,-2.572122E-1,5.4043863E-4,-1.19436376E-1,3.1207466E-1,-5.158193E-2,-8.605283E-4,3.0251354E-1,-9.2392124E-2,-1.0419264E0,2.1713928E-3,-2.7297565E-1,8.153624E-4,-7.425813E-2,-3.283908E-2,-4.6056008E-1,-4.4407374E-1,-6.47635E-2,-3.7740543E-1,8.105678E-2,-5.7526412E-3,2.1079541E-3,-4.7163005E-4,-2.1234821E-1,-3.2232035E-2,1.938767E-1,-1.772903E-1,2.2422592E-1,7.164991E-2,-4.4873917E-1,-2.2587892E-2,6.706204E-2],"categories":[],"categories_nodes":[],"categories_segments":[],"categories_sizes":[],"default_left":[0,0,0,0,0,0,0,0,0,0,0,0,0,0,0,0,0,0,0,0,0,0,0,0,0,0,0,0,0,0,0,0,0,0,0,0,0],"id":31,"left_children":[1,3,5,7,9,-1,-1,11,13,-1,15,17,-1,19,21,23,-1,25,27,29,31,-1,-1,33,35,-1,-1,-1,-1,-1,-1,-1,-1,-1,-1,-1,-1],"loss_changes":[5.0105157E0,1.4943547E0,1.7311668E-1,1.7631849E0,1.5039358E1,0E0,0E0,1.9151918E1,2.9874885E0,0E0,3.5806084E0,1.6662728E0,0E0,2.6418943E0,9.199023E-1,2.2460613E0,0E0,1.6446329E0,1.3924762E1,5.4085E0,3.0875788E0,0E0,0E0,9.253253E0,1.3998375E0,0E0,0E0,0E0,0E0,0E0,0E0,0E0,0E0,0E0,0E0,0E0,0E0],"parents":[2147483647,0,0,1,1,2,2,3,3,4,4,7,7,8,8,10,10,11,11,13,13,14,14,15,15,17,17,18,18,19,19,20,20,23,23,24,24],"right_children":[2,4,6,8,10,-1,-1,12,14,-1,16,18,-1,20,22,24,-1,26,28,30,32,-1,-1,34,36,-1,-1,-1,-1,-1,-1,-1,-1,-1,-1,-1,-1],"split_conditions":[-3.421328E-1,1.8728731E0,-1.3235489E-1,1.7798381E0,2.8418233E0,-5.3457472E-2,-2.572122E-1,7.665133E-1,-3.2023208E-3,3.1207466E-1,1.0544223E0,1.3593027E-2,3.0251354E-1,9.787689E-1,6.981514E-1,-6.435457E-1,-2.7297565E-1,-8.394651E-1,7.178529E-1,8.828418E-1,6.6790335E-2,-4.4407374E-1,-6.47635E-2,-1.0353845E0,2.942875E0,-5.7526412E-3,2.1079541E-3,-4.7163005E-4,-2.1234821E-1,-3.2232035E-2,1.938767E-1,-1.772903E-1,2.2422592E-1,7.164991E-2,-4.4873917E-1,-2.2587892E-2,6.706204E-2],"split_indices":[2,11,1,11,11,0,0,11,9,0,0,17,0,0,0,0,0,0,11,0,17,0,0,0,11,0,0,0,0,0,0,0,0,0,0,0,0],"split_type":[0,0,0,0,0,0,0,0,0,0,0,0,0,0,0,0,0,0,0,0,0,0,0,0,0,0,0,0,0,0,0,0,0,0,0,0,0],"sum_hessian":[1.3782834E4,1.3775826E4,7.007405E0,1.3685178E4,9.064871E1,1.0454254E0,5.9619794E0,1.356257E4,1.2260704E2,1.4085809E1,7.6562904E1,1.3544741E4,1.7829016E1,1.20183815E2,2.4232225E0,7.298942E1,3.57349E0,1.3243345E4,3.01397E2,1.0438776E2,1.5796057E1,1.0657508E0,1.3574718E0,1.19078045E1,6.108161E1,3.1388254E3,1.010452E4,2.7127728E2,3.0119719E1,9.4813896E1,9.573864E0,1.4717958E1,1.0780983E0,8.184539E0,3.7232654E0,2.93485E1,3.1733112E1],"tree_param":{"num_deleted":"0","num_feature":"18","num_nodes":"37","size_leaf_vector":"1"}},{"base_weights":[-4.3721884E-5,2.951739E-4,-2.4706848E-1,9.643805E-4,-1.506082E-1,7.362021E-5,3.0724624E-1,-2.8130203E-1,-9.107809E-2,1.2203842E-1,-7.510152E-4,-2.2317092E-1,-2.4083437E-2,1.4409895E-1,-2.5914678E-1,-1.8463448E-1,1.08862885E-4,5.774608E-1,-2.0770891E-1,-3.9311253E-2,6.7356266E-2,-3.7530735E-2,-3.4494206E-1,4.3835137E-2,-2.6998055E-4,4.2254016E-2,4.3794194E-1,-2.629286E-1,-1.1400672E-2],"categories":[],"categories_nodes":[],"categories_segments":[],"categories_sizes":[],"default_left":[0,0,0,0,0,0,0,0,0,0,0,0,0,0,0,0,0,0,0,0,0,0,0,0,0,0,0,0,0],"id":32,"left_children":[1,3,-1,5,7,9,-1,-1,11,13,15,-1,17,19,-1,21,23,25,27,-1,-1,-1,-1,-1,-1,-1,-1,-1,-1],"loss_changes":[3.8445907E0,1.3907235E0,0E0,1.2495697E1,2.7634425E0,1.3779237E0,0E0,0E0,2.5027788E0,2.1255417E0,2.1517346E0,0E0,6.007835E0,2.039705E0,0E0,3.4955814E0,1.9953598E0,4.6987796E0,4.684695E0,0E0,0E0,0E0,0E0,0E0,0E0,0E0,0E0,0E0,0E0],"parents":[2147483647,0,0,1,1,3,3,4,4,5,5,8,8,9,9,10,10,12,12,13,13,15,15,16,16,17,17,18,18],"right_children":[2,4,-1,6,8,10,-1,-1,12,14,16,-1,18,20,-1,22,24,26,28,-1,-1,-1,-1,-1,-1,-1,-1,-1,-1],"split_conditions":[-1.3722625E-1,1.1412537E0,-2.4706848E-1,-8.3029395E-1,-3.649775E-1,-2.5374331E0,3.0724624E-1,-2.8130203E-1,-7.7415866E-1,-3.069164E-2,-2.4721267E0,-2.2317092E-1,-2.5170693E-1,-3.0598848E0,-2.5914678E-1,-2.1570486E-1,-2.3415136E0,-3.6245897E-1,6.406019E-1,-3.9311253E-2,6.7356266E-2,-3.7530735E-2,-3.4494206E-1,4.3835137E-2,-2.6998055E-4,4.2254016E-2,4.3794194E-1,-2.629286E-1,-1.1400672E-2],"split_indices":[12,16,0,16,13,0,0,0,0,7,0,0,0,0,0,11,0,0,0,0,0,0,0,0,0,0,0,0,0],"split_type":[0,0,0,0,0,0,0,0,0,0,0,0,0,0,0,0,0,0,0,0,0,0,0,0,0,0,0,0,0],"sum_hessian":[1.377374E4,1.3769073E4,4.666636E0,1.3709271E4,5.9802483E1,1.3698346E4,1.09253235E1,3.167871E0,5.663461E1,9.100887E1,1.3607337E4,4.3306794E0,5.2303932E1,8.985209E1,1.1567783E0,6.233987E1,1.3544997E4,1.1730583E1,4.057335E1,2.0180832E1,6.9671265E1,5.9782116E1,2.5577567E0,9.195571E1,1.3453041E4,8.623176E0,3.1074078E0,7.369575E0,3.3203773E1],"tree_param":{"num_deleted":"0","num_feature":"18","num_nodes":"29","size_leaf_vector":"1"}},{"base_weights":[-8.7837994E-5,1.8549678E-4,-2.375503E-1,-5.3771716E-1,3.7977876E-4,-2.0424496E-2,-2.5595713E-1,1.705493E-1,-2.1128902E-4,6.783644E-1,-6.295E-2,-2.3932478E-1,9.595198E-4,2.8638187E-1,7.868195E-1,-1.1023021E0,2.0239636E-1,-3.032093E-1,6.2039506E-1,-4.528057E-1,1.2989996E-3,2.1330197E-1,-1.0417071E-2,3.081438E-1,1.5877464E-1,-7.6145134E-3,-3.8928834E-1,2.3148087E-1,-1.2961207E-2,-2.5849804E-1,-5.666928E-2,3.428769E-1,-1.8202443E-1,-3.0520794E-3,-2.9230192E-1,8.842302E-2,2.620978E-4],"categories":[],"categories_nodes":[],"categories_segments":[],"categories_sizes":[],"default_left":[0,0,0,0,0,0,0,0,0,0,0,0,0,0,0,0,0,0,0,0,0,0,0,0,0,0,0,0,0,0,0,0,0,0,0,0,0],"id":33,"left_children":[1,3,-1,5,7,-1,-1,9,11,13,15,17,19,21,23,25,27,29,31,33,35,-1,-1,-1,-1,-1,-1,-1,-1,-1,-1,-1,-1,-1,-1,-1,-1],"loss_changes":[2.9793725E0,1.4384737E0,0E0,6.7822456E-1,1.3839141E0,0E0,0E0,5.689873E0,3.839022E0,4.1601324E-1,9.472905E0,3.8579206E0,2.1027207E0,6.848525E-1,1.5241814E-1,1.4345322E0,3.886598E0,3.8505454E0,3.8674753E0,2.3457887E0,1.7018394E0,0E0,0E0,0E0,0E0,0E0,0E0,0E0,0E0,0E0,0E0,0E0,0E0,0E0,0E0,0E0,0E0],"parents":[2147483647,0,0,1,1,3,3,4,4,7,7,8,8,9,9,10,10,11,11,12,12,13,13,14,14,15,15,16,16,17,17,18,18,19,19,20,20],"right_children":[2,4,-1,6,8,-1,-1,10,12,14,16,18,20,22,24,26,28,30,32,34,36,-1,-1,-1,-1,-1,-1,-1,-1,-1,-1,-1,-1,-1,-1,-1,-1],"split_conditions":[-3.3673558E-1,-2.015186E-2,-2.375503E-1,2.7074474E-1,-1.249843E0,-2.0424496E-2,-2.5595713E-1,1.5871431E0,-3.264761E-1,-8.394651E-1,2.5043573E0,-5.6854916E-1,-8.956734E-2,-1.4272232E0,7.482537E-2,1.613729E0,3.4348648E0,-9.0477157E-1,3.2564232E-1,1.7600937E-1,-2.7899215E-1,2.1330197E-1,-1.0417071E-2,3.081438E-1,1.5877464E-1,-7.6145134E-3,-3.8928834E-1,2.3148087E-1,-1.2961207E-2,-2.5849804E-1,-5.666928E-2,3.428769E-1,-1.8202443E-1,-3.0520794E-3,-2.9230192E-1,8.842302E-2,2.620978E-4],"split_indices":[2,6,0,0,17,0,0,9,17,0,9,8,3,0,0,9,9,0,8,8,17,0,0,0,0,0,0,0,0,0,0,0,0,0,0,0,0],"split_type":[0,0,0,0,0,0,0,0,0,0,0,0,0,0,0,0,0,0,0,0,0,0,0,0,0,0,0,0,0,0,0,0,0,0,0,0,0],"sum_hessian":[1.3765464E4,1.3761713E4,3.751193E0,3.969787E0,1.3757743E4,2.0836816E0,1.8861053E0,4.6625515E1,1.3711117E4,1.4086007E1,3.2539505E1,6.581763E1,1.36453E4,3.84171E0,1.0244297E1,5.976311E0,2.6563196E1,6.1867653E1,3.9499784E0,9.20457E0,1.3636095E4,1.131365E0,2.710345E0,3.753899E0,6.490398E0,1.0910103E0,4.8853006E0,7.361165E0,1.920203E1,9.40131E0,5.2466343E1,2.8184776E0,1.1315006E0,5.530379E0,3.6741908E0,1.873505E1,1.361736E4],"tree_param":{"num_deleted":"0","num_feature":"18","num_nodes":"37","size_leaf_vector":"1"}},{"base_weights":[-8.559801E-5,1.3355768E-4,-2.2528568E-1,-2.0039023E-1,2.7521385E-4,4.9900886E-5,4.1391316E-1,-1.1389595E-4,5.505393E-1,2.956642E-1,-2.9174954E-1,3.184113E-4,-4.756968E-1,3.0262515E-1,-9.562274E-2,-1.4618164E-1,3.255735E-2,-1.8158602E-4,5.1833272E-2,-1.7871092E-1,4.148939E-2],"categories":[],"categories_nodes":[],"categories_segments":[],"categories_sizes":[],"default_left":[0,0,0,0,0,0,0,0,0,0,0,0,0,0,0,0,0,0,0,0,0],"id":34,"left_children":[1,3,-1,-1,5,7,9,11,13,-1,15,17,19,-1,-1,-1,-1,-1,-1,-1,-1],"loss_changes":[2.2643015E0,1.3020968E0,0E0,0E0,1.2818683E0,1.2396964E0,3.3080506E0,2.8260725E0,1.9505067E0,0E0,3.755364E-1,2.1878386E0,1.0022092E0,0E0,0E0,0E0,0E0,0E0,0E0,0E0,0E0],"parents":[2147483647,0,0,1,1,4,4,5,5,6,6,7,7,8,8,10,10,11,11,12,12],"right_children":[2,4,-1,-1,6,8,10,12,14,-1,16,18,20,-1,-1,-1,-1,-1,-1,-1,-1],"split_conditions":[-1.3722625E-1,-1.3240997E-1,-2.2528568E-1,-2.0039023E-1,2.1121926E0,7.158011E0,4.4714727E0,4.9657936E0,1.027572E1,2.956642E-1,3.5808298E-1,1.8728731E0,8.122197E-1,3.0262515E-1,-9.562274E-2,-1.4618164E-1,3.255735E-2,-1.8158602E-4,5.1833272E-2,-1.7871092E-1,4.148939E-2],"split_indices":[12,1,0,0,10,11,10,11,11,0,8,11,0,0,0,0,0,0,0,0,0],"split_type":[0,0,0,0,0,0,0,0,0,0,0,0,0,0,0,0,0,0,0,0,0],"sum_hessian":[1.3758399E4,1.3755385E4,3.0149662E0,1.9165337E0,1.3753468E4,1.374698E4,6.488005E0,1.3743891E4,3.089669E0,3.365278E0,3.1227274E0,1.3732407E4,1.1483497E1,1.9181453E0,1.1715238E0,1.9519218E0,1.1708055E0,1.3660239E4,7.216829E1,9.63091E0,1.8525859E0],"tree_param":{"num_deleted":"0","num_feature":"18","num_nodes":"21","size_leaf_vector":"1"}},{"base_weights":[-6.1922E-5,3.8023473E-4,-3.0304667E-1,5.082126E-4,-1.9334994E-1,2.8090246E-2,-4.9849135E-1,-6.0718365E-5,1.6070154E-1,-2.2305636E-1,5.4712284E-1,-2.509647E-1,-1.870219E-1,-2.0689024E-1,5.3864034E-5,2.9185873E-1,-3.3713643E-2,3.520092E-2,2.0370372E-1,9.328508E-2,-1.3381669E-1,-1.8556805E-1,1.6981515E-4,-9.414451E-2,6.36167E-1,-4.9143106E-5,6.38591E-2,-2.0581563E-1,-1.3890041E-2,6.339425E-2,2.2464427E-1],"categories":[],"categories_nodes":[],"categories_segments":[],"categories_sizes":[],"default_left":[0,0,0,0,0,0,0,0,0,0,0,0,0,0,0,0,0,0,0,0,0,0,0,0,0,0,0,0,0,0,0],"id":35,